[n]
3

[smoother]
kylm.model.ngram.smoother.MKNSmoother

[closed]
true

[max_length]
14

[vocab_cutoff]
0

[start_symbol]
<s>

[terminal_symbol]
</s>

[unknown_symbol]
<unk>

\data\
ngram 1=33
ngram 2=621
ngram 3=4181
\1-grams: 
-99.0000	<s>	-3.2998
-1.3307	</s>
-1.3952	AMOD	-0.8586
-1.9480	CNC	-0.2991
-1.7931	CND	-0.4175
-1.6470	CONJ	-0.5214
-1.4129	COORD	-0.8189
-1.3160	DEP	-0.8460
-1.4314	DET	-0.7591
-1.4921	DIR	-0.6034
-1.3459	DOB	-0.8929
-1.5626	EXT	-0.4476
-2.7931	H	-0.3785
-1.5890	IOB	-0.5725
-1.3952	LOC	-0.8180
-1.4314	MNR	-0.6956
-1.4314	NMOD	-0.8645
-1.3617	PMOD	-0.8898
-1.4129	POB	-0.7190
-1.4129	PRD	-0.7052
-1.3952	PRP	-0.7359
-1.3307	RMOD	-0.9558
-1.4921	ROOT	-0.7219
-1.3459	SUB	-0.8093
-1.3459	TMP	-0.8934
-1.6170	TPC	-0.4585
-1.3459	VMOD	-0.9045
-1.5626	VOC	-0.5234
-1.5143	X	-0.5664
-1.9480	XMDP	-0.3574
-2.3160	XMNR	-0.3452
-1.8900	XPRD	-0.4555
-2.1910	XTMP	-0.3369

\2-grams: 
-1.1064	<s> AMOD	-2.3929
-4.4441	<s> CNC	-0.5322
-3.4346	<s> CND	-0.7898
-1.7572	<s> CONJ	-1.8879
-1.3774	<s> COORD	-2.3922
-1.6582	<s> DEP	-1.8161
-1.0587	<s> DET	-2.4919
-2.2843	<s> DIR	-1.4854
-1.2028	<s> DOB	-2.3808
-3.8598	<s> EXT	-0.2789
-2.2215	<s> IOB	-1.4967
-1.3289	<s> LOC	-2.2446
-2.0907	<s> MNR	-1.5414
-1.3486	<s> NMOD	-2.4154
-1.2119	<s> PMOD	-2.4209
-1.2372	<s> POB	-2.5484
-2.5012	<s> PRD	-1.2185
-1.5641	<s> PRP	-1.9675
-1.0428	<s> RMOD	-2.4202
-1.8556	<s> ROOT	-1.7384
-0.7423	<s> SUB	-2.7673
-1.2829	<s> TMP	-2.2362
-2.2302	<s> TPC	-1.3779
-1.0804	<s> VMOD	-2.5759
-3.0988	<s> VOC	-0.8948
-3.0916	<s> X	-0.7970
-3.3058	<s> XMDP	-0.7920
-4.4849	<s> XMNR	-0.2512
-4.2197	<s> XPRD	-0.3203
-4.0938	<s> XTMP	-0.5471
-1.0325	AMOD </s>	0.0000
-1.0763	AMOD AMOD	-1.9330
-2.2637	AMOD CONJ	-0.3495
-1.2243	AMOD COORD	-1.1504
-1.4814	AMOD DEP	-1.0766
-1.2561	AMOD DET	-1.6334
-1.5723	AMOD DIR	-0.8362
-1.2794	AMOD DOB	-1.9321
-1.9954	AMOD EXT	-0.8053
-1.6599	AMOD IOB	-0.6639
-1.2527	AMOD LOC	-1.5622
-1.5025	AMOD MNR	-0.8959
-1.0786	AMOD NMOD	-1.9194
-1.1173	AMOD PMOD	-1.8210
-1.9330	AMOD POB	-1.2097
-1.3598	AMOD PRD	-0.9194
-1.3991	AMOD PRP	-1.3124
-1.2458	AMOD RMOD	-2.1061
-2.0913	AMOD ROOT	-0.3430
-1.6098	AMOD SUB	-1.5380
-1.3511	AMOD TMP	-1.3489
-2.1555	AMOD TPC	-0.5944
-1.4370	AMOD VMOD	-1.9271
-1.7422	AMOD VOC	-0.5421
-2.1034	AMOD X	-0.2412
-2.2653	AMOD XPRD	-0.2412
-0.7774	CNC </s>	0.0000
-0.9702	CNC DEP	-0.3430
-0.9768	CNC DOB	-0.2412
-1.1409	CNC PRD	-0.2615
-0.9735	CNC RMOD	-0.2412
-1.1219	CNC VMOD	-0.2615
-1.1294	CND </s>	0.0000
-1.4417	CND AMOD	-0.2412
-1.4491	CND COORD	-0.2615
-0.5962	CND DEP	-0.5907
-1.1330	CND DOB	-0.3106
-1.4417	CND LOC	-0.2615
-1.4272	CND PMOD	-0.2615
-1.1294	CND RMOD	-0.4197
-1.1330	CND SUB	-0.8054
-1.4201	CND TMP	-0.2615
-1.3029	CND VMOD	-0.3430
-1.4885	CND X	-0.2615
-1.1189	CONJ </s>	0.0000
-1.3897	CONJ AMOD	-1.2428
-1.6139	CONJ CONJ	-1.4073
-1.2041	CONJ COORD	-1.8201
-1.4937	CONJ DEP	-0.2615
-1.5423	CONJ DET	-0.3960
-1.4163	CONJ DIR	-0.7639
-1.0098	CONJ DOB	-1.6271
-1.5970	CONJ IOB	-0.6173
-1.2007	CONJ LOC	-0.9848
-1.4001	CONJ MNR	-0.6116
-1.5423	CONJ NMOD	-1.3279
-1.2770	CONJ PMOD	-1.0169
-1.6624	CONJ POB	-1.1881
-1.5350	CONJ PRD	-0.4072
-1.2850	CONJ PRP	-1.0412
-1.0597	CONJ RMOD	-1.5427
-1.6982	CONJ SUB	-0.2615
-1.5071	CONJ TMP	-0.7515
-1.0621	CONJ VMOD	-1.7457
-0.9494	COORD </s>	0.0000
-1.3658	COORD AMOD	-1.0193
-2.2773	COORD CND	-0.2615
-2.2036	COORD CONJ	-3.1539
-1.1136	COORD COORD	-1.2066
-1.1054	COORD DEP	-1.3057
-1.7400	COORD DET	-0.4629
-1.4097	COORD DOB	-0.9366
-2.1709	COORD IOB	-0.2615
-1.2387	COORD LOC	-0.7325
-1.6368	COORD MNR	-0.3203
-1.4235	COORD NMOD	-0.6915
-1.3609	COORD PMOD	-1.1014
-1.8676	COORD POB	-0.4072
-1.5498	COORD PRD	-0.5421
-1.3658	COORD PRP	-1.1881
-1.1068	COORD RMOD	-0.8324
-1.7578	COORD ROOT	-0.5613
-1.0569	COORD SUB	-1.3329
-1.2711	COORD TMP	-0.8093
-1.7893	COORD TPC	-0.3952
-1.1662	COORD VMOD	-1.0215
-1.7764	COORD VOC	-0.3660
-1.9086	COORD X	-0.3660
-0.9955	DEP </s>	0.0000
-1.4723	DEP AMOD	-0.8291
-2.4256	DEP CNC	-0.2615
-1.9277	DEP CND	-0.2615
-1.6966	DEP CONJ	-0.4466
-1.3166	DEP COORD	-1.1232
-1.0274	DEP DEP	-1.6320
-1.5873	DEP DET	-0.6570
-1.9823	DEP DIR	-0.4222
-1.3791	DEP DOB	-1.4625
-2.1388	DEP EXT	-0.2479
-2.0224	DEP IOB	-0.4172
-1.4723	DEP LOC	-0.9450
-1.8299	DEP MNR	-0.5437
-1.8299	DEP NMOD	-0.8667
-1.3105	DEP PMOD	-0.9403
-1.3166	DEP POB	-1.2546
-1.2269	DEP PRD	-1.1176
-1.5227	DEP PRP	-0.8443
-1.2186	DEP RMOD	-1.5750
-1.4407	DEP ROOT	-1.0380
-1.1469	DEP SUB	-1.8411
-1.2202	DEP TMP	-1.1941
-1.6193	DEP TPC	-0.7031
-1.2770	DEP VMOD	-1.6214
-2.2183	DEP VOC	-0.2615
-2.1122	DEP X	-0.5372
-1.8294	DEP XMDP	-0.3952
-2.2841	DEP XPRD	-0.2412
-2.5136	DEP XTMP	-0.2615
-0.9423	DET </s>	0.0000
-1.1436	DET AMOD	-1.0486
-1.7640	DET CONJ	-1.2278
-1.5990	DET COORD	-0.4222
-1.2382	DET DEP	-0.8716
-1.1470	DET DET	-1.4968
-1.8619	DET DIR	-0.2479
-1.2834	DET DOB	-2.1158
-1.7433	DET EXT	-1.3038
-2.0370	DET IOB	-0.5991
-1.3881	DET LOC	-1.0696
-1.6039	DET MNR	-0.6167
-1.1167	DET NMOD	-1.9591
-1.2445	DET PMOD	-0.9638
-1.5181	DET POB	-2.0590
-1.4500	DET PRD	-1.0844
-1.5942	DET PRP	-0.4792
-1.2811	DET RMOD	-1.6748
-1.4639	DET ROOT	-0.8452
-1.3792	DET SUB	-2.1260
-1.3287	DET TMP	-1.7201
-1.7570	DET TPC	-0.9944
-1.4364	DET VMOD	-0.7182
-1.8893	DET VOC	-0.2412
-0.7148	DIR </s>	0.0000
-1.2423	DIR AMOD	-0.8779
-1.1730	DIR COORD	-1.0762
-1.3104	DIR DEP	-0.4752
-1.8174	DIR DET	-0.2615
-1.7590	DIR DIR	-0.2412
-1.4223	DIR DOB	-0.7142
-1.7116	DIR LOC	-1.0449
-1.3361	DIR MNR	-0.3430
-1.7299	DIR NMOD	-0.6440
-1.4269	DIR PMOD	-0.7232
-1.7207	DIR POB	-1.7324
-1.7207	DIR PRD	-0.3660
-1.0067	DIR PRP	-1.0293
-1.4177	DIR RMOD	-0.4273
-1.8532	DIR ROOT	-0.2615
-1.2333	DIR SUB	-0.7480
-1.2333	DIR TMP	-0.7182
-1.1627	DIR VMOD	-1.0323
-1.8921	DIR VOC	-0.2412
-1.8658	DIR X	-0.2615
-0.9801	DOB </s>	0.0000
-1.5598	DOB AMOD	-2.2194
-2.4227	DOB CNC	-0.2615
-2.3569	DOB CND	-0.2615
-1.2256	DOB COORD	-1.5635
-1.3128	DOB DEP	-1.6234
-1.3644	DOB DET	-1.2461
-1.4137	DOB DIR	-0.8741
-1.2496	DOB DOB	-1.0376
-1.7478	DOB EXT	-0.5215
-1.3393	DOB IOB	-1.3498
-1.2241	DOB LOC	-1.3146
-1.2576	DOB MNR	-1.0170
-1.6359	DOB NMOD	-2.2303
-1.2835	DOB PMOD	-1.5478
-2.0653	DOB POB	-1.1606
-1.4512	DOB PRD	-0.7813
-1.2241	DOB PRP	-1.6585
-1.1641	DOB RMOD	-1.4482
-1.4412	DOB SUB	-1.3191
-1.2818	DOB TMP	-1.0961
-2.2655	DOB TPC	-0.2615
-1.1917	DOB VMOD	-1.8595
-2.0069	DOB VOC	-0.5322
-2.1207	DOB X	-0.2615
-0.5952	EXT </s>	0.0000
-1.3551	EXT AMOD	-0.6090
-1.3608	EXT COORD	-0.2615
-1.4631	EXT DEP	-0.2615
-1.6164	EXT DET	-0.2412
-1.5424	EXT DIR	-0.2412
-1.5677	EXT DOB	-0.2615
-1.5010	EXT LOC	-0.2615
-1.5171	EXT NMOD	-0.6440
-1.1927	EXT PMOD	-0.5322
-1.6062	EXT POB	-0.2615
-1.6062	EXT PRD	-0.2615
-1.5963	EXT PRP	-0.2615
-1.3331	EXT RMOD	-0.6291
-1.5424	EXT ROOT	-0.3660
-1.0778	EXT SUB	-0.4663
-1.3385	EXT TMP	-0.2412
-1.3385	EXT VMOD	-0.3331
-0.2210	H RMOD	-0.2615
-0.8634	IOB </s>	0.0000
-1.3861	IOB AMOD	-0.4809
-1.3906	IOB COORD	-0.7877
-1.5017	IOB DEP	-0.5421
-1.7759	IOB DET	-0.2412
-1.7136	IOB DIR	-0.2512
-0.9039	IOB DOB	-1.1632
-1.8487	IOB EXT	-0.2615
-1.7541	IOB IOB	-0.2512
-1.5325	IOB LOC	-0.8431
-1.5454	IOB MNR	-0.3660
-1.5454	IOB NMOD	-0.8052
-1.2697	IOB PMOD	-0.7133
-1.7648	IOB POB	-1.9053
-1.7648	IOB PRD	-0.2615
-1.1169	IOB PRP	-0.9228
-1.1072	IOB RMOD	-0.7144
-1.7233	IOB SUB	-0.2412
-1.2663	IOB TMP	-0.7182
-0.9947	IOB VMOD	-0.9994
-0.9978	LOC </s>	0.0000
-1.3639	LOC AMOD	-1.2765
-2.3039	LOC CND	-0.2615
-2.1324	LOC CONJ	-0.3331
-1.1894	LOC COORD	-1.0591
-1.2406	LOC DEP	-1.0323
-1.5943	LOC DET	-1.1107
-1.6906	LOC DIR	-0.4532
-1.5086	LOC DOB	-1.0328
-1.7065	LOC EXT	-0.9304
-2.1044	LOC IOB	-0.4072
-1.2847	LOC LOC	-0.8228
-1.3270	LOC MNR	-0.6583
-1.3270	LOC NMOD	-1.7942
-1.4548	LOC PMOD	-1.1034
-1.8958	LOC POB	-2.5390
-1.5225	LOC PRD	-0.7210
-1.1333	LOC PRP	-1.3867
-1.1812	LOC RMOD	-1.0885
-1.5369	LOC ROOT	-1.0385
-1.2443	LOC SUB	-1.4743
-1.2125	LOC TMP	-1.0930
-2.1182	LOC TPC	-0.3660
-1.1551	LOC VMOD	-1.2954
-2.0911	LOC VOC	-0.4072
-2.1444	LOC X	-0.2615
-2.4878	LOC XMNR	-0.2615
-2.2289	LOC XPRD	-0.2412
-0.8588	MNR </s>	0.0000
-1.3989	MNR AMOD	-0.8151
-1.2188	MNR COORD	-0.8821
-1.3816	MNR DEP	-0.7018
-1.8604	MNR DET	-0.3283
-1.9775	MNR DIR	-0.2615
-1.2096	MNR DOB	-0.8086
-2.0197	MNR EXT	-0.2615
-1.9385	MNR IOB	-0.2615
-1.3989	MNR LOC	-0.5688
-1.4060	MNR MNR	-0.4402
-1.4906	MNR NMOD	-0.7579
-1.3233	MNR PMOD	-0.9680
-1.8503	MNR POB	-1.9011
-1.8503	MNR PRD	-0.2412
-1.3293	MNR PRP	-0.9680
-1.1612	MNR RMOD	-1.0450
-1.6126	MNR ROOT	-0.3260
-1.0482	MNR SUB	-1.2506
-1.1633	MNR TMP	-0.6087
-1.6425	MNR TPC	-0.6291
-1.1633	MNR VMOD	-0.9644
-1.9033	MNR X	-0.2479
-0.9656	NMOD </s>	0.0000
-0.9691	NMOD AMOD	-2.2886
-1.1704	NMOD COORD	-1.4068
-1.7130	NMOD DEP	-0.8052
-1.1410	NMOD DET	-1.6983
-1.4946	NMOD DIR	-0.7154
-1.6220	NMOD DOB	-0.6390
-1.9372	NMOD EXT	-0.5322
-2.0953	NMOD IOB	-0.2412
-1.1383	NMOD LOC	-1.5326
-1.7490	NMOD MNR	-0.6670
-0.9709	NMOD NMOD	-2.5841
-1.1073	NMOD PMOD	-1.6697
-2.0092	NMOD POB	-0.4923
-1.4220	NMOD PRD	-1.0525
-1.2764	NMOD PRP	-1.1730
-1.3112	NMOD RMOD	-0.8974
-1.7230	NMOD SUB	-0.2498
-1.1974	NMOD TMP	-1.2497
-2.1792	NMOD VOC	-0.2615
-2.1512	NMOD X	-0.2615
-2.3335	NMOD XPRD	-0.2615
-0.9424	PMOD </s>	0.0000
-1.2014	PMOD AMOD	-1.4585
-2.2539	PMOD CONJ	-0.2615
-1.2029	PMOD COORD	-1.0351
-1.1943	PMOD DEP	-1.1222
-1.4030	PMOD DET	-0.6236
-2.1663	PMOD DIR	-0.2615
-1.3917	PMOD DOB	-1.1351
-2.2079	PMOD EXT	-0.2615
-1.2699	PMOD LOC	-1.1733
-1.4565	PMOD MNR	-0.8977
-1.5888	PMOD NMOD	-0.9044
-1.0880	PMOD PMOD	-1.1222
-1.5853	PMOD POB	-2.5045
-1.4540	PMOD PRD	-0.7901
-1.2343	PMOD PRP	-1.2148
-1.1957	PMOD RMOD	-0.8706
-1.9434	PMOD ROOT	-0.3048
-1.3452	PMOD SUB	-1.0359
-1.1669	PMOD TMP	-1.0639
-2.2380	PMOD TPC	-0.2615
-1.1972	PMOD VMOD	-1.5279
-2.2079	PMOD VOC	-0.2615
-2.1797	PMOD X	-0.2479
-0.7476	POB </s>	0.0000
-1.4453	POB AMOD	-2.2057
-1.0820	POB COORD	-1.1469
-1.2145	POB DEP	-1.0748
-1.5626	POB DET	-1.7373
-1.8753	POB DIR	-0.3283
-1.6769	POB DOB	-0.5322
-1.9065	POB EXT	-0.4072
-1.4453	POB LOC	-1.3827
-1.8462	POB MNR	-0.7752
-1.4528	POB NMOD	-2.3597
-0.8828	POB PMOD	-1.5610
-1.1736	POB POB	-1.3096
-1.2872	POB PRP	-1.1441
-1.2770	POB RMOD	-0.6173
-1.3501	POB TMP	-0.8691
-1.1657	POB VMOD	-0.8029
-1.8855	POB X	-0.2615
-0.7631	PRD </s>	0.0000
-1.2208	PRD AMOD	-1.0381
-2.0428	PRD CONJ	-0.2615
-1.0776	PRD COORD	-0.9699
-0.9612	PRD DEP	-1.0467
-1.8377	PRD DET	-0.3694
-1.6692	PRD DOB	-0.7579
-1.9994	PRD EXT	-0.2615
-1.5467	PRD LOC	-0.8779
-1.9238	PRD MNR	-0.2615
-1.3601	PRD NMOD	-1.1684
-1.2770	PRD PMOD	-0.7258
-1.8283	PRD POB	-0.7901
-1.1690	PRD PRD	-0.4646
-1.6890	PRD PRP	-0.7639
-1.1589	PRD RMOD	-1.0891
-1.9600	PRD ROOT	-0.6468
-1.6692	PRD SUB	-0.3872
-1.2744	PRD TMP	-0.3503
-1.1137	PRD VMOD	-1.0486
-1.8987	PRD VOC	-0.2615
-0.8702	PRP </s>	0.0000
-1.3210	PRP AMOD	-0.7450
-2.1853	PRP CND	-0.2615
-1.1072	PRP COORD	-1.0263
-1.0354	PRP DEP	-1.5521
-1.9068	PRP DET	-0.2479
-2.0230	PRP DIR	-0.7639
-1.3715	PRP DOB	-1.5457
-1.8411	PRP IOB	-0.5077
-1.1794	PRP LOC	-0.9380
-1.7828	PRP MNR	-0.4017
-1.6455	PRP NMOD	-0.2479
-1.4428	PRP PMOD	-0.9172
-1.7751	PRP POB	-1.5181
-1.6398	PRP PRD	-0.5322
-1.2217	PRP PRP	-1.1007
-1.2591	PRP RMOD	-1.1737
-1.9391	PRP ROOT	-0.2615
-1.1356	PRP SUB	-1.0817
-1.2153	PRP TMP	-0.7213
-1.9988	PRP TPC	-0.2412
-1.1736	PRP VMOD	-1.8292
-2.0657	PRP VOC	-0.2615
-2.0368	PRP X	-0.3660
-2.2488	PRP XMDP	-0.2615
-2.3232	PRP XTMP	-0.2615
-1.1352	RMOD </s>	0.0000
-1.3223	RMOD AMOD	-1.9986
-2.4234	RMOD CNC	-0.2615
-2.2107	RMOD CND	-0.4816
-1.5372	RMOD CONJ	-1.7954
-1.2327	RMOD COORD	-1.4148
-1.2673	RMOD DEP	-1.7531
-1.4096	RMOD DET	-1.3172
-1.6098	RMOD DIR	-0.8376
-1.2931	RMOD DOB	-1.8010
-1.7332	RMOD EXT	-0.6143
-2.7472	RMOD H	-0.2615
-1.4568	RMOD IOB	-0.8692
-1.2745	RMOD LOC	-1.4038
-1.4416	RMOD MNR	-0.9711
-1.6004	RMOD NMOD	-1.9481
-1.3190	RMOD PMOD	-1.4987
-1.8480	RMOD POB	-1.5701
-1.5113	RMOD PRD	-1.2245
-1.3223	RMOD PRP	-1.5127
-1.2262	RMOD RMOD	-2.1129
-1.3570	RMOD ROOT	-2.1421
-1.2701	RMOD SUB	-1.6640
-1.3432	RMOD TMP	-1.3939
-2.0080	RMOD TPC	-0.3856
-1.2701	RMOD VMOD	-2.1041
-1.6726	RMOD VOC	-0.8993
-2.1101	RMOD X	-0.2546
-2.5437	RMOD XMDP	-0.2615
-2.4034	RMOD XPRD	-0.6090
-1.3012	ROOT </s>	0.0000
-1.2129	ROOT AMOD	-1.0729
-1.4443	ROOT COORD	-1.1125
-1.2477	ROOT DEP	-1.4163
-1.5318	ROOT DET	-0.5433
-1.5455	ROOT DIR	-0.6652
-1.0919	ROOT DOB	-2.0734
-1.8222	ROOT EXT	-0.2615
-1.6777	ROOT IOB	-0.7474
-1.1322	ROOT LOC	-1.3951
-1.6356	ROOT MNR	-0.8043
-1.3779	ROOT NMOD	-1.0798
-1.1668	ROOT PMOD	-1.3177
-1.8852	ROOT POB	-0.7934
-1.3747	ROOT PRD	-0.9813
-1.4407	ROOT PRP	-1.1001
-1.0281	ROOT RMOD	-2.0028
-1.6078	ROOT SUB	-0.9944
-1.2524	ROOT TMP	-1.0989
-1.0296	ROOT VMOD	-2.1428
-2.0541	ROOT VOC	-0.2615
-2.0250	ROOT X	-0.2615
-1.9097	ROOT XPRD	-0.2479
-1.2462	SUB </s>	0.0000
-1.2886	SUB AMOD	-2.1132
-2.2485	SUB CNC	-0.2615
-1.8691	SUB CND	-0.5007
-1.2422	SUB CONJ	-1.5334
-1.3286	SUB COORD	-0.9268
-1.1060	SUB DEP	-1.8169
-1.7756	SUB DET	-1.5550
-2.1260	SUB DIR	-0.2615
-1.4047	SUB DOB	-1.2113
-2.0894	SUB EXT	-0.2412
-2.1883	SUB IOB	-0.2615
-1.5882	SUB LOC	-1.1946
-1.6770	SUB MNR	-0.2991
-1.6770	SUB NMOD	-2.4137
-1.5145	SUB PMOD	-1.3953
-2.0049	SUB POB	-1.2909
-1.1392	SUB PRD	-1.1723
-1.5882	SUB PRP	-0.7589
-1.0414	SUB RMOD	-2.3243
-1.0737	SUB ROOT	-2.3726
-1.7444	SUB SUB	-0.7142
-1.2823	SUB TMP	-1.2191
-2.2053	SUB TPC	-0.2615
-0.9851	SUB VMOD	-2.0523
-2.1719	SUB VOC	-0.2615
-1.9396	SUB X	-0.2512
-2.2485	SUB XMDP	-0.2412
-1.6663	SUB XPRD	-0.3048
-2.4578	SUB XTMP	-0.2615
-1.0250	TMP </s>	0.0000
-1.3526	TMP AMOD	-1.9419
-2.3524	TMP CND	-0.2615
-2.1794	TMP CONJ	-0.3931
-1.2176	TMP COORD	-0.9756
-1.1548	TMP DEP	-1.2507
-1.7122	TMP DET	-1.7861
-2.1870	TMP DIR	-0.2615
-1.3466	TMP DOB	-0.8465
-1.5790	TMP EXT	-0.6719
-1.1878	TMP LOC	-0.8981
-1.6289	TMP MNR	-0.6440
-1.3991	TMP NMOD	-1.6241
-1.3106	TMP PMOD	-0.9913
-1.7076	TMP POB	-2.2180
-1.3969	TMP PRD	-0.6271
-1.3142	TMP PRP	-0.9482
-1.2723	TMP RMOD	-1.3613
-1.4059	TMP ROOT	-0.9653
-1.0867	TMP SUB	-2.0130
-1.1837	TMP TMP	-1.0666
-1.8647	TMP TPC	-0.4964
-1.2117	TMP VMOD	-1.0911
-2.2304	TMP VOC	-0.2615
-2.2010	TMP X	-0.2479
-1.2707	TPC </s>	0.0000
-1.2892	TPC AMOD	-1.0491
-1.9083	TPC CNC	-0.2615
-1.8528	TPC CND	-0.2615
-1.6768	TPC CONJ	-0.2615
-1.5743	TPC COORD	-0.4412
-1.2662	TPC DEP	-0.7602
-1.4465	TPC DET	-1.1256
-1.5392	TPC DOB	-0.4629
-1.4331	TPC LOC	-0.2479
-1.2988	TPC NMOD	-1.0416
-1.6279	TPC PMOD	-0.2479
-1.5743	TPC POB	-1.6272
-1.6490	TPC PRP	-0.2615
-1.0830	TPC RMOD	-0.4567
-1.3136	TPC ROOT	-0.4131
-0.8110	TPC SUB	-1.3118
-1.1704	TPC TMP	-0.8432
-1.7738	TPC TPC	-0.2512
-1.2752	TPC VMOD	-0.5501
-1.6225	TPC X	-0.2615
-1.9083	TPC XMDP	-0.2615
-1.9952	TPC XMNR	-0.2615
-0.9808	VMOD </s>	0.0000
-1.5619	VMOD AMOD	-0.5141
-2.4271	VMOD CNC	-0.2615
-2.1892	VMOD CONJ	-0.2452
-1.1463	VMOD COORD	-1.6525
-1.1638	VMOD DEP	-1.5253
-1.8248	VMOD DET	-0.4172
-1.6497	VMOD DIR	-1.0899
-1.1663	VMOD DOB	-2.2907
-1.6616	VMOD EXT	-0.5896
-1.5915	VMOD IOB	-1.0356
-1.1968	VMOD LOC	-1.5729
-1.4553	VMOD MNR	-1.0099
-1.1941	VMOD PMOD	-1.5941
-1.9525	VMOD POB	-0.3660
-1.2898	VMOD PRD	-0.8242
-1.1968	VMOD PRP	-1.5102
-1.1913	VMOD RMOD	-2.1451
-2.1151	VMOD ROOT	-0.3530
-1.4430	VMOD SUB	-1.2241
-1.2830	VMOD TMP	-1.2267
-1.0542	VMOD VMOD	-2.2610
-2.0110	VMOD VOC	-0.5322
-0.3448	VOC </s>	0.0000
-1.2008	VOC AMOD	-1.3550
-1.3578	VOC DEP	-0.2479
-1.4911	VOC DOB	-0.5322
-1.5249	VOC MNR	-0.2615
-1.5249	VOC NMOD	-0.5372
-1.5179	VOC PRD	-0.2615
-1.3626	VOC RMOD	-0.2412
-1.3675	VOC SUB	-0.3372
-1.3675	VOC VMOD	-0.2412
-1.6548	VOC XMDP	-0.2615
-0.5343	X </s>	0.0000
-1.1523	X DEP	-0.5043
-1.6225	X LOC	-0.2412
-1.6387	X MNR	-0.2615
-1.6068	X PMOD	-0.3331
-1.6305	X POB	-0.2615
-1.5062	X PRP	-0.2479
-1.5918	X RMOD	-0.2479
-1.6642	X ROOT	-0.2479
-0.8002	X SUB	-0.8935
-1.1578	X TMP	-0.3761
-1.7104	X TPC	-0.2615
-1.1578	X VMOD	-0.5322
-1.5444	X X	-0.2615
-1.1110	XMDP </s>	0.0000
-1.2398	XMDP DEP	-0.3405
-1.2506	XMDP DOB	-0.2615
-1.2673	XMDP PRP	-0.2412
-0.9238	XMDP RMOD	-0.4222
-1.2967	XMDP ROOT	-0.2615
-0.7424	XMDP SUB	-0.6704
-0.9264	XMDP TMP	-0.4891
-0.8596	XMNR DEP	-0.2615
-0.8831	XMNR ROOT	-0.2615
-0.4736	XMNR SUB	-0.2512
-0.5192	XPRD </s>	0.0000
-0.7494	XPRD DEP	-0.6670
-1.2827	XPRD DOB	-0.2615
-1.2875	XPRD PMOD	-0.2615
-1.3020	XPRD PRD	-0.2615
-1.1382	XPRD TMP	-0.2615
-1.2827	XPRD VMOD	-0.2615
-0.9265	XTMP </s>	0.0000
-0.9320	XTMP PMOD	-0.2615
-0.7629	XTMP SUB	-0.4742
-0.9292	XTMP TMP	-0.2615
-0.9292	XTMP VMOD	-0.2615

\3-grams: 
-2.1066	<s> AMOD AMOD
-2.7103	<s> AMOD CONJ
-1.9944	<s> AMOD COORD
-2.1446	<s> AMOD DEP
-1.0581	<s> AMOD DET
-2.3993	<s> AMOD DIR
-0.6974	<s> AMOD DOB
-2.9149	<s> AMOD EXT
-2.6353	<s> AMOD IOB
-1.3399	<s> AMOD LOC
-2.3509	<s> AMOD MNR
-1.8639	<s> AMOD NMOD
-1.5076	<s> AMOD PMOD
-1.6736	<s> AMOD POB
-2.7440	<s> AMOD PRD
-2.0998	<s> AMOD PRP
-0.4622	<s> AMOD RMOD
-3.3399	<s> AMOD ROOT
-1.3054	<s> AMOD SUB
-1.6559	<s> AMOD TMP
-2.6767	<s> AMOD TPC
-0.8809	<s> AMOD VMOD
-3.8501	<s> AMOD VOC
-4.0007	<s> AMOD X
-0.1321	<s> CNC DEP
-1.4881	<s> CND AMOD
-0.4582	<s> CND DEP
-1.4125	<s> CND RMOD
-0.3231	<s> CND SUB
-1.6924	<s> CND TMP
-1.2609	<s> CONJ AMOD
-3.2084	<s> CONJ CONJ
-1.0586	<s> CONJ COORD
-2.3679	<s> CONJ DET
-2.0402	<s> CONJ DIR
-0.6364	<s> CONJ DOB
-2.3085	<s> CONJ IOB
-1.4821	<s> CONJ LOC
-2.3536	<s> CONJ MNR
-1.0957	<s> CONJ NMOD
-1.4496	<s> CONJ PMOD
-1.6641	<s> CONJ POB
-3.1664	<s> CONJ PRD
-1.9733	<s> CONJ PRP
-0.6777	<s> CONJ RMOD
-3.2492	<s> CONJ SUB
-2.1148	<s> CONJ TMP
-0.6962	<s> CONJ VMOD
-0.0277	<s> COORD CONJ
-2.2111	<s> COORD COORD
-2.9547	<s> COORD DEP
-2.7995	<s> COORD LOC
-3.4782	<s> COORD MNR
-3.5180	<s> COORD PMOD
-3.5208	<s> COORD PRP
-2.5542	<s> COORD RMOD
-2.5078	<s> COORD ROOT
-1.3907	<s> COORD SUB
-2.6178	<s> COORD TMP
-3.0665	<s> COORD TPC
-3.3944	<s> COORD VMOD
-3.7108	<s> COORD VOC
-3.7524	<s> COORD X
-1.5572	<s> DEP AMOD
-3.5236	<s> DEP CNC
-3.1961	<s> DEP CND
-2.7400	<s> DEP CONJ
-2.0895	<s> DEP COORD
-1.1237	<s> DEP DEP
-1.8156	<s> DEP DET
-3.2109	<s> DEP DIR
-1.6914	<s> DEP DOB
-3.4521	<s> DEP EXT
-1.4876	<s> DEP LOC
-2.2203	<s> DEP MNR
-1.5703	<s> DEP NMOD
-1.7124	<s> DEP PMOD
-3.0093	<s> DEP POB
-2.0806	<s> DEP PRD
-1.9157	<s> DEP PRP
-0.9543	<s> DEP RMOD
-1.3691	<s> DEP ROOT
-0.3436	<s> DEP SUB
-1.0631	<s> DEP TMP
-1.8820	<s> DEP TPC
-1.5284	<s> DEP VMOD
-2.4899	<s> DEP X
-2.9196	<s> DEP XMDP
-3.4927	<s> DEP XPRD
-3.5391	<s> DEP XTMP
-2.3202	<s> DET AMOD
-1.8169	<s> DET CONJ
-3.8477	<s> DET COORD
-2.2666	<s> DET DEP
-1.4916	<s> DET DET
-3.9781	<s> DET DIR
-0.6149	<s> DET DOB
-2.0982	<s> DET EXT
-2.7901	<s> DET IOB
-2.1321	<s> DET LOC
-2.8530	<s> DET MNR
-0.9412	<s> DET NMOD
-0.7347	<s> DET POB
-2.1661	<s> DET PRD
-3.8450	<s> DET PRP
-1.0695	<s> DET RMOD
-1.9485	<s> DET ROOT
-0.7054	<s> DET SUB
-1.1259	<s> DET TMP
-2.2556	<s> DET TPC
-3.1987	<s> DET VMOD
-3.8060	<s> DET VOC
-2.4202	<s> DIR AMOD
-2.2418	<s> DIR DEP
-2.6151	<s> DIR DET
-2.7977	<s> DIR DIR
-1.6736	<s> DIR DOB
-0.9042	<s> DIR LOC
-1.7372	<s> DIR NMOD
-1.9157	<s> DIR PMOD
-0.1164	<s> DIR POB
-1.7775	<s> DIR RMOD
-2.6222	<s> DIR ROOT
-2.4157	<s> DIR SUB
-2.4852	<s> DIR VMOD
-2.8330	<s> DIR X
-0.3823	<s> DOB AMOD
-1.9404	<s> DOB COORD
-3.2637	<s> DOB DEP
-1.5021	<s> DOB DET
-2.6982	<s> DOB DIR
-2.2344	<s> DOB DOB
-3.6303	<s> DOB EXT
-3.2733	<s> DOB IOB
-1.7767	<s> DOB LOC
-2.4247	<s> DOB MNR
-0.3897	<s> DOB NMOD
-1.2341	<s> DOB PMOD
-2.2214	<s> DOB POB
-3.5127	<s> DOB PRD
-1.6968	<s> DOB PRP
-1.9997	<s> DOB RMOD
-3.6280	<s> DOB SUB
-2.1588	<s> DOB TMP
-2.6045	<s> DOB VMOD
-3.9003	<s> DOB VOC
-1.0257	<s> EXT AMOD
-1.0770	<s> EXT DET
-1.0604	<s> EXT NMOD
-1.2948	<s> EXT POB
-0.7531	<s> EXT RMOD
-0.9393	<s> EXT SUB
-1.9685	<s> IOB AMOD
-2.6612	<s> IOB COORD
-2.5732	<s> IOB DEP
-2.6572	<s> IOB DET
-2.3779	<s> IOB DIR
-1.0664	<s> IOB DOB
-2.8739	<s> IOB EXT
-1.7892	<s> IOB LOC
-1.4462	<s> IOB NMOD
-2.2770	<s> IOB PMOD
-0.2031	<s> IOB POB
-2.3869	<s> IOB PRP
-1.0543	<s> IOB RMOD
-2.2759	<s> IOB TMP
-0.9968	<s> IOB VMOD
-1.4710	<s> LOC AMOD
-3.8486	<s> LOC CND
-3.1247	<s> LOC CONJ
-2.9679	<s> LOC COORD
-1.8075	<s> LOC DEP
-1.8418	<s> LOC DET
-2.2677	<s> LOC DOB
-2.6463	<s> LOC LOC
-3.4184	<s> LOC MNR
-0.9260	<s> LOC NMOD
-1.9610	<s> LOC PMOD
-0.1590	<s> LOC POB
-3.5461	<s> LOC PRD
-2.5040	<s> LOC PRP
-1.5866	<s> LOC RMOD
-1.9334	<s> LOC ROOT
-1.3217	<s> LOC SUB
-2.0927	<s> LOC TMP
-3.3001	<s> LOC TPC
-2.3126	<s> LOC VMOD
-3.7970	<s> LOC VOC
-3.8796	<s> LOC XMNR
-1.7048	<s> MNR AMOD
-1.9923	<s> MNR COORD
-1.7037	<s> MNR DEP
-2.2262	<s> MNR DET
-1.6071	<s> MNR DOB
-2.2805	<s> MNR LOC
-2.6264	<s> MNR MNR
-1.9657	<s> MNR NMOD
-2.0084	<s> MNR PMOD
-0.2800	<s> MNR POB
-2.6984	<s> MNR PRP
-0.9402	<s> MNR RMOD
-2.0389	<s> MNR ROOT
-0.7951	<s> MNR SUB
-1.6574	<s> MNR TMP
-2.8826	<s> MNR TPC
-1.3050	<s> MNR VMOD
-2.7974	<s> MNR X
-0.6723	<s> NMOD AMOD
-1.9394	<s> NMOD COORD
-1.0071	<s> NMOD DET
-3.2204	<s> NMOD DIR
-2.7904	<s> NMOD DOB
-2.1203	<s> NMOD LOC
-0.1907	<s> NMOD NMOD
-1.8104	<s> NMOD PMOD
-2.8052	<s> NMOD POB
-3.4921	<s> NMOD PRP
-2.6495	<s> NMOD RMOD
-3.2583	<s> NMOD SUB
-2.6915	<s> NMOD TMP
-3.7343	<s> PMOD CONJ
-3.3968	<s> PMOD COORD
-1.6962	<s> PMOD DEP
-2.8976	<s> PMOD DET
-2.0049	<s> PMOD DOB
-2.3978	<s> PMOD LOC
-2.5018	<s> PMOD PMOD
-0.0347	<s> PMOD POB
-3.6575	<s> PMOD PRD
-3.2435	<s> PMOD PRP
-3.1063	<s> PMOD RMOD
-3.4058	<s> PMOD ROOT
-2.0483	<s> PMOD SUB
-2.2679	<s> PMOD TMP
-3.7324	<s> PMOD TPC
-1.7046	<s> PMOD VMOD
-3.9580	<s> PMOD VOC
-3.4263	<s> PMOD X
-0.5157	<s> POB AMOD
-1.9937	<s> POB COORD
-1.1323	<s> POB DET
-3.6763	<s> POB DIR
-3.6335	<s> POB DOB
-3.8965	<s> POB EXT
-2.2253	<s> POB LOC
-3.8790	<s> POB MNR
-0.2400	<s> POB NMOD
-1.5899	<s> POB PMOD
-3.1429	<s> POB PRP
-3.4915	<s> POB RMOD
-2.9563	<s> POB TMP
-0.7487	<s> PRD AMOD
-1.6371	<s> PRD COORD
-2.0091	<s> PRD DEP
-1.7239	<s> PRD DET
-2.3492	<s> PRD DOB
-2.6395	<s> PRD EXT
-1.5657	<s> PRD LOC
-2.6182	<s> PRD MNR
-0.9434	<s> PRD NMOD
-1.4422	<s> PRD PMOD
-1.4707	<s> PRD POB
-2.3548	<s> PRD PRP
-0.3909	<s> PRD RMOD
-2.5253	<s> PRD SUB
-2.3096	<s> PRD TMP
-0.9500	<s> PRD VMOD
-2.7613	<s> PRP AMOD
-3.5762	<s> PRP CND
-2.3752	<s> PRP COORD
-0.7411	<s> PRP DEP
-3.3002	<s> PRP DET
-2.4082	<s> PRP DIR
-0.7518	<s> PRP DOB
-2.4524	<s> PRP IOB
-1.7917	<s> PRP LOC
-2.5059	<s> PRP MNR
-3.2138	<s> PRP NMOD
-1.7775	<s> PRP PMOD
-1.1025	<s> PRP POB
-3.3546	<s> PRP PRD
-2.1024	<s> PRP PRP
-1.0034	<s> PRP RMOD
-3.0406	<s> PRP ROOT
-1.5685	<s> PRP SUB
-1.9286	<s> PRP TMP
-3.5185	<s> PRP TPC
-0.4430	<s> PRP VMOD
-2.8805	<s> PRP X
-3.5922	<s> PRP XMDP
-3.6087	<s> PRP XTMP
-0.6672	<s> RMOD AMOD
-4.0857	<s> RMOD CND
-1.2712	<s> RMOD CONJ
-2.2190	<s> RMOD COORD
-1.6816	<s> RMOD DEP
-1.3318	<s> RMOD DET
-3.0709	<s> RMOD DIR
-1.8249	<s> RMOD DOB
-2.9643	<s> RMOD EXT
-2.7780	<s> RMOD IOB
-1.9763	<s> RMOD LOC
-1.9684	<s> RMOD MNR
-0.9039	<s> RMOD NMOD
-1.6931	<s> RMOD PMOD
-1.6310	<s> RMOD POB
-1.5864	<s> RMOD PRD
-2.0658	<s> RMOD PRP
-0.8339	<s> RMOD RMOD
-1.6485	<s> RMOD ROOT
-1.2694	<s> RMOD SUB
-1.5324	<s> RMOD TMP
-2.8036	<s> RMOD TPC
-0.7968	<s> RMOD VMOD
-3.4021	<s> RMOD X
-4.1576	<s> RMOD XMDP
-3.1930	<s> RMOD XPRD
-1.0282	<s> ROOT AMOD
-1.8285	<s> ROOT COORD
-1.8424	<s> ROOT DEP
-1.7631	<s> ROOT DET
-2.3383	<s> ROOT DIR
-0.8056	<s> ROOT DOB
-2.9577	<s> ROOT IOB
-1.2389	<s> ROOT LOC
-2.4379	<s> ROOT MNR
-1.0259	<s> ROOT NMOD
-1.1587	<s> ROOT PMOD
-1.8671	<s> ROOT POB
-1.8013	<s> ROOT PRD
-2.1927	<s> ROOT PRP
-0.5390	<s> ROOT RMOD
-2.1028	<s> ROOT SUB
-1.5822	<s> ROOT TMP
-0.9540	<s> ROOT VMOD
-3.2173	<s> ROOT XPRD
-0.8863	<s> SUB AMOD
-3.4730	<s> SUB CND
-1.6645	<s> SUB CONJ
-2.5056	<s> SUB COORD
-1.0922	<s> SUB DEP
-1.7588	<s> SUB DET
-4.3750	<s> SUB DIR
-1.9397	<s> SUB DOB
-4.3929	<s> SUB IOB
-2.2259	<s> SUB LOC
-3.6586	<s> SUB MNR
-0.7246	<s> SUB NMOD
-1.8701	<s> SUB PMOD
-2.3061	<s> SUB POB
-2.0879	<s> SUB PRD
-2.9201	<s> SUB PRP
-0.6855	<s> SUB RMOD
-0.6903	<s> SUB ROOT
-3.1343	<s> SUB SUB
-1.9292	<s> SUB TMP
-3.8887	<s> SUB TPC
-1.0492	<s> SUB VMOD
-4.4086	<s> SUB XMDP
-3.8085	<s> SUB XPRD
-0.8278	<s> TMP AMOD
-2.9481	<s> TMP CONJ
-2.5904	<s> TMP COORD
-1.3273	<s> TMP DEP
-0.9643	<s> TMP DET
-3.8545	<s> TMP DIR
-2.5681	<s> TMP DOB
-3.2481	<s> TMP EXT
-2.0083	<s> TMP LOC
-2.6284	<s> TMP MNR
-1.2221	<s> TMP NMOD
-2.6431	<s> TMP PMOD
-0.6991	<s> TMP POB
-3.3716	<s> TMP PRD
-2.6435	<s> TMP PRP
-1.4183	<s> TMP RMOD
-1.8152	<s> TMP ROOT
-0.4818	<s> TMP SUB
-1.7687	<s> TMP TMP
-2.9326	<s> TMP TPC
-2.0511	<s> TMP VMOD
-3.8658	<s> TMP VOC
-3.3484	<s> TMP X
-1.0286	<s> TPC AMOD
-2.8476	<s> TPC CNC
-2.8266	<s> TPC CND
-2.7485	<s> TPC CONJ
-1.8947	<s> TPC COORD
-0.9443	<s> TPC DEP
-1.3865	<s> TPC DET
-2.1643	<s> TPC DOB
-2.1436	<s> TPC LOC
-0.9449	<s> TPC NMOD
-2.3344	<s> TPC PMOD
-0.8462	<s> TPC POB
-2.3388	<s> TPC PRP
-1.4553	<s> TPC RMOD
-1.6263	<s> TPC ROOT
-0.4692	<s> TPC SUB
-1.5168	<s> TPC TMP
-2.1976	<s> TPC TPC
-1.9261	<s> TPC VMOD
-2.8476	<s> TPC XMDP
-3.2118	<s> VMOD AMOD
-3.8609	<s> VMOD CONJ
-2.0846	<s> VMOD COORD
-3.0635	<s> VMOD DET
-1.9136	<s> VMOD DIR
-0.4559	<s> VMOD DOB
-2.7276	<s> VMOD EXT
-2.1837	<s> VMOD IOB
-1.2882	<s> VMOD LOC
-2.0535	<s> VMOD MNR
-1.3537	<s> VMOD PMOD
-1.8854	<s> VMOD PRP
-0.5724	<s> VMOD RMOD
-3.1959	<s> VMOD SUB
-1.7931	<s> VMOD TMP
-0.6642	<s> VMOD VMOD
-0.2839	<s> VOC AMOD
-1.7418	<s> VOC DEP
-1.3404	<s> VOC DOB
-1.9806	<s> VOC MNR
-0.9822	<s> VOC NMOD
-1.2091	<s> VOC RMOD
-0.8689	<s> VOC SUB
-1.9165	<s> VOC VMOD
-2.0235	<s> VOC XMDP
-1.0906	<s> X DEP
-1.7916	<s> X LOC
-1.9904	<s> X MNR
-1.2263	<s> X PMOD
-1.2188	<s> X PRP
-1.5151	<s> X RMOD
-1.5241	<s> X ROOT
-0.2640	<s> X SUB
-1.1769	<s> X TMP
-2.0148	<s> X TPC
-1.7531	<s> X VMOD
-0.6685	<s> XMDP DEP
-1.7081	<s> XMDP DOB
-1.5445	<s> XMDP PRP
-1.2098	<s> XMDP RMOD
-1.7288	<s> XMDP ROOT
-0.3096	<s> XMDP SUB
-0.9662	<s> XMDP TMP
-0.7200	<s> XMNR DEP
-0.7294	<s> XMNR ROOT
-0.3963	<s> XMNR SUB
-0.4096	<s> XPRD DEP
-0.9997	<s> XPRD PMOD
-0.7524	<s> XPRD TMP
-1.0470	<s> XTMP PMOD
-0.1857	<s> XTMP SUB
-1.0460	<s> XTMP TMP
-0.1818	AMOD AMOD </s>
-0.7945	AMOD AMOD AMOD
-2.0967	AMOD AMOD COORD
-2.8697	AMOD AMOD DEP
-1.7578	AMOD AMOD DET
-3.1175	AMOD AMOD DIR
-2.8019	AMOD AMOD DOB
-3.4473	AMOD AMOD EXT
-3.3059	AMOD AMOD IOB
-1.9141	AMOD AMOD LOC
-2.8756	AMOD AMOD MNR
-1.2697	AMOD AMOD NMOD
-1.2578	AMOD AMOD PMOD
-3.2316	AMOD AMOD POB
-3.0177	AMOD AMOD PRD
-2.1729	AMOD AMOD PRP
-2.2735	AMOD AMOD RMOD
-2.7496	AMOD AMOD SUB
-1.9188	AMOD AMOD TMP
-3.4939	AMOD AMOD TPC
-3.5193	AMOD AMOD XPRD
-1.0228	AMOD CONJ </s>
-1.1018	AMOD CONJ AMOD
-1.2199	AMOD CONJ COORD
-1.1325	AMOD CONJ DET
-1.2184	AMOD CONJ LOC
-0.5435	AMOD CONJ NMOD
-1.1483	AMOD CONJ VMOD
-0.1290	AMOD COORD </s>
-1.6485	AMOD COORD AMOD
-1.7036	AMOD COORD COORD
-2.0054	AMOD COORD DEP
-2.2507	AMOD COORD DET
-1.7671	AMOD COORD DOB
-1.8746	AMOD COORD LOC
-1.6559	AMOD COORD NMOD
-1.3198	AMOD COORD PMOD
-2.3674	AMOD COORD PRD
-2.2722	AMOD COORD PRP
-1.2184	AMOD COORD RMOD
-2.0385	AMOD COORD VMOD
-0.0936	AMOD DEP </s>
-2.0527	AMOD DEP AMOD
-1.9967	AMOD DEP COORD
-1.0678	AMOD DEP DEP
-1.8686	AMOD DEP DET
-1.9943	AMOD DEP PMOD
-1.7869	AMOD DEP PRD
-0.5012	AMOD DET </s>
-1.8924	AMOD DET AMOD
-2.2313	AMOD DET CONJ
-2.4668	AMOD DET DEP
-1.1874	AMOD DET DET
-0.8814	AMOD DET DOB
-1.4953	AMOD DET EXT
-2.3814	AMOD DET LOC
-2.9618	AMOD DET MNR
-1.0979	AMOD DET NMOD
-1.9915	AMOD DET PMOD
-1.2175	AMOD DET POB
-1.8828	AMOD DET PRD
-1.0827	AMOD DET RMOD
-2.2893	AMOD DET ROOT
-1.1215	AMOD DET SUB
-1.0171	AMOD DET TMP
-2.6061	AMOD DET TPC
-0.1298	AMOD DIR </s>
-1.0926	AMOD DIR AMOD
-1.6698	AMOD DIR COORD
-1.7369	AMOD DIR MNR
-1.4411	AMOD DIR PRP
-1.6963	AMOD DIR TMP
-1.6650	AMOD DIR VMOD
-0.1616	AMOD DOB </s>
-1.3829	AMOD DOB AMOD
-1.6400	AMOD DOB COORD
-2.2971	AMOD DOB DEP
-2.3556	AMOD DOB DET
-2.3609	AMOD DOB DIR
-2.7690	AMOD DOB DOB
-1.6541	AMOD DOB IOB
-1.5700	AMOD DOB LOC
-2.0678	AMOD DOB MNR
-1.4018	AMOD DOB NMOD
-1.6309	AMOD DOB PMOD
-3.1723	AMOD DOB PRD
-1.7648	AMOD DOB PRP
-1.6170	AMOD DOB RMOD
-3.1662	AMOD DOB SUB
-2.0695	AMOD DOB TMP
-1.2376	AMOD DOB VMOD
-3.4592	AMOD DOB X
-0.0746	AMOD EXT </s>
-1.2910	AMOD EXT PMOD
-0.2148	AMOD IOB </s>
-1.4168	AMOD IOB AMOD
-1.6123	AMOD IOB COORD
-0.9049	AMOD IOB DOB
-1.4467	AMOD IOB LOC
-1.4926	AMOD IOB PRP
-1.4254	AMOD IOB VMOD
-0.1050	AMOD LOC </s>
-1.5258	AMOD LOC AMOD
-2.3424	AMOD LOC COORD
-2.6454	AMOD LOC DEP
-2.7005	AMOD LOC DET
-2.6686	AMOD LOC DOB
-1.8105	AMOD LOC EXT
-2.5657	AMOD LOC LOC
-2.5874	AMOD LOC MNR
-1.4260	AMOD LOC NMOD
-1.7988	AMOD LOC PMOD
-2.6740	AMOD LOC PRD
-1.3536	AMOD LOC PRP
-2.0391	AMOD LOC RMOD
-1.7066	AMOD LOC TMP
-1.7014	AMOD LOC VMOD
-0.1328	AMOD MNR </s>
-1.9944	AMOD MNR DET
-1.7899	AMOD MNR DOB
-1.2411	AMOD MNR LOC
-1.8412	AMOD MNR PMOD
-1.7659	AMOD MNR RMOD
-1.2143	AMOD MNR TMP
-1.6107	AMOD MNR VMOD
-0.1506	AMOD NMOD </s>
-1.0842	AMOD NMOD AMOD
-1.8395	AMOD NMOD COORD
-3.2367	AMOD NMOD DEP
-2.2146	AMOD NMOD DET
-2.9836	AMOD NMOD DIR
-3.3533	AMOD NMOD IOB
-1.7545	AMOD NMOD LOC
-0.9498	AMOD NMOD NMOD
-1.3828	AMOD NMOD PMOD
-2.3081	AMOD NMOD PRD
-2.5525	AMOD NMOD PRP
-2.7018	AMOD NMOD RMOD
-3.2407	AMOD NMOD SUB
-2.2817	AMOD NMOD TMP
-0.0673	AMOD PMOD </s>
-1.4112	AMOD PMOD AMOD
-2.2913	AMOD PMOD COORD
-2.5949	AMOD PMOD DEP
-2.8752	AMOD PMOD DET
-2.9986	AMOD PMOD DOB
-1.7904	AMOD PMOD LOC
-2.4167	AMOD PMOD MNR
-1.9091	AMOD PMOD NMOD
-1.5551	AMOD PMOD PMOD
-2.8973	AMOD PMOD PRD
-2.4788	AMOD PMOD PRP
-2.1639	AMOD PMOD RMOD
-2.9696	AMOD PMOD SUB
-1.8080	AMOD PMOD TMP
-2.2902	AMOD PMOD VMOD
-0.4672	AMOD POB </s>
-0.5340	AMOD POB AMOD
-1.6230	AMOD POB COORD
-1.8608	AMOD POB DET
-1.8446	AMOD POB LOC
-0.6208	AMOD POB NMOD
-1.3975	AMOD POB PMOD
-2.2037	AMOD POB RMOD
-2.2402	AMOD POB TMP
-0.1876	AMOD PRD </s>
-1.4060	AMOD PRD AMOD
-1.7446	AMOD PRD COORD
-0.7316	AMOD PRD DEP
-1.6945	AMOD PRD NMOD
-1.8447	AMOD PRD PMOD
-1.7933	AMOD PRD PRD
-1.7882	AMOD PRD RMOD
-0.0436	AMOD PRP </s>
-1.6445	AMOD PRP AMOD
-2.2496	AMOD PRP LOC
-2.4936	AMOD PRP MNR
-2.2491	AMOD PRP NMOD
-2.3805	AMOD PRP PMOD
-2.4531	AMOD PRP PRD
-2.1274	AMOD PRP PRP
-2.1417	AMOD PRP RMOD
-1.8869	AMOD PRP VMOD
-0.1824	AMOD RMOD </s>
-1.7377	AMOD RMOD AMOD
-2.0193	AMOD RMOD COORD
-2.8479	AMOD RMOD DEP
-2.2571	AMOD RMOD DET
-2.5852	AMOD RMOD DIR
-1.3960	AMOD RMOD DOB
-2.7044	AMOD RMOD IOB
-1.3808	AMOD RMOD LOC
-2.7872	AMOD RMOD MNR
-1.9292	AMOD RMOD NMOD
-1.5238	AMOD RMOD PMOD
-3.3970	AMOD RMOD PRD
-1.8006	AMOD RMOD PRP
-1.0147	AMOD RMOD RMOD
-2.9730	AMOD RMOD SUB
-1.8209	AMOD RMOD TMP
-1.3223	AMOD RMOD VMOD
-3.3307	AMOD RMOD VOC
-3.7202	AMOD RMOD XPRD
-0.4057	AMOD ROOT AMOD
-0.9350	AMOD ROOT DEP
-0.8761	AMOD ROOT RMOD
-0.3318	AMOD SUB </s>
-0.9052	AMOD SUB AMOD
-1.8531	AMOD SUB COORD
-1.8020	AMOD SUB DET
-1.7949	AMOD SUB LOC
-2.7455	AMOD SUB MNR
-0.5163	AMOD SUB NMOD
-1.5739	AMOD SUB PMOD
-2.0214	AMOD SUB PRD
-2.4178	AMOD SUB RMOD
-2.5686	AMOD SUB TMP
-0.1647	AMOD TMP </s>
-0.8739	AMOD TMP AMOD
-2.3796	AMOD TMP COORD
-1.3743	AMOD TMP DET
-2.3219	AMOD TMP DOB
-2.5784	AMOD TMP EXT
-1.6636	AMOD TMP LOC
-2.6000	AMOD TMP MNR
-1.5192	AMOD TMP NMOD
-1.5134	AMOD TMP PMOD
-2.0936	AMOD TMP PRP
-1.9391	AMOD TMP RMOD
-2.3572	AMOD TMP TMP
-2.2597	AMOD TMP VMOD
-0.5014	AMOD TPC </s>
-0.5022	AMOD TPC AMOD
-1.4274	AMOD TPC DET
-0.8966	AMOD TPC NMOD
-0.1407	AMOD VMOD </s>
-3.1613	AMOD VMOD AMOD
-1.7149	AMOD VMOD COORD
-2.1990	AMOD VMOD DEP
-1.1158	AMOD VMOD DOB
-2.5875	AMOD VMOD IOB
-1.6818	AMOD VMOD LOC
-2.7238	AMOD VMOD MNR
-1.7355	AMOD VMOD PMOD
-2.0225	AMOD VMOD PRP
-1.2950	AMOD VMOD RMOD
-2.2739	AMOD VMOD TMP
-1.2056	AMOD VMOD VMOD
-0.1150	AMOD VOC </s>
-1.0293	AMOD VOC AMOD
-0.2263	AMOD X </s>
-0.2771	AMOD XPRD DEP
-0.4007	CNC DEP SUB
-0.9288	CNC DEP TMP
-0.9940	CNC DEP TPC
-0.3132	CNC DOB </s>
-0.2621	CNC PRD </s>
-0.3296	CNC RMOD </s>
-0.2928	CNC VMOD </s>
-0.3242	CND AMOD NMOD
-0.2891	CND COORD </s>
-0.6226	CND DEP </s>
-1.3078	CND DEP DEP
-0.9321	CND DEP RMOD
-0.4007	CND DEP SUB
-1.5386	CND DEP XMDP
-0.5538	CND DOB </s>
-1.1226	CND DOB DIR
-1.0668	CND DOB LOC
-1.0779	CND DOB MNR
-1.0454	CND DOB RMOD
-1.1293	CND DOB SUB
-0.3092	CND LOC VMOD
-0.2883	CND PMOD </s>
-0.3665	CND RMOD </s>
-1.2533	CND RMOD AMOD
-1.0438	CND RMOD DOB
-1.0286	CND RMOD RMOD
-1.2357	CND RMOD VMOD
-1.4673	CND SUB CONJ
-0.1066	CND SUB RMOD
-1.4163	CND SUB ROOT
-1.3837	CND SUB VMOD
-0.3034	CND TMP SUB
-0.3845	CND VMOD </s>
-0.9232	CND VMOD LOC
-0.8842	CND VMOD VMOD
-0.2683	CND X SUB
-0.1653	CONJ AMOD </s>
-0.9573	CONJ AMOD AMOD
-2.1634	CONJ AMOD COORD
-2.1790	CONJ AMOD DET
-2.0132	CONJ AMOD LOC
-1.1418	CONJ AMOD NMOD
-1.1004	CONJ AMOD PMOD
-2.2218	CONJ AMOD TMP
-0.0301	CONJ CONJ </s>
-1.5914	CONJ CONJ CONJ
-2.0675	CONJ CONJ COORD
-0.0085	CONJ COORD </s>
-2.3622	CONJ COORD SUB
-2.3928	CONJ COORD VMOD
-0.6859	CONJ DEP </s>
-0.6942	CONJ DEP DEP
-0.7767	CONJ DEP PRP
-0.3681	CONJ DET </s>
-0.9436	CONJ DET DET
-0.9358	CONJ DET NMOD
-1.1787	CONJ DET RMOD
-0.1400	CONJ DIR </s>
-1.5356	CONJ DIR DOB
-1.5367	CONJ DIR PMOD
-0.9657	CONJ DIR PRP
-0.1617	CONJ DOB </s>
-1.7955	CONJ DOB COORD
-2.1999	CONJ DOB DEP
-2.7878	CONJ DOB DET
-2.0569	CONJ DOB DIR
-2.6058	CONJ DOB DOB
-1.3431	CONJ DOB IOB
-1.5941	CONJ DOB LOC
-2.1070	CONJ DOB MNR
-1.8003	CONJ DOB PMOD
-2.7022	CONJ DOB PRD
-1.3274	CONJ DOB PRP
-1.4381	CONJ DOB RMOD
-2.8342	CONJ DOB SUB
-1.9811	CONJ DOB TMP
-1.0920	CONJ DOB VMOD
-0.7324	CONJ IOB </s>
-0.2226	CONJ IOB DOB
-1.2944	CONJ IOB TMP
-0.1797	CONJ LOC </s>
-1.5865	CONJ LOC COORD
-1.6493	CONJ LOC DOB
-1.9940	CONJ LOC LOC
-2.0759	CONJ LOC PMOD
-0.9978	CONJ LOC PRP
-1.4369	CONJ LOC RMOD
-1.9721	CONJ LOC SUB
-1.8147	CONJ LOC TMP
-1.1639	CONJ LOC VMOD
-0.1885	CONJ MNR </s>
-1.3628	CONJ MNR DOB
-1.4217	CONJ MNR MNR
-1.4009	CONJ MNR PRP
-1.4705	CONJ MNR TPC
-1.3462	CONJ MNR VMOD
-0.2431	CONJ NMOD </s>
-0.7907	CONJ NMOD AMOD
-2.0767	CONJ NMOD DET
-2.3819	CONJ NMOD DIR
-1.7003	CONJ NMOD LOC
-0.6929	CONJ NMOD NMOD
-2.1995	CONJ NMOD PMOD
-2.3062	CONJ NMOD RMOD
-2.2496	CONJ NMOD TMP
-0.1281	CONJ PMOD </s>
-1.9795	CONJ PMOD AMOD
-1.8421	CONJ PMOD COORD
-1.5003	CONJ PMOD DOB
-2.1081	CONJ PMOD MNR
-1.7902	CONJ PMOD PMOD
-1.3654	CONJ PMOD PRP
-1.3602	CONJ PMOD RMOD
-1.9592	CONJ PMOD TMP
-1.3604	CONJ PMOD VMOD
-0.0358	CONJ POB </s>
-1.6692	CONJ POB PMOD
-1.7626	CONJ POB POB
-0.1700	CONJ PRD </s>
-0.0593	CONJ PRP </s>
-1.7137	CONJ PRP COORD
-1.8685	CONJ PRP IOB
-1.7239	CONJ PRP SUB
-1.7504	CONJ PRP TMP
-0.3826	CONJ RMOD </s>
-1.8178	CONJ RMOD COORD
-2.2304	CONJ RMOD DEP
-2.6156	CONJ RMOD DET
-2.0160	CONJ RMOD DIR
-0.7216	CONJ RMOD DOB
-2.9124	CONJ RMOD EXT
-2.4201	CONJ RMOD IOB
-1.2851	CONJ RMOD LOC
-2.2700	CONJ RMOD MNR
-1.4578	CONJ RMOD PMOD
-1.4980	CONJ RMOD PRP
-0.9634	CONJ RMOD RMOD
-2.3627	CONJ RMOD SUB
-1.7471	CONJ RMOD TMP
-1.0231	CONJ RMOD VMOD
-2.8850	CONJ RMOD VOC
-0.2932	CONJ SUB VMOD
-0.1547	CONJ TMP </s>
-1.5794	CONJ TMP COORD
-1.6275	CONJ TMP DOB
-1.4195	CONJ TMP PMOD
-1.5653	CONJ TMP TMP
-1.1318	CONJ TMP VMOD
-0.1114	CONJ VMOD </s>
-3.1550	CONJ VMOD CNC
-1.6857	CONJ VMOD COORD
-2.4220	CONJ VMOD DEP
-1.2447	CONJ VMOD DOB
-2.0320	CONJ VMOD LOC
-1.9708	CONJ VMOD PMOD
-2.8085	CONJ VMOD PRD
-1.9177	CONJ VMOD PRP
-1.4992	CONJ VMOD RMOD
-2.3109	CONJ VMOD TMP
-1.1557	CONJ VMOD VMOD
-0.0646	COORD AMOD </s>
-1.5850	COORD AMOD COORD
-1.5486	COORD AMOD NMOD
-1.7430	COORD AMOD PMOD
-0.2283	COORD CND DEP
-0.0093	COORD CONJ </s>
-1.6867	COORD CONJ CONJ
-0.2160	COORD COORD </s>
-2.1391	COORD COORD AMOD
-1.1017	COORD COORD COORD
-0.9324	COORD COORD DEP
-2.0878	COORD COORD LOC
-2.1372	COORD COORD RMOD
-1.9626	COORD COORD ROOT
-0.9108	COORD COORD SUB
-2.1018	COORD COORD TMP
-2.4632	COORD COORD TPC
-2.0545	COORD COORD VMOD
-0.1255	COORD DEP </s>
-1.1765	COORD DEP COORD
-1.0222	COORD DEP DEP
-1.6696	COORD DEP PRD
-2.0675	COORD DEP RMOD
-1.5447	COORD DEP SUB
-2.2265	COORD DEP TMP
-0.2187	COORD DET </s>
-0.9571	COORD DET DEP
-0.0819	COORD DOB </s>
-1.7799	COORD DOB DET
-1.7327	COORD DOB LOC
-1.7449	COORD DOB MNR
-1.7093	COORD DOB RMOD
-1.5544	COORD DOB TMP
-0.2834	COORD IOB DOB
-0.2035	COORD LOC </s>
-1.7970	COORD LOC CONJ
-1.4038	COORD LOC COORD
-1.5980	COORD LOC DEP
-1.4013	COORD LOC RMOD
-0.8731	COORD LOC SUB
-0.4313	COORD MNR </s>
-0.9817	COORD MNR COORD
-0.7332	COORD MNR SUB
-0.1837	COORD NMOD </s>
-1.3985	COORD NMOD AMOD
-1.0617	COORD NMOD COORD
-1.4829	COORD NMOD LOC
-1.3995	COORD NMOD NMOD
-1.4686	COORD NMOD PMOD
-1.5396	COORD NMOD PRP
-0.0540	COORD PMOD </s>
-1.7005	COORD PMOD AMOD
-1.8894	COORD PMOD COORD
-1.9528	COORD PMOD DOB
-1.9140	COORD PMOD LOC
-1.8416	COORD PMOD PMOD
-0.1685	COORD POB </s>
-0.1992	COORD PRD </s>
-0.9616	COORD PRD COORD
-1.2183	COORD PRD TMP
-0.0371	COORD PRP </s>
-1.7449	COORD PRP COORD
-1.7527	COORD PRP SUB
-0.3093	COORD RMOD </s>
-1.0371	COORD RMOD COORD
-1.8027	COORD RMOD DEP
-1.8688	COORD RMOD DET
-1.8156	COORD RMOD DOB
-1.8882	COORD RMOD IOB
-1.8064	COORD RMOD LOC
-1.8296	COORD RMOD PRP
-0.8496	COORD RMOD ROOT
-0.9652	COORD RMOD SUB
-1.8394	COORD RMOD TMP
-1.2410	COORD ROOT AMOD
-0.8048	COORD ROOT DOB
-1.3789	COORD ROOT LOC
-1.3953	COORD ROOT PMOD
-0.3997	COORD ROOT RMOD
-0.7953	COORD ROOT VMOD
-0.5153	COORD SUB </s>
-2.2890	COORD SUB AMOD
-2.4714	COORD SUB CND
-2.0681	COORD SUB CONJ
-1.7509	COORD SUB COORD
-1.2621	COORD SUB DEP
-2.4829	COORD SUB DOB
-2.6132	COORD SUB NMOD
-0.5365	COORD SUB RMOD
-0.6715	COORD SUB ROOT
-1.1427	COORD SUB VMOD
-2.7515	COORD SUB VOC
-2.4837	COORD SUB X
-2.6088	COORD SUB XPRD
-2.7902	COORD SUB XTMP
-0.4759	COORD TMP </s>
-1.4890	COORD TMP COORD
-1.6366	COORD TMP DEP
-0.3303	COORD TMP SUB
-1.6500	COORD TMP TMP
-1.4873	COORD TMP VMOD
-1.1361	COORD TPC CONJ
-1.1229	COORD TPC COORD
-1.0093	COORD TPC RMOD
-0.3318	COORD TPC SUB
-0.1054	COORD VMOD </s>
-1.6463	COORD VMOD COORD
-1.8278	COORD VMOD DOB
-1.8774	COORD VMOD PRD
-1.8408	COORD VMOD PRP
-1.0098	COORD VMOD VMOD
-0.1864	COORD VOC </s>
-0.8809	COORD VOC SUB
-0.2350	COORD X </s>
-0.7416	COORD X SUB
-0.2804	DEP AMOD </s>
-1.0599	DEP AMOD AMOD
-1.8344	DEP AMOD COORD
-1.9710	DEP AMOD DEP
-1.8533	DEP AMOD DET
-1.5060	DEP AMOD DOB
-1.7165	DEP AMOD LOC
-1.2118	DEP AMOD NMOD
-1.4595	DEP AMOD PMOD
-0.9222	DEP AMOD PRD
-1.9314	DEP AMOD PRP
-1.4973	DEP AMOD RMOD
-0.3081	DEP CNC PRD
-0.8823	DEP CND </s>
-0.6397	DEP CND DEP
-0.8834	DEP CND DOB
-0.8834	DEP CND SUB
-0.9291	DEP CND VMOD
-0.7291	DEP CONJ </s>
-1.3851	DEP CONJ COORD
-1.1519	DEP CONJ DOB
-1.4804	DEP CONJ MNR
-1.2643	DEP CONJ PMOD
-1.3636	DEP CONJ POB
-1.4271	DEP CONJ PRP
-0.5009	DEP CONJ RMOD
-1.1771	DEP CONJ VMOD
-0.1263	DEP COORD </s>
-1.3703	DEP COORD COORD
-1.1828	DEP COORD DEP
-1.6108	DEP COORD DOB
-2.2012	DEP COORD NMOD
-2.0640	DEP COORD PRD
-1.9068	DEP COORD RMOD
-1.2918	DEP COORD SUB
-1.9340	DEP COORD VMOD
-0.2455	DEP DEP </s>
-1.8349	DEP DEP COORD
-0.7235	DEP DEP DEP
-2.9327	DEP DEP DET
-2.1554	DEP DEP DOB
-3.1047	DEP DEP IOB
-2.2552	DEP DEP LOC
-2.3312	DEP DEP PMOD
-2.3327	DEP DEP POB
-2.1307	DEP DEP PRD
-2.3743	DEP DEP PRP
-1.6499	DEP DEP RMOD
-1.7427	DEP DEP ROOT
-0.9739	DEP DEP SUB
-1.6749	DEP DEP TMP
-2.2732	DEP DEP TPC
-1.7965	DEP DEP VMOD
-0.2612	DEP DET </s>
-1.5468	DEP DET AMOD
-1.5970	DEP DET DEP
-0.8247	DEP DET DET
-1.6191	DEP DET DOB
-1.5316	DEP DET NMOD
-1.6001	DEP DET PMOD
-1.5018	DEP DET PRD
-1.5052	DEP DET ROOT
-1.6622	DEP DET SUB
-0.2645	DEP DIR </s>
-1.0322	DEP DIR MNR
-1.0110	DEP DIR SUB
-0.2218	DEP DOB </s>
-1.2847	DEP DOB COORD
-1.8567	DEP DOB DEP
-2.6382	DEP DOB DET
-2.0870	DEP DOB DIR
-2.2830	DEP DOB DOB
-2.8456	DEP DOB EXT
-1.8068	DEP DOB IOB
-1.9032	DEP DOB LOC
-2.4644	DEP DOB MNR
-2.7937	DEP DOB NMOD
-1.9124	DEP DOB PMOD
-2.2018	DEP DOB PRD
-1.4920	DEP DOB PRP
-1.2008	DEP DOB RMOD
-1.8161	DEP DOB SUB
-2.0626	DEP DOB TMP
-0.8432	DEP DOB VMOD
-0.3689	DEP EXT </s>
-0.7559	DEP EXT COORD
-0.5408	DEP IOB </s>
-0.5479	DEP IOB DOB
-1.3134	DEP IOB MNR
-0.9989	DEP IOB PRP
-1.1167	DEP IOB VMOD
-0.5173	DEP LOC </s>
-1.6967	DEP LOC COORD
-1.9037	DEP LOC DEP
-2.2614	DEP LOC DIR
-2.2680	DEP LOC EXT
-1.9467	DEP LOC MNR
-2.0701	DEP LOC NMOD
-0.6635	DEP LOC POB
-1.6351	DEP LOC PRD
-1.3090	DEP LOC PRP
-1.6937	DEP LOC RMOD
-1.6372	DEP LOC ROOT
-0.9061	DEP LOC SUB
-1.4722	DEP LOC TMP
-0.9523	DEP LOC VMOD
-2.4164	DEP LOC XPRD
-0.4678	DEP MNR </s>
-1.3501	DEP MNR DEP
-1.4553	DEP MNR DOB
-1.5089	DEP MNR PMOD
-1.4303	DEP MNR RMOD
-0.5404	DEP MNR SUB
-1.2805	DEP MNR TMP
-1.4057	DEP MNR TPC
-0.5812	DEP NMOD </s>
-0.7151	DEP NMOD AMOD
-1.8107	DEP NMOD COORD
-1.5531	DEP NMOD DEP
-1.4537	DEP NMOD DET
-0.6302	DEP NMOD NMOD
-1.7721	DEP NMOD PMOD
-0.8489	DEP NMOD PRD
-2.0528	DEP NMOD SUB
-1.8265	DEP NMOD TMP
-2.1603	DEP NMOD XPRD
-0.2172	DEP PMOD </s>
-1.5010	DEP PMOD COORD
-1.4991	DEP PMOD DEP
-1.8693	DEP PMOD LOC
-1.9447	DEP PMOD MNR
-1.8772	DEP PMOD PMOD
-1.1020	DEP PMOD POB
-1.9438	DEP PMOD PRD
-1.4994	DEP PMOD RMOD
-2.2834	DEP PMOD ROOT
-1.1937	DEP PMOD SUB
-1.9314	DEP PMOD TMP
-1.2403	DEP PMOD VMOD
-0.0447	DEP POB </s>
-1.5467	DEP POB DEP
-1.9473	DEP POB PMOD
-1.9479	DEP POB POB
-2.1879	DEP POB TMP
-1.9453	DEP POB VMOD
-2.3254	DEP POB X
-0.0956	DEP PRD </s>
-1.4268	DEP PRD COORD
-1.2121	DEP PRD DEP
-1.9939	DEP PRD PRD
-1.8340	DEP PRD RMOD
-2.1801	DEP PRD SUB
-1.4327	DEP PRD VMOD
-0.3282	DEP PRP </s>
-1.7387	DEP PRP COORD
-0.8208	DEP PRP DEP
-1.8810	DEP PRP DOB
-1.2064	DEP PRP POB
-1.9851	DEP PRP PRD
-2.0597	DEP PRP ROOT
-0.8770	DEP PRP SUB
-1.8018	DEP PRP TMP
-2.0704	DEP PRP TPC
-1.2697	DEP PRP VMOD
-0.3923	DEP RMOD </s>
-2.3634	DEP RMOD AMOD
-2.2214	DEP RMOD CONJ
-1.6371	DEP RMOD COORD
-1.6394	DEP RMOD DEP
-2.2852	DEP RMOD DET
-2.2301	DEP RMOD DIR
-1.1382	DEP RMOD DOB
-3.0077	DEP RMOD EXT
-2.8477	DEP RMOD IOB
-1.6830	DEP RMOD LOC
-2.2079	DEP RMOD MNR
-1.7606	DEP RMOD PMOD
-2.8854	DEP RMOD POB
-2.4107	DEP RMOD PRD
-1.4735	DEP RMOD PRP
-0.9767	DEP RMOD RMOD
-1.1202	DEP RMOD ROOT
-1.2002	DEP RMOD SUB
-1.7623	DEP RMOD TMP
-0.9818	DEP RMOD VMOD
-2.8268	DEP RMOD VOC
-1.3269	DEP ROOT </s>
-1.3175	DEP ROOT AMOD
-1.8790	DEP ROOT COORD
-1.8210	DEP ROOT DEP
-2.2881	DEP ROOT DET
-0.7184	DEP ROOT DOB
-1.2618	DEP ROOT LOC
-2.3392	DEP ROOT MNR
-1.3338	DEP ROOT NMOD
-1.5681	DEP ROOT PMOD
-2.0707	DEP ROOT PRD
-2.0994	DEP ROOT PRP
-0.5623	DEP ROOT RMOD
-1.7541	DEP ROOT SUB
-0.6584	DEP ROOT VMOD
-2.4453	DEP ROOT XPRD
-2.4105	DEP SUB </s>
-1.3123	DEP SUB AMOD
-3.1164	DEP SUB CNC
-2.0929	DEP SUB CND
-1.2773	DEP SUB CONJ
-2.9832	DEP SUB COORD
-1.2493	DEP SUB DEP
-2.4394	DEP SUB DOB
-3.1337	DEP SUB LOC
-3.0949	DEP SUB PMOD
-3.2964	DEP SUB POB
-1.7710	DEP SUB PRD
-1.9115	DEP SUB PRP
-0.3481	DEP SUB RMOD
-0.6040	DEP SUB ROOT
-1.8982	DEP SUB TMP
-1.0929	DEP SUB VMOD
-3.1715	DEP SUB XPRD
-0.9205	DEP TMP </s>
-2.3285	DEP TMP AMOD
-2.1326	DEP TMP COORD
-1.0466	DEP TMP DEP
-2.3248	DEP TMP DOB
-2.2215	DEP TMP LOC
-2.0465	DEP TMP MNR
-0.9702	DEP TMP POB
-2.3547	DEP TMP PRD
-2.1808	DEP TMP PRP
-1.5640	DEP TMP RMOD
-1.6519	DEP TMP ROOT
-0.2832	DEP TMP SUB
-1.4406	DEP TMP TMP
-2.5643	DEP TMP TPC
-1.7076	DEP TMP VMOD
-0.4810	DEP TPC DEP
-1.7459	DEP TPC DOB
-1.7092	DEP TPC LOC
-1.7568	DEP TPC POB
-1.5438	DEP TPC RMOD
-1.6605	DEP TPC ROOT
-0.3933	DEP TPC SUB
-1.4387	DEP TPC TMP
-1.7708	DEP TPC X
-1.8468	DEP TPC XMNR
-0.1338	DEP VMOD </s>
-2.8628	DEP VMOD AMOD
-1.4044	DEP VMOD COORD
-2.2139	DEP VMOD DEP
-1.2584	DEP VMOD DOB
-2.1208	DEP VMOD LOC
-2.8086	DEP VMOD MNR
-2.2218	DEP VMOD PMOD
-2.7116	DEP VMOD PRD
-2.1208	DEP VMOD PRP
-1.3567	DEP VMOD RMOD
-2.0707	DEP VMOD SUB
-2.0515	DEP VMOD TMP
-1.1365	DEP VMOD VMOD
-3.0228	DEP VMOD VOC
-0.1550	DEP VOC </s>
-0.7181	DEP X </s>
-0.1876	DEP X SUB
-1.0186	DEP XMDP </s>
-0.9485	DEP XMDP RMOD
-0.3220	DEP XMDP SUB
-0.9496	DEP XMDP TMP
-0.2220	DEP XPRD </s>
-0.2621	DEP XTMP SUB
-0.2646	DET AMOD </s>
-1.0600	DET AMOD AMOD
-1.6248	DET AMOD DEP
-0.8011	DET AMOD DET
-1.9599	DET AMOD DOB
-1.3671	DET AMOD NMOD
-1.9935	DET AMOD PMOD
-2.1408	DET AMOD PRD
-1.2576	DET AMOD RMOD
-1.8064	DET AMOD SUB
-2.0206	DET AMOD VMOD
-2.3058	DET AMOD VOC
-0.7165	DET CONJ </s>
-0.4591	DET CONJ AMOD
-2.2790	DET CONJ DET
-1.5854	DET CONJ LOC
-0.4502	DET CONJ NMOD
-1.5956	DET CONJ PMOD
-2.2767	DET CONJ PRD
-2.1783	DET CONJ PRP
-0.2895	DET COORD </s>
-0.9643	DET COORD SUB
-1.0886	DET COORD TPC
-0.5316	DET DEP </s>
-0.7329	DET DEP AMOD
-1.2240	DET DEP DEP
-1.9580	DET DEP DET
-1.9183	DET DEP LOC
-0.5242	DET DEP NMOD
-1.8503	DET DEP PMOD
-1.4157	DET DEP PRD
-1.8051	DET DEP RMOD
-0.4685	DET DET </s>
-1.8163	DET DET AMOD
-2.4466	DET DET CONJ
-2.5865	DET DET DEP
-0.9158	DET DET DET
-0.8518	DET DET DOB
-1.8680	DET DET EXT
-2.6875	DET DET LOC
-2.6563	DET DET MNR
-0.9094	DET DET NMOD
-2.5911	DET DET PMOD
-1.2697	DET DET POB
-1.8505	DET DET PRD
-1.2384	DET DET RMOD
-2.6007	DET DET ROOT
-1.2165	DET DET SUB
-1.4853	DET DET TMP
-2.1611	DET DET TPC
-0.4055	DET DIR </s>
-0.7372	DET DIR AMOD
-0.7062	DET DOB </s>
-0.4655	DET DOB AMOD
-2.4820	DET DOB COORD
-1.9794	DET DOB DET
-3.2873	DET DOB DIR
-3.1156	DET DOB IOB
-1.9947	DET DOB LOC
-3.1912	DET DOB MNR
-0.4034	DET DOB NMOD
-1.6074	DET DOB PMOD
-2.9352	DET DOB PRD
-2.1428	DET DOB PRP
-2.6216	DET DOB RMOD
-2.6448	DET DOB TMP
-3.5288	DET DOB VOC
-0.0670	DET EXT </s>
-1.5322	DET EXT AMOD
-2.2385	DET EXT DIR
-1.1730	DET EXT NMOD
-2.1228	DET EXT PMOD
-2.2512	DET EXT PRP
-0.5119	DET IOB </s>
-0.8516	DET IOB AMOD
-0.4537	DET IOB NMOD
-0.3640	DET LOC </s>
-0.8292	DET LOC AMOD
-1.9150	DET LOC COORD
-1.5374	DET LOC DET
-0.5083	DET LOC NMOD
-1.8887	DET LOC PRP
-0.3513	DET MNR </s>
-0.5790	DET MNR AMOD
-1.5000	DET MNR NMOD
-1.5651	DET MNR PRD
-1.2109	DET MNR RMOD
-0.3051	DET NMOD </s>
-0.7171	DET NMOD AMOD
-1.9780	DET NMOD DET
-3.1976	DET NMOD DOB
-3.3019	DET NMOD EXT
-1.8597	DET NMOD LOC
-0.6017	DET NMOD NMOD
-1.6893	DET NMOD PMOD
-3.0923	DET NMOD POB
-3.1035	DET NMOD PRD
-2.4286	DET NMOD PRP
-2.4338	DET NMOD RMOD
-2.2606	DET NMOD TMP
-0.0753	DET PMOD </s>
-1.7122	DET PMOD AMOD
-1.7097	DET PMOD DEP
-1.7731	DET PMOD DET
-1.6688	DET PMOD PMOD
-1.7855	DET PMOD PRD
-0.7443	DET POB </s>
-0.4582	DET POB AMOD
-2.3310	DET POB COORD
-1.5654	DET POB DET
-3.1641	DET POB EXT
-1.8621	DET POB LOC
-0.4080	DET POB NMOD
-1.6442	DET POB PMOD
-2.7730	DET POB PRP
-2.7703	DET POB RMOD
-2.2450	DET POB TMP
-0.2291	DET PRD </s>
-0.9023	DET PRD AMOD
-1.8530	DET PRD DEP
-2.1328	DET PRD LOC
-0.7200	DET PRD NMOD
-2.0279	DET PRD PMOD
-2.1732	DET PRD PRP
-1.8187	DET PRD RMOD
-2.0267	DET PRD TMP
-0.2283	DET PRP </s>
-0.8614	DET PRP AMOD
-0.5345	DET RMOD </s>
-0.5851	DET RMOD AMOD
-2.9260	DET RMOD CONJ
-2.6355	DET RMOD COORD
-2.7658	DET RMOD DEP
-1.6316	DET RMOD DET
-3.0165	DET RMOD EXT
-2.2248	DET RMOD LOC
-0.4430	DET RMOD NMOD
-1.6520	DET RMOD PMOD
-3.0595	DET RMOD POB
-2.7622	DET RMOD PRD
-2.8017	DET RMOD PRP
-1.9528	DET RMOD RMOD
-2.6975	DET RMOD ROOT
-2.3272	DET RMOD SUB
-2.6910	DET RMOD TMP
-1.1107	DET ROOT </s>
-0.4726	DET ROOT AMOD
-1.8563	DET ROOT COORD
-1.7731	DET ROOT DEP
-1.8866	DET ROOT DET
-1.2198	DET ROOT LOC
-0.5489	DET ROOT NMOD
-1.0964	DET ROOT PMOD
-1.8293	DET ROOT PRD
-1.6542	DET ROOT RMOD
-1.7754	DET ROOT TMP
-1.7446	DET ROOT VMOD
-2.1923	DET ROOT XPRD
-0.4905	DET SUB </s>
-0.6811	DET SUB AMOD
-2.2389	DET SUB COORD
-1.7064	DET SUB DET
-1.5872	DET SUB LOC
-0.4251	DET SUB NMOD
-1.5200	DET SUB PMOD
-2.3249	DET SUB PRD
-3.3272	DET SUB PRP
-3.0187	DET SUB RMOD
-3.0392	DET SUB TMP
-2.9780	DET SUB VMOD
-0.3750	DET TMP </s>
-0.5461	DET TMP AMOD
-2.7502	DET TMP COORD
-2.7084	DET TMP DEP
-1.1120	DET TMP DET
-2.8295	DET TMP DOB
-2.7757	DET TMP EXT
-2.2901	DET TMP LOC
-0.8725	DET TMP NMOD
-1.5709	DET TMP PMOD
-2.8579	DET TMP PRD
-2.8105	DET TMP PRP
-1.5075	DET TMP RMOD
-2.6609	DET TMP SUB
-2.4245	DET TMP TMP
-0.7031	DET TPC </s>
-0.5289	DET TPC AMOD
-1.9033	DET TPC DET
-1.8994	DET TPC LOC
-0.4047	DET TPC NMOD
-1.8037	DET TPC TMP
-0.2066	DET VMOD </s>
-1.4182	DET VMOD DOB
-0.7714	DET VMOD RMOD
-1.3765	DET VMOD VMOD
-0.3256	DET VOC </s>
-0.6034	DET VOC AMOD
-0.0731	DIR AMOD </s>
-1.3381	DIR AMOD AMOD
-0.0336	DIR COORD </s>
-0.2846	DIR DEP </s>
-0.9894	DIR DEP DEP
-1.0596	DIR DEP POB
-1.2399	DIR DEP PRD
-0.5395	DIR DET </s>
-0.5718	DIR DET NMOD
-0.2702	DIR DIR </s>
-0.1705	DIR DOB </s>
-1.4973	DIR DOB POB
-0.8754	DIR DOB PRP
-0.0806	DIR LOC </s>
-1.7167	DIR LOC MNR
-1.2503	DIR LOC PRP
-1.8577	DIR LOC RMOD
-1.9765	DIR LOC ROOT
-1.8463	DIR LOC VMOD
-0.3686	DIR MNR </s>
-0.9518	DIR MNR PRP
-0.9149	DIR MNR VMOD
-0.1505	DIR NMOD </s>
-1.1573	DIR NMOD AMOD
-1.1579	DIR NMOD NMOD
-0.1209	DIR PMOD </s>
-1.2746	DIR PMOD PMOD
-1.3035	DIR PMOD VMOD
-0.0586	DIR POB </s>
-2.5436	DIR POB COORD
-2.7654	DIR POB DOB
-1.0057	DIR POB PMOD
-2.5904	DIR POB POB
-2.0343	DIR POB PRP
-2.4244	DIR POB VMOD
-0.2752	DIR PRD </s>
-0.8265	DIR PRD COORD
-0.0610	DIR PRP </s>
-1.7018	DIR PRP COORD
-1.7815	DIR PRP DOB
-1.7405	DIR PRP PRP
-1.7517	DIR PRP RMOD
-0.3812	DIR RMOD </s>
-1.2837	DIR RMOD COORD
-1.3081	DIR RMOD DOB
-1.3008	DIR RMOD LOC
-1.3597	DIR RMOD MNR
-1.1271	DIR RMOD PRP
-1.2809	DIR RMOD RMOD
-1.2990	DIR RMOD SUB
-0.6166	DIR ROOT DIR
-0.5567	DIR ROOT RMOD
-1.0935	DIR SUB ROOT
-0.1111	DIR SUB VMOD
-0.1099	DIR TMP </s>
-1.1809	DIR TMP SUB
-0.1250	DIR VMOD </s>
-1.7658	DIR VMOD COORD
-1.7724	DIR VMOD DEP
-1.7836	DIR VMOD PMOD
-0.8426	DIR VMOD VMOD
-0.1640	DIR VOC </s>
-0.2130	DIR X </s>
-0.1905	DOB AMOD </s>
-0.8492	DOB AMOD AMOD
-1.9879	DOB AMOD COORD
-1.9890	DOB AMOD DET
-3.5058	DOB AMOD DIR
-3.0341	DOB AMOD DOB
-2.7601	DOB AMOD IOB
-1.8361	DOB AMOD LOC
-2.9470	DOB AMOD MNR
-1.1551	DOB AMOD NMOD
-1.1065	DOB AMOD PMOD
-2.9196	DOB AMOD PRD
-1.8594	DOB AMOD PRP
-2.4843	DOB AMOD RMOD
-2.1850	DOB AMOD TMP
-3.4058	DOB AMOD VOC
-0.2646	DOB CNC </s>
-0.3262	DOB CND COORD
-0.1109	DOB COORD </s>
-1.9746	DOB COORD AMOD
-3.0573	DOB COORD CND
-1.1985	DOB COORD COORD
-1.3263	DOB COORD DEP
-2.6121	DOB COORD DOB
-2.3438	DOB COORD LOC
-2.8657	DOB COORD MNR
-2.3997	DOB COORD NMOD
-1.7673	DOB COORD PMOD
-1.9129	DOB COORD PRP
-2.1734	DOB COORD RMOD
-1.4625	DOB COORD SUB
-2.2193	DOB COORD TMP
-2.0145	DOB COORD VMOD
-2.9248	DOB COORD VOC
-0.1460	DOB DEP </s>
-1.5682	DOB DEP COORD
-0.6779	DOB DEP DEP
-2.4567	DOB DEP DOB
-1.6690	DOB DEP PRD
-2.5195	DOB DEP SUB
-2.5591	DOB DEP TMP
-2.1797	DOB DEP VMOD
-0.1083	DOB DET </s>
-1.2585	DOB DET AMOD
-2.4483	DOB DET COORD
-2.2666	DOB DET DEP
-1.7601	DOB DET DET
-2.2934	DOB DET DOB
-2.5759	DOB DET IOB
-1.8055	DOB DET LOC
-1.2210	DOB DET NMOD
-1.6721	DOB DET PMOD
-2.4463	DOB DET PRP
-2.2921	DOB DET RMOD
-2.1945	DOB DET SUB
-2.3756	DOB DET VMOD
-0.2334	DOB DIR </s>
-1.7692	DOB DIR AMOD
-1.2923	DOB DIR COORD
-1.4250	DOB DIR DEP
-2.1367	DOB DIR DIR
-2.1211	DOB DIR LOC
-1.8427	DOB DIR PMOD
-1.6459	DOB DIR PRD
-1.4786	DOB DIR PRP
-1.9966	DOB DIR RMOD
-1.5549	DOB DIR TMP
-0.8235	DOB DIR VMOD
-0.2205	DOB DOB </s>
-1.1084	DOB DOB COORD
-1.4274	DOB DOB DEP
-2.1859	DOB DOB DET
-1.6752	DOB DOB DOB
-1.3690	DOB DOB IOB
-1.9877	DOB DOB LOC
-2.0051	DOB DOB MNR
-2.0182	DOB DOB PMOD
-2.2366	DOB DOB PRD
-1.1763	DOB DOB PRP
-1.4067	DOB DOB RMOD
-2.0896	DOB DOB SUB
-2.0174	DOB DOB TMP
-1.4111	DOB DOB VMOD
-0.2208	DOB EXT </s>
-1.3180	DOB EXT AMOD
-1.3196	DOB EXT COORD
-1.3452	DOB EXT DEP
-1.3536	DOB EXT LOC
-1.3742	DOB EXT PRD
-0.1023	DOB IOB </s>
-2.5105	DOB IOB AMOD
-1.2919	DOB IOB COORD
-1.7570	DOB IOB DEP
-2.6749	DOB IOB DIR
-1.6642	DOB IOB DOB
-2.5028	DOB IOB IOB
-2.5916	DOB IOB LOC
-2.4404	DOB IOB MNR
-2.5981	DOB IOB NMOD
-1.9911	DOB IOB PMOD
-1.6015	DOB IOB PRP
-1.7741	DOB IOB RMOD
-2.4949	DOB IOB SUB
-2.3210	DOB IOB TMP
-1.4296	DOB IOB VMOD
-0.1467	DOB LOC </s>
-1.7496	DOB LOC AMOD
-1.3936	DOB LOC COORD
-1.7331	DOB LOC DEP
-2.6103	DOB LOC DET
-2.4834	DOB LOC DIR
-2.5721	DOB LOC IOB
-2.3176	DOB LOC LOC
-2.4557	DOB LOC MNR
-2.0044	DOB LOC NMOD
-1.5937	DOB LOC PMOD
-2.4257	DOB LOC PRD
-1.3352	DOB LOC PRP
-1.5689	DOB LOC RMOD
-2.4000	DOB LOC SUB
-1.6702	DOB LOC TMP
-1.3121	DOB LOC VMOD
-0.1399	DOB MNR </s>
-1.6832	DOB MNR AMOD
-1.2968	DOB MNR COORD
-2.0871	DOB MNR DEP
-1.5229	DOB MNR LOC
-2.0577	DOB MNR PMOD
-1.2333	DOB MNR PRP
-1.9657	DOB MNR RMOD
-1.8930	DOB MNR SUB
-1.8388	DOB MNR TMP
-1.4846	DOB MNR VMOD
-0.2858	DOB NMOD </s>
-0.6643	DOB NMOD AMOD
-1.8250	DOB NMOD COORD
-1.8534	DOB NMOD DET
-2.7554	DOB NMOD DIR
-3.3794	DOB NMOD DOB
-3.4623	DOB NMOD EXT
-3.7117	DOB NMOD IOB
-1.7091	DOB NMOD LOC
-2.8704	DOB NMOD MNR
-0.8286	DOB NMOD NMOD
-1.3383	DOB NMOD PMOD
-2.4272	DOB NMOD PRD
-2.0769	DOB NMOD PRP
-2.9189	DOB NMOD RMOD
-2.3129	DOB NMOD TMP
-0.0781	DOB PMOD </s>
-1.3458	DOB PMOD AMOD
-2.3044	DOB PMOD COORD
-2.1712	DOB PMOD DEP
-2.7191	DOB PMOD DET
-3.0076	DOB PMOD DIR
-2.7124	DOB PMOD DOB
-1.7715	DOB PMOD LOC
-2.7497	DOB PMOD MNR
-2.6541	DOB PMOD NMOD
-1.7109	DOB PMOD PMOD
-1.7682	DOB PMOD PRP
-1.6841	DOB PMOD RMOD
-2.5580	DOB PMOD SUB
-2.2912	DOB PMOD TMP
-1.8629	DOB PMOD VMOD
-0.0508	DOB POB </s>
-1.2025	DOB POB PMOD
-0.1340	DOB PRD </s>
-1.6604	DOB PRD AMOD
-1.4405	DOB PRD COORD
-1.1796	DOB PRD DEP
-1.6851	DOB PRD PMOD
-1.6361	DOB PRD PRD
-1.4539	DOB PRD VMOD
-0.0529	DOB PRP </s>
-2.3909	DOB PRP AMOD
-1.5061	DOB PRP COORD
-1.8760	DOB PRP DEP
-2.9915	DOB PRP DET
-2.7744	DOB PRP DOB
-2.9730	DOB PRP IOB
-2.6575	DOB PRP LOC
-2.9050	DOB PRP NMOD
-2.6574	DOB PRP PMOD
-1.7985	DOB PRP PRP
-1.9034	DOB PRP RMOD
-2.2023	DOB PRP SUB
-1.7517	DOB PRP VMOD
-0.3179	DOB RMOD </s>
-2.3280	DOB RMOD AMOD
-1.3201	DOB RMOD COORD
-1.6701	DOB RMOD DEP
-2.1147	DOB RMOD DET
-2.6427	DOB RMOD DIR
-1.4050	DOB RMOD DOB
-1.6509	DOB RMOD IOB
-1.8308	DOB RMOD LOC
-2.0350	DOB RMOD MNR
-2.7856	DOB RMOD NMOD
-1.6745	DOB RMOD PMOD
-2.2407	DOB RMOD PRD
-1.1225	DOB RMOD PRP
-0.8389	DOB RMOD RMOD
-1.6703	DOB RMOD SUB
-1.9509	DOB RMOD TMP
-1.2400	DOB RMOD VMOD
-2.2673	DOB RMOD VOC
-2.2418	DOB SUB COORD
-1.9866	DOB SUB DEP
-2.3479	DOB SUB MNR
-1.1465	DOB SUB PRD
-2.2230	DOB SUB TMP
-0.0629	DOB SUB VMOD
-2.3946	DOB SUB X
-2.3454	DOB SUB XPRD
-0.1609	DOB TMP </s>
-2.1020	DOB TMP AMOD
-1.2212	DOB TMP COORD
-1.3932	DOB TMP DEP
-2.2279	DOB TMP DOB
-2.1897	DOB TMP EXT
-1.6070	DOB TMP LOC
-2.1223	DOB TMP NMOD
-2.0825	DOB TMP PMOD
-1.7538	DOB TMP PRD
-1.7375	DOB TMP PRP
-1.5391	DOB TMP RMOD
-1.5061	DOB TMP SUB
-1.4604	DOB TMP VMOD
-0.3175	DOB TPC VMOD
-0.1482	DOB VMOD </s>
-1.1254	DOB VMOD COORD
-1.3851	DOB VMOD DEP
-2.7337	DOB VMOD DIR
-2.3007	DOB VMOD DOB
-2.3874	DOB VMOD LOC
-2.6945	DOB VMOD MNR
-2.6161	DOB VMOD PMOD
-2.8457	DOB VMOD PRD
-1.6456	DOB VMOD PRP
-1.9648	DOB VMOD RMOD
-1.9808	DOB VMOD SUB
-2.4045	DOB VMOD TMP
-0.9735	DOB VMOD VMOD
-0.0762	DOB VOC </s>
-0.4132	DOB X </s>
-0.5779	DOB X TMP
-0.1474	EXT AMOD </s>
-1.1064	EXT AMOD DET
-0.6730	EXT COORD </s>
-0.7015	EXT COORD SUB
-0.7444	EXT COORD TMP
-0.5505	EXT DEP </s>
-0.5566	EXT DEP DEP
-0.3083	EXT DET </s>
-0.2702	EXT DIR </s>
-0.2927	EXT DOB </s>
-0.5509	EXT LOC </s>
-0.5776	EXT LOC VMOD
-0.1505	EXT NMOD </s>
-1.1579	EXT NMOD NMOD
-1.2422	EXT NMOD PRP
-0.1308	EXT PMOD </s>
-0.2594	EXT POB </s>
-0.2621	EXT PRD </s>
-0.2788	EXT PRP </s>
-0.1066	EXT RMOD </s>
-0.8709	EXT ROOT </s>
-0.3088	EXT ROOT DOB
-1.1547	EXT SUB PRD
-0.9428	EXT SUB ROOT
-0.2857	EXT SUB VMOD
-1.2789	EXT SUB XPRD
-0.5731	EXT TMP </s>
-0.5849	EXT TMP SUB
-0.3834	EXT VMOD </s>
-0.6748	EXT VMOD VMOD
-0.3076	H RMOD </s>
-0.2873	IOB AMOD </s>
-1.1843	IOB AMOD AMOD
-1.2410	IOB AMOD COORD
-1.0061	IOB AMOD NMOD
-1.2012	IOB AMOD PMOD
-0.1186	IOB COORD </s>
-1.5031	IOB COORD COORD
-1.4998	IOB COORD DEP
-1.5987	IOB COORD DOB
-1.5489	IOB COORD LOC
-1.4795	IOB COORD SUB
-0.2136	IOB DEP </s>
-0.9501	IOB DEP DEP
-1.2688	IOB DEP PRP
-0.3083	IOB DET </s>
-0.4932	IOB DIR </s>
-0.7739	IOB DIR PRP
-0.8192	IOB DIR VMOD
-0.1140	IOB DOB </s>
-1.6445	IOB DOB COORD
-2.0482	IOB DOB DEP
-2.0832	IOB DOB DIR
-1.3823	IOB DOB IOB
-2.1503	IOB DOB LOC
-2.1694	IOB DOB MNR
-1.4456	IOB DOB PRP
-1.5247	IOB DOB RMOD
-1.3691	IOB DOB VMOD
-0.3120	IOB EXT PMOD
-0.6518	IOB IOB IOB
-0.8044	IOB IOB RMOD
-0.7699	IOB IOB VMOD
-0.0792	IOB LOC </s>
-1.3164	IOB LOC PRP
-0.2874	IOB MNR </s>
-0.8566	IOB MNR COORD
-0.1778	IOB NMOD </s>
-1.0604	IOB NMOD AMOD
-1.5418	IOB NMOD DET
-0.9017	IOB NMOD NMOD
-0.1206	IOB PMOD </s>
-1.0846	IOB PMOD PRP
-0.0088	IOB POB </s>
-2.6128	IOB POB COORD
-2.6639	IOB POB DEP
-2.7067	IOB POB TMP
-2.1847	IOB POB VMOD
-0.2621	IOB PRD </s>
-0.0711	IOB PRP </s>
-1.4796	IOB PRP COORD
-1.4582	IOB PRP DEP
-0.2981	IOB RMOD </s>
-1.6052	IOB RMOD COORD
-1.8328	IOB RMOD DET
-0.8242	IOB RMOD DOB
-1.6932	IOB RMOD IOB
-1.4063	IOB RMOD LOC
-1.2668	IOB RMOD PMOD
-1.6436	IOB RMOD PRP
-1.3932	IOB RMOD RMOD
-1.6520	IOB RMOD TMP
-1.6218	IOB RMOD VMOD
-0.3138	IOB SUB VMOD
-0.1099	IOB TMP </s>
-1.2252	IOB TMP PRP
-0.1320	IOB VMOD </s>
-1.4973	IOB VMOD COORD
-1.8867	IOB VMOD DEP
-0.9486	IOB VMOD DOB
-1.9039	IOB VMOD LOC
-1.9025	IOB VMOD PMOD
-1.9039	IOB VMOD PRP
-1.7456	IOB VMOD RMOD
-1.9457	IOB VMOD TMP
-0.1265	LOC AMOD </s>
-1.3943	LOC AMOD AMOD
-2.1508	LOC AMOD COORD
-2.3003	LOC AMOD DET
-2.1746	LOC AMOD DOB
-1.6881	LOC AMOD LOC
-2.4273	LOC AMOD MNR
-0.9442	LOC AMOD NMOD
-1.6658	LOC AMOD PMOD
-2.3580	LOC AMOD PRD
-1.9795	LOC AMOD PRP
-2.2942	LOC AMOD RMOD
-0.3074	LOC CND SUB
-0.3867	LOC CONJ DOB
-0.6763	LOC CONJ VMOD
-0.1462	LOC COORD </s>
-1.0922	LOC COORD COORD
-1.4090	LOC COORD DEP
-2.0536	LOC COORD LOC
-1.9600	LOC COORD PMOD
-2.3023	LOC COORD POB
-1.5606	LOC COORD PRP
-1.9736	LOC COORD RMOD
-1.3169	LOC COORD SUB
-2.0718	LOC COORD TMP
-1.6718	LOC COORD VMOD
-0.2781	LOC DEP </s>
-2.3420	LOC DEP CND
-1.9592	LOC DEP COORD
-0.8877	LOC DEP DEP
-1.3156	LOC DEP DOB
-1.9567	LOC DEP PMOD
-1.1924	LOC DEP POB
-2.0478	LOC DEP PRD
-1.2387	LOC DEP RMOD
-1.7620	LOC DEP ROOT
-1.0882	LOC DEP SUB
-2.0779	LOC DEP VMOD
-0.1501	LOC DET </s>
-1.7378	LOC DET AMOD
-1.7388	LOC DET DET
-2.1070	LOC DET DIR
-0.7048	LOC DET NMOD
-0.2627	LOC DIR </s>
-1.0959	LOC DIR COORD
-1.1321	LOC DIR DEP
-1.1128	LOC DIR SUB
-0.0914	LOC DOB </s>
-1.6833	LOC DOB COORD
-1.1335	LOC DOB DOB
-1.8406	LOC DOB RMOD
-1.6740	LOC DOB VMOD
-0.0676	LOC EXT </s>
-1.6204	LOC EXT COORD
-1.5427	LOC EXT SUB
-1.6156	LOC EXT TMP
-0.1791	LOC IOB </s>
-0.1582	LOC LOC </s>
-1.0853	LOC LOC LOC
-1.7215	LOC LOC NMOD
-1.6613	LOC LOC RMOD
-1.7885	LOC LOC ROOT
-1.2471	LOC LOC SUB
-1.6752	LOC LOC TMP
-0.1740	LOC MNR </s>
-1.6316	LOC MNR AMOD
-1.3897	LOC MNR COORD
-1.6041	LOC MNR PRP
-1.5266	LOC MNR RMOD
-1.3265	LOC MNR SUB
-1.5277	LOC MNR TMP
-1.3709	LOC MNR VMOD
-0.1491	LOC NMOD </s>
-1.3574	LOC NMOD AMOD
-2.7164	LOC NMOD COORD
-1.8608	LOC NMOD DET
-2.0841	LOC NMOD LOC
-0.6967	LOC NMOD NMOD
-1.8579	LOC NMOD PMOD
-2.7731	LOC NMOD PRP
-2.7314	LOC NMOD TMP
-0.0558	LOC PMOD </s>
-2.0102	LOC PMOD AMOD
-1.8537	LOC PMOD COORD
-1.8506	LOC PMOD DEP
-1.9489	LOC PMOD PMOD
-1.8511	LOC PMOD RMOD
-1.8406	LOC PMOD TMP
-2.0080	LOC PMOD VMOD
-0.0134	LOC POB </s>
-2.9058	LOC POB COORD
-2.4803	LOC POB DEP
-1.8489	LOC POB PMOD
-2.0287	LOC POB POB
-3.5089	LOC POB PRP
-3.5040	LOC POB RMOD
-3.0729	LOC POB VMOD
-0.1914	LOC PRD </s>
-1.3734	LOC PRD DEP
-1.4631	LOC PRD PRD
-0.8263	LOC PRD VMOD
-1.6208	LOC PRD VOC
-0.0748	LOC PRP </s>
-1.5396	LOC PRP COORD
-1.7897	LOC PRP DEP
-2.3271	LOC PRP LOC
-1.5509	LOC PRP PRP
-1.6286	LOC PRP RMOD
-2.3013	LOC PRP SUB
-1.9771	LOC PRP TMP
-1.5465	LOC PRP VMOD
-0.2496	LOC RMOD </s>
-1.8842	LOC RMOD AMOD
-2.1771	LOC RMOD CONJ
-1.7219	LOC RMOD COORD
-1.4122	LOC RMOD DEP
-1.5467	LOC RMOD DOB
-2.1799	LOC RMOD LOC
-2.2820	LOC RMOD MNR
-2.2086	LOC RMOD PMOD
-2.0880	LOC RMOD PRP
-1.0249	LOC RMOD RMOD
-1.0080	LOC RMOD ROOT
-1.5432	LOC RMOD SUB
-1.6397	LOC RMOD TMP
-2.5123	LOC RMOD TPC
-1.4125	LOC RMOD VMOD
-1.9150	LOC ROOT AMOD
-0.3031	LOC ROOT DOB
-1.7189	LOC ROOT LOC
-1.9822	LOC ROOT PRD
-2.0055	LOC ROOT PRP
-0.5081	LOC ROOT RMOD
-1.0316	LOC ROOT VMOD
-2.4721	LOC SUB </s>
-2.4955	LOC SUB AMOD
-1.9549	LOC SUB CONJ
-2.5167	LOC SUB COORD
-1.4228	LOC SUB DEP
-2.6626	LOC SUB MNR
-1.9352	LOC SUB PRD
-0.5119	LOC SUB RMOD
-0.4178	LOC SUB ROOT
-2.6834	LOC SUB SUB
-2.4921	LOC SUB TMP
-0.6504	LOC SUB VMOD
-0.3012	LOC TMP </s>
-2.1805	LOC TMP AMOD
-1.0771	LOC TMP COORD
-1.6110	LOC TMP DEP
-2.3087	LOC TMP MNR
-2.2051	LOC TMP NMOD
-2.2039	LOC TMP PRD
-2.0179	LOC TMP PRP
-1.2481	LOC TMP RMOD
-2.2086	LOC TMP ROOT
-0.7642	LOC TMP SUB
-1.5116	LOC TMP TMP
-1.1521	LOC TMP VMOD
-0.2816	LOC TPC SUB
-0.8472	LOC TPC TMP
-0.1800	LOC VMOD </s>
-1.0659	LOC VMOD COORD
-1.4162	LOC VMOD DEP
-1.4636	LOC VMOD DOB
-2.5388	LOC VMOD EXT
-1.9815	LOC VMOD LOC
-2.0081	LOC VMOD PRD
-2.1812	LOC VMOD PRP
-1.8408	LOC VMOD RMOD
-1.8863	LOC VMOD SUB
-2.3538	LOC VMOD TMP
-0.9725	LOC VMOD VMOD
-0.1049	LOC VOC </s>
-0.2130	LOC X </s>
-0.1963	LOC XMNR SUB
-0.2220	LOC XPRD </s>
-0.1298	MNR AMOD </s>
-1.3846	MNR AMOD AMOD
-1.6160	MNR AMOD COORD
-1.7013	MNR AMOD MNR
-1.1330	MNR AMOD NMOD
-0.1072	MNR COORD </s>
-1.4628	MNR COORD COORD
-1.6342	MNR COORD DEP
-1.6348	MNR COORD RMOD
-1.1961	MNR COORD SUB
-0.3601	MNR DEP </s>
-1.5689	MNR DEP COORD
-1.6180	MNR DEP LOC
-1.1112	MNR DEP ROOT
-0.5580	MNR DEP SUB
-1.5321	MNR DEP TMP
-0.4463	MNR DET </s>
-0.9620	MNR DET AMOD
-0.9908	MNR DET PMOD
-1.0001	MNR DET RMOD
-0.4791	MNR DIR </s>
-0.5996	MNR DIR MNR
-0.1208	MNR DOB </s>
-1.7243	MNR DOB COORD
-1.7648	MNR DOB DEP
-1.7868	MNR DOB DET
-1.7359	MNR DOB DOB
-1.7763	MNR DOB IOB
-1.7236	MNR DOB LOC
-1.5621	MNR DOB PRP
-1.7509	MNR DOB TMP
-1.5509	MNR DOB VMOD
-0.2281	MNR EXT </s>
-0.5212	MNR IOB </s>
-0.5309	MNR IOB DOB
-0.2330	MNR LOC </s>
-1.4537	MNR LOC DEP
-1.4726	MNR LOC LOC
-1.4897	MNR LOC MNR
-1.4031	MNR LOC PRP
-1.2804	MNR LOC SUB
-1.4411	MNR LOC TMP
-1.2523	MNR LOC VMOD
-0.4001	MNR MNR </s>
-1.2003	MNR MNR COORD
-0.7251	MNR MNR DOB
-1.1331	MNR MNR SUB
-1.1802	MNR MNR VMOD
-0.1109	MNR NMOD </s>
-1.2713	MNR NMOD AMOD
-1.2719	MNR NMOD NMOD
-0.0573	MNR PMOD </s>
-1.4616	MNR PMOD PRP
-0.0159	MNR POB </s>
-2.4774	MNR POB COORD
-1.7618	MNR POB PMOD
-2.0738	MNR POB POB
-0.2797	MNR PRD </s>
-0.0562	MNR PRP </s>
-1.4180	MNR PRP DEP
-0.1381	MNR RMOD </s>
-2.0569	MNR RMOD AMOD
-1.9564	MNR RMOD CONJ
-2.0108	MNR RMOD COORD
-2.0291	MNR RMOD DEP
-2.0329	MNR RMOD LOC
-2.0554	MNR RMOD PMOD
-0.9487	MNR RMOD RMOD
-1.3784	MNR RMOD ROOT
-1.8769	MNR RMOD SUB
-2.0306	MNR RMOD VMOD
-0.6901	MNR ROOT DOB
-1.1195	MNR ROOT LOC
-0.9601	MNR ROOT PMOD
-0.9835	MNR ROOT TMP
-0.6777	MNR ROOT VMOD
-1.8012	MNR SUB CONJ
-1.4239	MNR SUB DEP
-2.2732	MNR SUB DOB
-1.7782	MNR SUB PRD
-0.3720	MNR SUB RMOD
-0.3868	MNR SUB ROOT
-2.2181	MNR SUB TMP
-1.2234	MNR SUB VMOD
-0.4811	MNR TMP </s>
-1.8173	MNR TMP CND
-1.5368	MNR TMP COORD
-1.5034	MNR TMP DEP
-1.5212	MNR TMP LOC
-1.5837	MNR TMP PRP
-1.4003	MNR TMP RMOD
-1.6233	MNR TMP ROOT
-0.4852	MNR TMP SUB
-1.5191	MNR TMP TMP
-1.5338	MNR TMP VMOD
-0.0962	MNR TPC SUB
-0.1096	MNR VMOD </s>
-1.3125	MNR VMOD COORD
-1.4698	MNR VMOD DEP
-1.8711	MNR VMOD LOC
-2.1097	MNR VMOD POB
-1.9163	MNR VMOD PRD
-1.4757	MNR VMOD RMOD
-1.6589	MNR VMOD VMOD
-0.5004	MNR X </s>
-0.4896	MNR X DEP
-0.1695	NMOD AMOD </s>
-0.9376	NMOD AMOD AMOD
-2.2711	NMOD AMOD COORD
-3.5359	NMOD AMOD DEP
-1.7397	NMOD AMOD DET
-3.4361	NMOD AMOD DIR
-3.3019	NMOD AMOD DOB
-3.6309	NMOD AMOD IOB
-1.6426	NMOD AMOD LOC
-3.1861	NMOD AMOD MNR
-1.0016	NMOD AMOD NMOD
-1.3454	NMOD AMOD PMOD
-2.8184	NMOD AMOD PRD
-2.3786	NMOD AMOD PRP
-3.1069	NMOD AMOD RMOD
-3.4498	NMOD AMOD SUB
-2.1619	NMOD AMOD TMP
-3.6686	NMOD AMOD VOC
-0.0902	NMOD COORD </s>
-1.3486	NMOD COORD AMOD
-2.1929	NMOD COORD COORD
-2.5994	NMOD COORD DET
-1.7569	NMOD COORD LOC
-1.4861	NMOD COORD NMOD
-1.3114	NMOD COORD PMOD
-2.0476	NMOD COORD PRP
-2.3127	NMOD COORD RMOD
-2.4087	NMOD COORD TMP
-0.2188	NMOD DEP </s>
-0.5691	NMOD DEP DEP
-0.1036	NMOD DET </s>
-1.4791	NMOD DET AMOD
-2.9456	NMOD DET COORD
-2.7479	NMOD DET DEP
-1.2786	NMOD DET DET
-2.7767	NMOD DET DOB
-2.8390	NMOD DET LOC
-1.0649	NMOD DET NMOD
-1.8296	NMOD DET PMOD
-2.7464	NMOD DET POB
-2.8729	NMOD DET PRD
-2.7707	NMOD DET PRP
-2.4452	NMOD DET RMOD
-2.6942	NMOD DET SUB
-2.3125	NMOD DET TMP
-0.1577	NMOD DIR </s>
-1.0090	NMOD DIR AMOD
-1.2715	NMOD DIR COORD
-1.3925	NMOD DIR PRP
-0.2130	NMOD DOB </s>
-1.4379	NMOD DOB AMOD
-0.8962	NMOD DOB NMOD
-1.3756	NMOD DOB PMOD
-0.1074	NMOD EXT </s>
-0.2969	NMOD IOB </s>
-0.0690	NMOD LOC </s>
-1.1794	NMOD LOC AMOD
-1.9188	NMOD LOC COORD
-2.4584	NMOD LOC DEP
-2.5950	NMOD LOC DET
-2.2703	NMOD LOC LOC
-2.4981	NMOD LOC MNR
-1.7482	NMOD LOC NMOD
-1.9512	NMOD LOC PMOD
-2.2218	NMOD LOC PRP
-2.5398	NMOD LOC RMOD
-2.2486	NMOD LOC TMP
-2.5222	NMOD LOC VMOD
-0.1912	NMOD MNR </s>
-0.9112	NMOD MNR AMOD
-1.4531	NMOD MNR NMOD
-1.4145	NMOD MNR PMOD
-0.1678	NMOD NMOD </s>
-1.0488	NMOD NMOD AMOD
-1.9579	NMOD NMOD COORD
-3.9032	NMOD NMOD DEP
-2.0760	NMOD NMOD DET
-3.0564	NMOD NMOD DIR
-1.6795	NMOD NMOD LOC
-3.2909	NMOD NMOD MNR
-0.8039	NMOD NMOD NMOD
-1.7456	NMOD NMOD PMOD
-2.8577	NMOD NMOD PRD
-2.4896	NMOD NMOD PRP
-2.9638	NMOD NMOD RMOD
-2.0858	NMOD NMOD TMP
-0.0574	NMOD PMOD </s>
-1.2831	NMOD PMOD AMOD
-2.2330	NMOD PMOD COORD
-2.2311	NMOD PMOD DEP
-2.6565	NMOD PMOD DET
-1.9813	NMOD PMOD LOC
-2.6763	NMOD PMOD MNR
-2.1770	NMOD PMOD NMOD
-1.8985	NMOD PMOD PMOD
-2.8316	NMOD PMOD PRD
-2.1338	NMOD PMOD PRP
-1.9687	NMOD PMOD TMP
-0.3164	NMOD POB </s>
-1.2089	NMOD POB AMOD
-0.6692	NMOD POB NMOD
-0.1228	NMOD PRD </s>
-1.6984	NMOD PRD AMOD
-0.8398	NMOD PRD DEP
-1.9865	NMOD PRD LOC
-1.9330	NMOD PRD NMOD
-1.9027	NMOD PRD TMP
-0.0441	NMOD PRP </s>
-2.0062	NMOD PRP AMOD
-1.7702	NMOD PRP LOC
-1.8252	NMOD PRP PMOD
-1.9689	NMOD PRP TMP
-0.1781	NMOD RMOD </s>
-0.7632	NMOD RMOD AMOD
-1.5498	NMOD RMOD COORD
-1.7504	NMOD RMOD LOC
-1.6204	NMOD RMOD NMOD
-0.8134	NMOD SUB </s>
-1.0288	NMOD SUB AMOD
-1.0871	NMOD SUB PMOD
-0.7889	NMOD SUB PRD
-1.1482	NMOD SUB X
-0.1248	NMOD TMP </s>
-0.8447	NMOD TMP AMOD
-1.9994	NMOD TMP LOC
-1.6321	NMOD TMP NMOD
-1.6227	NMOD TMP PMOD
-2.0646	NMOD TMP PRD
-2.1510	NMOD TMP TMP
-0.1550	NMOD VOC </s>
-0.2130	NMOD X </s>
-0.2090	NMOD XPRD </s>
-0.1335	PMOD AMOD </s>
-0.7567	PMOD AMOD AMOD
-1.2591	PMOD AMOD NMOD
-2.0789	PMOD AMOD PMOD
-2.3434	PMOD AMOD PRD
-0.5533	PMOD CONJ DOB
-0.5628	PMOD CONJ VMOD
-0.1201	PMOD COORD </s>
-1.2961	PMOD COORD COORD
-1.5532	PMOD COORD DEP
-2.1944	PMOD COORD POB
-1.9082	PMOD COORD RMOD
-1.2012	PMOD COORD SUB
-1.8349	PMOD COORD TMP
-1.5681	PMOD COORD VMOD
-0.2538	PMOD DEP </s>
-2.3740	PMOD DEP CONJ
-2.1973	PMOD DEP COORD
-0.7041	PMOD DEP DEP
-2.4566	PMOD DEP DIR
-2.2320	PMOD DEP DOB
-1.5751	PMOD DEP PMOD
-1.0634	PMOD DEP POB
-1.8123	PMOD DEP PRD
-2.3033	PMOD DEP PRP
-2.1384	PMOD DEP RMOD
-1.4650	PMOD DEP SUB
-2.1394	PMOD DEP TMP
-1.6797	PMOD DEP VMOD
-2.4996	PMOD DEP VOC
-0.3120	PMOD DET </s>
-1.1946	PMOD DET DEP
-1.3487	PMOD DET NMOD
-0.6313	PMOD DET VMOD
-0.2534	PMOD DIR </s>
-0.0617	PMOD DOB </s>
-2.1655	PMOD DOB AMOD
-1.8721	PMOD DOB COORD
-2.0641	PMOD DOB PMOD
-1.4631	PMOD DOB PRP
-1.8511	PMOD DOB RMOD
-1.8608	PMOD DOB VMOD
-0.2281	PMOD EXT </s>
-0.0582	PMOD LOC </s>
-1.5521	PMOD LOC COORD
-2.0118	PMOD LOC DEP
-1.5656	PMOD LOC LOC
-2.0441	PMOD LOC NMOD
-2.0005	PMOD LOC TMP
-0.0831	PMOD MNR </s>
-1.4066	PMOD MNR COORD
-1.5516	PMOD MNR SUB
-1.7367	PMOD MNR X
-0.0852	PMOD NMOD </s>
-1.5209	PMOD NMOD AMOD
-1.5991	PMOD NMOD COORD
-1.5881	PMOD NMOD LOC
-1.5217	PMOD NMOD NMOD
-0.0921	PMOD PMOD </s>
-1.4394	PMOD PMOD AMOD
-2.0722	PMOD PMOD COORD
-2.0674	PMOD PMOD DEP
-1.2652	PMOD PMOD PMOD
-2.2442	PMOD PMOD POB
-2.1944	PMOD PMOD PRD
-2.0894	PMOD PMOD PRP
-1.9262	PMOD PMOD RMOD
-1.6941	PMOD PMOD TMP
-2.0690	PMOD PMOD VMOD
-0.0191	PMOD POB </s>
-2.6825	PMOD POB COORD
-2.1578	PMOD POB DEP
-3.2050	PMOD POB DIR
-3.7985	PMOD POB DOB
-2.5937	PMOD POB LOC
-2.9835	PMOD POB MNR
-1.8548	PMOD POB PMOD
-2.1317	PMOD POB POB
-2.7034	PMOD POB PRP
-3.2665	PMOD POB RMOD
-2.5246	PMOD POB TMP
-2.6921	PMOD POB VMOD
-3.8731	PMOD POB X
-0.0963	PMOD PRD </s>
-1.3384	PMOD PRD COORD
-1.3007	PMOD PRD DEP
-0.0404	PMOD PRP </s>
-1.7883	PMOD PRP COORD
-1.9305	PMOD PRP DEP
-1.9936	PMOD PRP LOC
-2.0099	PMOD PRP PRP
-2.0075	PMOD PRP TMP
-0.3072	PMOD RMOD </s>
-1.2470	PMOD RMOD COORD
-1.5898	PMOD RMOD DEP
-1.3420	PMOD RMOD DOB
-2.0327	PMOD RMOD IOB
-1.4559	PMOD RMOD PMOD
-2.1883	PMOD RMOD POB
-1.8233	PMOD RMOD PRP
-0.8615	PMOD RMOD RMOD
-1.8378	PMOD RMOD ROOT
-1.3385	PMOD RMOD SUB
-1.9714	PMOD RMOD TMP
-1.2520	PMOD RMOD VMOD
-1.1286	PMOD ROOT COORD
-0.8337	PMOD ROOT DOB
-1.0443	PMOD ROOT PMOD
-0.9872	PMOD ROOT RMOD
-0.5615	PMOD ROOT VMOD
-2.0227	PMOD SUB </s>
-1.6584	PMOD SUB AMOD
-2.0205	PMOD SUB CONJ
-2.0661	PMOD SUB COORD
-1.8166	PMOD SUB DEP
-1.0942	PMOD SUB PRD
-0.6503	PMOD SUB RMOD
-0.6703	PMOD SUB ROOT
-2.0422	PMOD SUB TMP
-0.4250	PMOD SUB VMOD
-2.2039	PMOD SUB XPRD
-0.1004	PMOD TMP </s>
-1.8894	PMOD TMP AMOD
-1.3379	PMOD TMP COORD
-1.8207	PMOD TMP DEP
-1.8336	PMOD TMP LOC
-1.9027	PMOD TMP NMOD
-1.2336	PMOD TMP SUB
-0.5925	PMOD TPC </s>
-0.5075	PMOD TPC SUB
-0.0581	PMOD VMOD </s>
-1.7353	PMOD VMOD COORD
-1.8521	PMOD VMOD DEP
-1.5095	PMOD VMOD PMOD
-2.4626	PMOD VMOD PRD
-2.4191	PMOD VMOD PRP
-1.3961	PMOD VMOD VMOD
-0.1550	PMOD VOC </s>
-0.3475	PMOD X </s>
-0.7210	PMOD X VMOD
-0.1687	POB AMOD </s>
-0.9406	POB AMOD AMOD
-2.2168	POB AMOD COORD
-1.5646	POB AMOD DET
-2.7724	POB AMOD DOB
-1.8045	POB AMOD LOC
-1.1159	POB AMOD NMOD
-1.1777	POB AMOD PMOD
-2.3466	POB AMOD PRP
-2.5720	POB AMOD RMOD
-2.3438	POB AMOD TMP
-0.1251	POB COORD </s>
-1.0640	POB COORD AMOD
-1.8384	POB COORD LOC
-1.6029	POB COORD NMOD
-1.1299	POB COORD PMOD
-0.9894	POB DEP </s>
-1.6645	POB DEP DEP
-0.1105	POB DEP POB
-1.9078	POB DEP TMP
-1.4699	POB DEP VMOD
-0.1194	POB DET </s>
-1.6893	POB DET AMOD
-1.0058	POB DET DET
-2.8672	POB DET DIR
-2.7316	POB DET LOC
-0.9844	POB DET NMOD
-2.5049	POB DET PMOD
-2.7066	POB DET TMP
-0.4036	POB DIR </s>
-1.0750	POB DIR NMOD
-0.9149	POB DIR PRP
-0.9878	POB DIR TMP
-0.1325	POB DOB </s>
-0.1500	POB EXT </s>
-0.0256	POB LOC </s>
-2.0734	POB LOC AMOD
-2.0553	POB LOC LOC
-2.0653	POB LOC NMOD
-0.0678	POB MNR </s>
-0.2281	POB NMOD </s>
-0.8335	POB NMOD AMOD
-2.2881	POB NMOD COORD
-1.5907	POB NMOD DET
-3.4136	POB NMOD DIR
-3.4556	POB NMOD DOB
-1.6593	POB NMOD LOC
-3.0490	POB NMOD MNR
-0.7421	POB NMOD NMOD
-1.7136	POB NMOD PMOD
-3.5289	POB NMOD PRD
-2.9877	POB NMOD RMOD
-2.3147	POB NMOD TMP
-3.7973	POB NMOD VOC
-0.0463	POB PMOD </s>
-1.4457	POB PMOD AMOD
-1.7641	POB PMOD COORD
-2.3954	POB PMOD DEP
-2.4268	POB PMOD LOC
-2.7186	POB PMOD NMOD
-1.7511	POB PMOD PMOD
-2.7173	POB PMOD POB
-2.5296	POB PMOD RMOD
-2.3832	POB PMOD TMP
-2.5304	POB PMOD VMOD
-0.1858	POB POB </s>
-1.4118	POB POB DEP
-1.3750	POB POB PMOD
-0.6284	POB POB POB
-2.1206	POB POB VMOD
-0.0367	POB PRP </s>
-1.6522	POB PRP AMOD
-0.2318	POB RMOD </s>
-0.7793	POB RMOD COORD
-1.2946	POB RMOD DEP
-0.0994	POB TMP </s>
-1.7053	POB TMP AMOD
-1.6350	POB TMP DEP
-1.6482	POB TMP LOC
-1.7190	POB TMP NMOD
-1.6921	POB TMP PMOD
-1.6466	POB TMP TMP
-0.1140	POB VMOD </s>
-1.5712	POB VMOD COORD
-1.4038	POB VMOD PMOD
-1.5066	POB VMOD POB
-1.5303	POB VMOD VMOD
-0.6216	POB X POB
-0.6165	POB X X
-0.1367	PRD AMOD </s>
-1.2290	PRD AMOD AMOD
-1.8377	PRD AMOD COORD
-2.0030	PRD AMOD LOC
-0.9934	PRD AMOD NMOD
-1.9280	PRD AMOD PMOD
-1.8456	PRD AMOD RMOD
-2.0509	PRD AMOD TMP
-1.9060	PRD AMOD VMOD
-0.7738	PRD CONJ DEP
-0.6896	PRD CONJ DOB
-0.7022	PRD CONJ RMOD
-0.0731	PRD COORD </s>
-1.6888	PRD COORD COORD
-1.5025	PRD COORD DEP
-1.7887	PRD COORD NMOD
-1.7092	PRD COORD VMOD
-0.5543	PRD DEP </s>
-2.0162	PRD DEP AMOD
-1.7971	PRD DEP CONJ
-0.5318	PRD DEP DEP
-1.9847	PRD DEP DOB
-2.1023	PRD DEP PMOD
-1.9232	PRD DEP PRD
-0.7983	PRD DEP RMOD
-1.1447	PRD DEP ROOT
-2.0498	PRD DEP TMP
-1.0159	PRD DEP VMOD
-0.3958	PRD DET </s>
-1.0593	PRD DET AMOD
-0.8633	PRD DET DET
-1.0496	PRD DET NMOD
-0.1112	PRD DOB </s>
-1.3301	PRD DOB RMOD
-1.3370	PRD DOB VMOD
-0.2281	PRD EXT </s>
-0.0726	PRD LOC </s>
-1.3512	PRD LOC PRP
-0.2772	PRD MNR </s>
-0.1953	PRD NMOD </s>
-0.8114	PRD NMOD AMOD
-0.8115	PRD NMOD NMOD
-1.8914	PRD NMOD PMOD
-0.1411	PRD PMOD </s>
-1.5132	PRD PMOD AMOD
-1.5771	PRD PMOD DOB
-1.4659	PRD PMOD PMOD
-1.3234	PRD PMOD RMOD
-1.5116	PRD PMOD VMOD
-0.0957	PRD POB </s>
-1.2713	PRD POB PMOD
-1.3906	PRD POB PRP
-0.2947	PRD PRD </s>
-1.1408	PRD PRD DEP
-1.2763	PRD PRD PMOD
-1.2362	PRD PRD PRD
-1.2321	PRD PRD RMOD
-1.2754	PRD PRD TMP
-1.2132	PRD PRD VMOD
-0.0938	PRD PRP </s>
-1.3086	PRD PRP NMOD
-0.2904	PRD RMOD </s>
-1.5656	PRD RMOD AMOD
-1.7955	PRD RMOD CONJ
-1.7348	PRD RMOD COORD
-1.5573	PRD RMOD DEP
-2.2711	PRD RMOD DET
-2.3782	PRD RMOD DIR
-1.7497	PRD RMOD DOB
-2.1861	PRD RMOD LOC
-2.2103	PRD RMOD NMOD
-2.0956	PRD RMOD PMOD
-1.8963	PRD RMOD PRP
-0.9039	PRD RMOD RMOD
-1.1835	PRD RMOD ROOT
-1.6541	PRD RMOD TMP
-0.9789	PRD RMOD VMOD
-1.5618	PRD ROOT </s>
-1.5390	PRD ROOT DEP
-0.5817	PRD ROOT DOB
-1.3272	PRD ROOT LOC
-0.8020	PRD ROOT RMOD
-1.5411	PRD ROOT TMP
-0.4733	PRD ROOT VMOD
-0.8128	PRD SUB DEP
-0.9918	PRD SUB RMOD
-0.3583	PRD SUB ROOT
-0.4485	PRD TMP </s>
-1.0887	PRD TMP DEP
-0.9261	PRD TMP RMOD
-0.9499	PRD TMP ROOT
-0.0822	PRD VMOD </s>
-2.1229	PRD VMOD AMOD
-1.5744	PRD VMOD DEP
-1.9516	PRD VMOD DOB
-2.1324	PRD VMOD IOB
-1.9679	PRD VMOD LOC
-2.0145	PRD VMOD PRD
-1.9679	PRD VMOD PRP
-1.4260	PRD VMOD RMOD
-1.7578	PRD VMOD VMOD
-0.6017	PRD VOC DEP
-0.6021	PRD VOC RMOD
-0.1282	PRP AMOD </s>
-1.2222	PRP AMOD AMOD
-1.4255	PRP AMOD PMOD
-1.5089	PRP AMOD PRP
-0.2283	PRP CND DEP
-0.1076	PRP COORD </s>
-2.0096	PRP COORD AMOD
-1.5158	PRP COORD DEP
-2.0273	PRP COORD DOB
-2.0096	PRP COORD PRP
-1.8831	PRP COORD RMOD
-1.1590	PRP COORD SUB
-1.9678	PRP COORD TMP
-1.5298	PRP COORD VMOD
-0.0735	PRP DEP </s>
-2.9035	PRP DEP CND
-1.3891	PRP DEP DEP
-2.5085	PRP DEP PMOD
-2.1497	PRP DEP POB
-2.5882	PRP DEP PRD
-2.7546	PRP DEP PRP
-2.2677	PRP DEP RMOD
-2.5614	PRP DEP ROOT
-1.1638	PRP DEP SUB
-2.1296	PRP DEP TMP
-2.6193	PRP DEP TPC
-2.4933	PRP DEP VMOD
-2.8751	PRP DEP XMDP
-0.4576	PRP DET </s>
-0.7442	PRP DET DOB
-0.0884	PRP DIR </s>
-1.2062	PRP DIR PRP
-0.1486	PRP DOB </s>
-1.8898	PRP DOB COORD
-2.5765	PRP DOB DOB
-1.2845	PRP DOB IOB
-1.6541	PRP DOB LOC
-2.2360	PRP DOB MNR
-1.8970	PRP DOB PMOD
-1.1942	PRP DOB PRP
-1.6492	PRP DOB RMOD
-2.4603	PRP DOB TMP
-1.0829	PRP DOB VMOD
-0.2425	PRP IOB </s>
-0.9346	PRP IOB DOB
-1.1844	PRP IOB RMOD
-1.1392	PRP IOB VMOD
-0.1146	PRP LOC </s>
-1.7824	PRP LOC COORD
-1.5929	PRP LOC PRP
-1.1931	PRP LOC RMOD
-1.3657	PRP LOC SUB
-1.7666	PRP LOC VMOD
-0.3591	PRP MNR </s>
-1.1567	PRP MNR DOB
-1.2161	PRP MNR MNR
-1.0930	PRP MNR SUB
-0.9490	PRP MNR TMP
-0.6920	PRP NMOD </s>
-0.8662	PRP NMOD AMOD
-0.9337	PRP NMOD LOC
-0.6936	PRP NMOD NMOD
-0.0984	PRP PMOD </s>
-1.7642	PRP PMOD COORD
-1.5988	PRP PMOD PRP
-1.3321	PRP PMOD RMOD
-1.8213	PRP PMOD SUB
-1.7480	PRP PMOD TMP
-1.7617	PRP PMOD VMOD
-0.0285	PRP POB </s>
-2.3116	PRP POB COORD
-1.9428	PRP POB DEP
-1.8687	PRP POB PMOD
-2.4052	PRP POB PRP
-1.7730	PRP POB VMOD
-0.1209	PRP PRD </s>
-0.0520	PRP PRP </s>
-1.7863	PRP PRP DEP
-1.6614	PRP PRP PRP
-1.8282	PRP PRP SUB
-1.8427	PRP PRP VMOD
-0.2336	PRP RMOD </s>
-2.3160	PRP RMOD AMOD
-2.1543	PRP RMOD COORD
-2.1732	PRP RMOD DEP
-2.0351	PRP RMOD DET
-0.9820	PRP RMOD DOB
-2.2653	PRP RMOD IOB
-1.5483	PRP RMOD LOC
-2.3911	PRP RMOD MNR
-1.6841	PRP RMOD PMOD
-2.4313	PRP RMOD PRD
-1.5011	PRP RMOD PRP
-1.1203	PRP RMOD RMOD
-1.5579	PRP RMOD ROOT
-2.1748	PRP RMOD SUB
-2.2126	PRP RMOD TMP
-1.2151	PRP RMOD VMOD
-2.5137	PRP RMOD VOC
-0.8663	PRP ROOT NMOD
-0.7840	PRP ROOT RMOD
-0.8425	PRP ROOT TMP
-0.7845	PRP ROOT VMOD
-1.8687	PRP SUB CONJ
-1.9526	PRP SUB DEP
-1.6560	PRP SUB DOB
-2.2726	PRP SUB EXT
-1.9716	PRP SUB PRD
-0.4741	PRP SUB RMOD
-0.4244	PRP SUB ROOT
-2.0463	PRP SUB TMP
-0.7399	PRP SUB VMOD
-0.3233	PRP TMP </s>
-1.6362	PRP TMP COORD
-1.6037	PRP TMP DEP
-1.6957	PRP TMP DOB
-1.6800	PRP TMP PMOD
-1.8146	PRP TMP POB
-1.5329	PRP TMP ROOT
-0.7199	PRP TMP SUB
-0.9596	PRP TMP VMOD
-0.2883	PRP TPC SUB
-0.0414	PRP VMOD </s>
-2.1232	PRP VMOD COORD
-1.9657	PRP VMOD DEP
-1.6816	PRP VMOD DOB
-2.8773	PRP VMOD IOB
-2.8403	PRP VMOD LOC
-2.9906	PRP VMOD MNR
-2.2841	PRP VMOD PMOD
-3.1753	PRP VMOD POB
-2.5272	PRP VMOD PRP
-2.7211	PRP VMOD RMOD
-2.4077	PRP VMOD TMP
-1.5228	PRP VMOD VMOD
-0.1550	PRP VOC </s>
-0.2350	PRP X </s>
-0.8434	PRP X DEP
-0.2585	PRP XMDP SUB
-0.2866	PRP XTMP VMOD
-0.3622	RMOD AMOD </s>
-1.1848	RMOD AMOD AMOD
-2.1561	RMOD AMOD COORD
-2.9520	RMOD AMOD DEP
-1.8205	RMOD AMOD DET
-3.1969	RMOD AMOD DIR
-0.9967	RMOD AMOD DOB
-3.5285	RMOD AMOD EXT
-3.3827	RMOD AMOD IOB
-1.4569	RMOD AMOD LOC
-2.5493	RMOD AMOD MNR
-1.5350	RMOD AMOD NMOD
-1.2883	RMOD AMOD PMOD
-2.5809	RMOD AMOD POB
-2.7814	RMOD AMOD PRD
-1.8781	RMOD AMOD PRP
-0.8703	RMOD AMOD RMOD
-1.7706	RMOD AMOD SUB
-1.7878	RMOD AMOD TMP
-1.1547	RMOD AMOD VMOD
-3.4244	RMOD AMOD VOC
-3.5625	RMOD AMOD X
-0.6158	RMOD CNC </s>
-0.6808	RMOD CNC DOB
-0.6799	RMOD CNC RMOD
-0.6453	RMOD CND </s>
-0.9358	RMOD CND DEP
-0.5265	RMOD CND DOB
-0.8100	RMOD CND RMOD
-1.3663	RMOD CND X
-0.9286	RMOD CONJ </s>
-2.8096	RMOD CONJ AMOD
-1.9875	RMOD CONJ COORD
-2.8206	RMOD CONJ DIR
-0.5556	RMOD CONJ DOB
-2.6333	RMOD CONJ IOB
-1.5498	RMOD CONJ LOC
-2.1694	RMOD CONJ MNR
-1.4383	RMOD CONJ PMOD
-1.8437	RMOD CONJ PRP
-0.6330	RMOD CONJ RMOD
-2.0093	RMOD CONJ TMP
-0.5919	RMOD CONJ VMOD
-0.1255	RMOD COORD </s>
-1.9940	RMOD COORD AMOD
-1.4196	RMOD COORD COORD
-1.3712	RMOD COORD DEP
-2.7687	RMOD COORD DET
-2.4701	RMOD COORD DOB
-2.3861	RMOD COORD LOC
-2.7233	RMOD COORD MNR
-2.6101	RMOD COORD NMOD
-2.1001	RMOD COORD PMOD
-2.5265	RMOD COORD PRD
-2.4501	RMOD COORD PRP
-1.9396	RMOD COORD RMOD
-1.0377	RMOD COORD SUB
-2.0796	RMOD COORD TMP
-1.8085	RMOD COORD VMOD
-2.7833	RMOD COORD VOC
-0.5401	RMOD DEP </s>
-2.5525	RMOD DEP AMOD
-3.1497	RMOD DEP CONJ
-1.6313	RMOD DEP COORD
-1.0904	RMOD DEP DEP
-3.0915	RMOD DEP DET
-2.7932	RMOD DEP DIR
-0.8002	RMOD DEP DOB
-2.6243	RMOD DEP IOB
-1.6825	RMOD DEP LOC
-3.0329	RMOD DEP MNR
-3.2114	RMOD DEP NMOD
-1.6611	RMOD DEP PMOD
-2.9190	RMOD DEP POB
-1.7816	RMOD DEP PRD
-1.8896	RMOD DEP PRP
-0.7704	RMOD DEP RMOD
-3.0029	RMOD DEP ROOT
-1.4595	RMOD DEP SUB
-1.7236	RMOD DEP TMP
-3.1092	RMOD DEP TPC
-0.8567	RMOD DEP VMOD
-3.2112	RMOD DEP XMDP
-0.6032	RMOD DET </s>
-1.6235	RMOD DET AMOD
-2.1343	RMOD DET CONJ
-2.6468	RMOD DET COORD
-1.9356	RMOD DET DEP
-1.1704	RMOD DET DET
-1.0256	RMOD DET DOB
-1.9212	RMOD DET EXT
-2.5209	RMOD DET LOC
-2.1130	RMOD DET MNR
-0.9998	RMOD DET NMOD
-2.4219	RMOD DET PMOD
-1.3955	RMOD DET POB
-1.5050	RMOD DET PRD
-2.6443	RMOD DET PRP
-1.0944	RMOD DET RMOD
-2.5690	RMOD DET ROOT
-0.9075	RMOD DET SUB
-0.8987	RMOD DET TMP
-2.7246	RMOD DET TPC
-2.2241	RMOD DET VMOD
-0.1501	RMOD DIR </s>
-1.8097	RMOD DIR AMOD
-1.7711	RMOD DIR COORD
-1.8449	RMOD DIR DEP
-1.7880	RMOD DIR POB
-1.3636	RMOD DIR PRP
-1.7193	RMOD DIR RMOD
-1.6571	RMOD DIR SUB
-1.8048	RMOD DIR TMP
-1.0625	RMOD DIR VMOD
-0.2008	RMOD DOB </s>
-1.9910	RMOD DOB AMOD
-1.3162	RMOD DOB COORD
-1.6129	RMOD DOB DEP
-2.7244	RMOD DOB DET
-2.6069	RMOD DOB DIR
-1.5663	RMOD DOB DOB
-3.0734	RMOD DOB EXT
-1.8604	RMOD DOB IOB
-1.8144	RMOD DOB LOC
-2.1745	RMOD DOB MNR
-1.9166	RMOD DOB NMOD
-1.6886	RMOD DOB PMOD
-2.7538	RMOD DOB PRD
-1.2930	RMOD DOB PRP
-1.3853	RMOD DOB RMOD
-1.8867	RMOD DOB SUB
-1.8370	RMOD DOB TMP
-3.4157	RMOD DOB TPC
-1.1971	RMOD DOB VMOD
-3.1442	RMOD DOB VOC
-0.1649	RMOD EXT </s>
-1.2854	RMOD EXT ROOT
-1.1859	RMOD EXT SUB
-1.2518	RMOD EXT VMOD
-0.1070	RMOD H RMOD
-0.3705	RMOD IOB </s>
-0.5504	RMOD IOB DOB
-1.3995	RMOD IOB PMOD
-1.3673	RMOD IOB PRP
-0.9409	RMOD IOB RMOD
-1.8125	RMOD IOB TMP
-1.5391	RMOD IOB VMOD
-0.1937	RMOD LOC </s>
-2.3320	RMOD LOC AMOD
-1.6981	RMOD LOC COORD
-1.5814	RMOD LOC DEP
-2.7606	RMOD LOC DET
-2.6612	RMOD LOC DIR
-1.8102	RMOD LOC DOB
-2.2725	RMOD LOC EXT
-2.9825	RMOD LOC IOB
-2.1796	RMOD LOC LOC
-2.0153	RMOD LOC MNR
-2.4901	RMOD LOC NMOD
-1.9062	RMOD LOC PMOD
-1.5332	RMOD LOC POB
-2.7177	RMOD LOC PRD
-1.3504	RMOD LOC PRP
-1.6323	RMOD LOC RMOD
-2.3877	RMOD LOC ROOT
-1.5557	RMOD LOC SUB
-1.3245	RMOD LOC TMP
-2.9866	RMOD LOC TPC
-1.1629	RMOD LOC VMOD
-2.7704	RMOD LOC VOC
-0.1741	RMOD MNR </s>
-1.7988	RMOD MNR AMOD
-1.5111	RMOD MNR COORD
-1.6491	RMOD MNR DEP
-2.0233	RMOD MNR DOB
-2.4086	RMOD MNR EXT
-2.1459	RMOD MNR LOC
-2.1501	RMOD MNR MNR
-2.0515	RMOD MNR NMOD
-1.7772	RMOD MNR PMOD
-1.2894	RMOD MNR POB
-1.6382	RMOD MNR PRP
-1.3519	RMOD MNR RMOD
-2.2605	RMOD MNR ROOT
-1.5597	RMOD MNR SUB
-1.8939	RMOD MNR TMP
-1.4989	RMOD MNR VMOD
-0.2726	RMOD NMOD </s>
-0.7126	RMOD NMOD AMOD
-2.0406	RMOD NMOD COORD
-1.7729	RMOD NMOD DET
-3.3197	RMOD NMOD EXT
-1.6998	RMOD NMOD LOC
-0.7505	RMOD NMOD NMOD
-1.4698	RMOD NMOD PMOD
-2.4716	RMOD NMOD PRD
-2.5568	RMOD NMOD PRP
-2.7082	RMOD NMOD RMOD
-3.0603	RMOD NMOD SUB
-2.4360	RMOD NMOD TMP
-0.1387	RMOD PMOD </s>
-1.6312	RMOD PMOD AMOD
-1.9023	RMOD PMOD COORD
-2.0484	RMOD PMOD DEP
-2.6836	RMOD PMOD DET
-1.8114	RMOD PMOD DOB
-2.0644	RMOD PMOD LOC
-2.2064	RMOD PMOD MNR
-1.8259	RMOD PMOD PMOD
-1.5052	RMOD PMOD POB
-2.7137	RMOD PMOD PRD
-1.6013	RMOD PMOD PRP
-1.4429	RMOD PMOD RMOD
-2.0783	RMOD PMOD SUB
-1.7006	RMOD PMOD TMP
-1.2522	RMOD PMOD VMOD
-0.0638	RMOD POB </s>
-1.2828	RMOD POB AMOD
-2.5096	RMOD POB DET
-2.4787	RMOD POB LOC
-1.2416	RMOD POB NMOD
-2.2306	RMOD POB PMOD
-0.3787	RMOD PRD </s>
-1.1343	RMOD PRD AMOD
-1.4429	RMOD PRD COORD
-1.5149	RMOD PRD DEP
-2.4125	RMOD PRD DET
-1.8313	RMOD PRD DOB
-2.0904	RMOD PRD LOC
-1.6361	RMOD PRD NMOD
-1.5128	RMOD PRD PMOD
-1.9652	RMOD PRD POB
-2.1523	RMOD PRD PRD
-1.6629	RMOD PRD PRP
-0.7051	RMOD PRD RMOD
-2.3221	RMOD PRD TMP
-0.9464	RMOD PRD VMOD
-0.1077	RMOD PRP </s>
-2.4746	RMOD PRP AMOD
-1.3348	RMOD PRP COORD
-1.3740	RMOD PRP DEP
-1.6375	RMOD PRP DOB
-2.5181	RMOD PRP LOC
-2.6760	RMOD PRP PMOD
-2.6196	RMOD PRP POB
-2.7683	RMOD PRP PRD
-1.9024	RMOD PRP PRP
-1.7211	RMOD PRP RMOD
-2.0707	RMOD PRP SUB
-2.5419	RMOD PRP TMP
-1.3176	RMOD PRP VMOD
-0.3744	RMOD RMOD </s>
-1.5428	RMOD RMOD AMOD
-1.3799	RMOD RMOD CONJ
-1.7428	RMOD RMOD COORD
-1.3081	RMOD RMOD DEP
-2.3789	RMOD RMOD DET
-3.3680	RMOD RMOD DIR
-1.5597	RMOD RMOD DOB
-3.2937	RMOD RMOD IOB
-1.9689	RMOD RMOD LOC
-3.1018	RMOD RMOD MNR
-2.8104	RMOD RMOD NMOD
-1.8973	RMOD RMOD PMOD
-2.7585	RMOD RMOD POB
-1.9218	RMOD RMOD PRD
-1.9171	RMOD RMOD PRP
-0.8935	RMOD RMOD RMOD
-0.9586	RMOD RMOD ROOT
-1.9360	RMOD RMOD SUB
-1.8700	RMOD RMOD TMP
-3.5019	RMOD RMOD TPC
-1.0383	RMOD RMOD VMOD
-3.1700	RMOD RMOD VOC
-3.7287	RMOD RMOD X
-1.4489	RMOD ROOT </s>
-2.6491	RMOD ROOT AMOD
-1.6793	RMOD ROOT COORD
-1.5744	RMOD ROOT DEP
-2.7684	RMOD ROOT DET
-2.2924	RMOD ROOT DIR
-0.5474	RMOD ROOT DOB
-3.4292	RMOD ROOT EXT
-2.4961	RMOD ROOT IOB
-1.3807	RMOD ROOT LOC
-2.0724	RMOD ROOT MNR
-3.3547	RMOD ROOT NMOD
-1.4326	RMOD ROOT PMOD
-3.6311	RMOD ROOT POB
-2.6765	RMOD ROOT PRD
-1.6604	RMOD ROOT PRP
-0.6131	RMOD ROOT RMOD
-2.2448	RMOD ROOT SUB
-1.7925	RMOD ROOT TMP
-0.6147	RMOD ROOT VMOD
-3.6913	RMOD ROOT VOC
-3.6820	RMOD ROOT X
-0.8985	RMOD SUB </s>
-1.5010	RMOD SUB AMOD
-2.0454	RMOD SUB CONJ
-2.2134	RMOD SUB COORD
-1.6961	RMOD SUB DEP
-3.0148	RMOD SUB DET
-2.7011	RMOD SUB DOB
-1.5925	RMOD SUB NMOD
-2.8975	RMOD SUB PMOD
-1.6708	RMOD SUB PRD
-2.9345	RMOD SUB PRP
-0.6516	RMOD SUB RMOD
-0.7222	RMOD SUB ROOT
-3.0028	RMOD SUB SUB
-2.1212	RMOD SUB TMP
-0.4815	RMOD SUB VMOD
-0.2741	RMOD TMP </s>
-1.3537	RMOD TMP AMOD
-1.5134	RMOD TMP COORD
-1.6811	RMOD TMP DEP
-2.1838	RMOD TMP DET
-2.4489	RMOD TMP DOB
-1.7812	RMOD TMP LOC
-2.7277	RMOD TMP MNR
-1.9409	RMOD TMP NMOD
-1.7461	RMOD TMP PMOD
-1.0858	RMOD TMP POB
-2.5948	RMOD TMP PRD
-2.2454	RMOD TMP PRP
-1.3704	RMOD TMP RMOD
-2.6005	RMOD TMP ROOT
-0.9623	RMOD TMP SUB
-1.7806	RMOD TMP TMP
-2.8313	RMOD TMP TPC
-1.3093	RMOD TMP VMOD
-1.3261	RMOD TPC </s>
-1.1643	RMOD TPC AMOD
-1.1571	RMOD TPC DEP
-1.1673	RMOD TPC NMOD
-0.4120	RMOD TPC SUB
-1.2763	RMOD TPC TMP
-1.1600	RMOD TPC VMOD
-1.4566	RMOD TPC X
-0.4783	RMOD VMOD </s>
-3.0890	RMOD VMOD AMOD
-3.1872	RMOD VMOD CONJ
-1.5468	RMOD VMOD COORD
-1.7985	RMOD VMOD DEP
-2.8624	RMOD VMOD DET
-2.4285	RMOD VMOD DIR
-0.6962	RMOD VMOD DOB
-3.4949	RMOD VMOD EXT
-2.5091	RMOD VMOD IOB
-1.5428	RMOD VMOD LOC
-2.5462	RMOD VMOD MNR
-1.7408	RMOD VMOD PMOD
-3.1653	RMOD VMOD PRD
-1.9481	RMOD VMOD PRP
-0.8432	RMOD VMOD RMOD
-2.5804	RMOD VMOD ROOT
-2.4162	RMOD VMOD SUB
-2.1813	RMOD VMOD TMP
-0.7139	RMOD VMOD VMOD
-3.4481	RMOD VMOD VOC
-0.0552	RMOD VOC </s>
-1.5382	RMOD VOC PRD
-1.5151	RMOD VOC VMOD
-0.6235	RMOD X </s>
-0.7418	RMOD X DEP
-1.0327	RMOD X PRP
-0.7864	RMOD X SUB
-0.9428	RMOD X TMP
-0.3056	RMOD XMDP </s>
-0.1170	RMOD XPRD </s>
-1.1109	RMOD XPRD DOB
-0.4124	ROOT AMOD </s>
-1.0278	ROOT AMOD AMOD
-1.5620	ROOT AMOD COORD
-1.2644	ROOT AMOD DEP
-2.3090	ROOT AMOD DIR
-2.1494	ROOT AMOD DOB
-1.4113	ROOT AMOD LOC
-0.8345	ROOT AMOD NMOD
-1.0590	ROOT AMOD PMOD
-1.0729	ROOT AMOD PRD
-2.1281	ROOT AMOD RMOD
-2.1512	ROOT AMOD SUB
-1.5827	ROOT AMOD TMP
-2.2414	ROOT AMOD VMOD
-2.5080	ROOT AMOD XPRD
-0.2164	ROOT COORD </s>
-2.2171	ROOT COORD AMOD
-0.9669	ROOT COORD COORD
-1.0465	ROOT COORD DEP
-1.2973	ROOT COORD DOB
-2.1429	ROOT COORD LOC
-2.3446	ROOT COORD MNR
-2.1342	ROOT COORD PRD
-1.8420	ROOT COORD PRP
-1.5343	ROOT COORD RMOD
-1.4435	ROOT COORD SUB
-1.7871	ROOT COORD VMOD
-2.4325	ROOT COORD X
-0.2605	ROOT DEP </s>
-1.2842	ROOT DEP COORD
-0.4628	ROOT DEP DEP
-2.3784	ROOT DEP PMOD
-2.3811	ROOT DEP POB
-1.9360	ROOT DEP PRD
-2.2974	ROOT DEP SUB
-1.9454	ROOT DEP VMOD
-0.6318	ROOT DET </s>
-0.7169	ROOT DET AMOD
-1.3808	ROOT DET DEP
-1.5496	ROOT DET DOB
-1.6897	ROOT DET MNR
-1.5286	ROOT DET PMOD
-1.6296	ROOT DET PRD
-0.7297	ROOT DET RMOD
-1.4315	ROOT DET SUB
-1.1732	ROOT DET TMP
-1.7696	ROOT DET VOC
-0.4227	ROOT DIR </s>
-1.5267	ROOT DIR COORD
-1.3648	ROOT DIR DEP
-1.6309	ROOT DIR DOB
-1.7435	ROOT DIR MNR
-1.3906	ROOT DIR PMOD
-1.9140	ROOT DIR PRD
-1.4376	ROOT DIR PRP
-1.0918	ROOT DIR SUB
-1.6838	ROOT DIR TMP
-0.6128	ROOT DIR VMOD
-1.7449	ROOT DIR VOC
-0.3895	ROOT DOB </s>
-3.6601	ROOT DOB CND
-1.0053	ROOT DOB COORD
-1.0484	ROOT DOB DEP
-3.1506	ROOT DOB DET
-2.1033	ROOT DOB DIR
-2.9179	ROOT DOB DOB
-2.8910	ROOT DOB EXT
-1.3930	ROOT DOB IOB
-1.7055	ROOT DOB LOC
-2.1414	ROOT DOB MNR
-1.9352	ROOT DOB PMOD
-2.2329	ROOT DOB PRD
-1.4229	ROOT DOB PRP
-1.3126	ROOT DOB RMOD
-1.4589	ROOT DOB SUB
-1.7250	ROOT DOB TMP
-0.7781	ROOT DOB VMOD
-3.6098	ROOT DOB X
-0.6391	ROOT EXT </s>
-0.9613	ROOT EXT DEP
-0.9359	ROOT EXT RMOD
-0.9371	ROOT EXT TMP
-0.9371	ROOT EXT VMOD
-1.1155	ROOT IOB </s>
-1.2260	ROOT IOB COORD
-0.1710	ROOT IOB DOB
-1.7442	ROOT IOB MNR
-1.6471	ROOT IOB PMOD
-1.7959	ROOT IOB PRD
-1.5752	ROOT IOB PRP
-1.5702	ROOT IOB RMOD
-0.4844	ROOT LOC </s>
-1.0827	ROOT LOC COORD
-1.2263	ROOT LOC DEP
-2.5559	ROOT LOC DIR
-1.7158	ROOT LOC DOB
-2.7373	ROOT LOC EXT
-2.0662	ROOT LOC LOC
-1.8157	ROOT LOC MNR
-1.9911	ROOT LOC PMOD
-1.8356	ROOT LOC PRD
-1.1896	ROOT LOC PRP
-1.2772	ROOT LOC RMOD
-1.0607	ROOT LOC SUB
-1.2252	ROOT LOC TMP
-0.7351	ROOT LOC VMOD
-2.8936	ROOT LOC XPRD
-0.4082	ROOT MNR </s>
-0.8679	ROOT MNR COORD
-1.3290	ROOT MNR DEP
-1.0320	ROOT MNR DOB
-2.0825	ROOT MNR IOB
-1.1238	ROOT MNR LOC
-1.8988	ROOT MNR MNR
-1.6382	ROOT MNR RMOD
-1.6881	ROOT MNR SUB
-1.6392	ROOT MNR TMP
-0.9116	ROOT MNR VMOD
-0.5519	ROOT NMOD </s>
-0.7221	ROOT NMOD AMOD
-1.7576	ROOT NMOD COORD
-1.2297	ROOT NMOD DEP
-1.9375	ROOT NMOD DET
-2.2517	ROOT NMOD DIR
-1.0818	ROOT NMOD LOC
-0.7693	ROOT NMOD NMOD
-1.1951	ROOT NMOD PMOD
-1.1340	ROOT NMOD PRD
-1.6266	ROOT NMOD TMP
-2.4528	ROOT NMOD X
-0.3884	ROOT PMOD </s>
-2.2703	ROOT PMOD AMOD
-1.0570	ROOT PMOD COORD
-1.0995	ROOT PMOD DEP
-2.5024	ROOT PMOD DET
-1.4296	ROOT PMOD DOB
-2.8122	ROOT PMOD EXT
-2.1192	ROOT PMOD LOC
-1.9140	ROOT PMOD MNR
-1.6444	ROOT PMOD PMOD
-1.9136	ROOT PMOD PRD
-1.6143	ROOT PMOD PRP
-1.4491	ROOT PMOD RMOD
-0.9974	ROOT PMOD SUB
-1.6060	ROOT PMOD TMP
-0.8804	ROOT PMOD VMOD
-0.1300	ROOT POB </s>
-1.4565	ROOT POB DEP
-0.9119	ROOT POB PMOD
-0.2383	ROOT PRD </s>
-1.2554	ROOT PRD COORD
-0.5391	ROOT PRD DEP
-1.7288	ROOT PRD PRD
-0.1747	ROOT PRP </s>
-1.0367	ROOT PRP COORD
-0.9989	ROOT PRP DEP
-1.9420	ROOT PRP LOC
-2.0438	ROOT PRP PMOD
-1.9609	ROOT PRP PRP
-2.1163	ROOT PRP RMOD
-1.7204	ROOT PRP SUB
-2.0907	ROOT PRP TMP
-1.3230	ROOT PRP VMOD
-2.4022	ROOT PRP VOC
-0.6150	ROOT RMOD </s>
-2.6766	ROOT RMOD AMOD
-3.5948	ROOT RMOD CND
-1.2356	ROOT RMOD COORD
-1.0977	ROOT RMOD DEP
-3.2366	ROOT RMOD DET
-2.4456	ROOT RMOD DIR
-0.7888	ROOT RMOD DOB
-3.4240	ROOT RMOD EXT
-2.9484	ROOT RMOD IOB
-1.2692	ROOT RMOD LOC
-2.0340	ROOT RMOD MNR
-1.5189	ROOT RMOD PMOD
-2.1512	ROOT RMOD PRD
-1.6221	ROOT RMOD PRP
-0.9983	ROOT RMOD RMOD
-1.2112	ROOT RMOD SUB
-1.5853	ROOT RMOD TMP
-3.3360	ROOT RMOD TPC
-0.8727	ROOT RMOD VMOD
-3.2404	ROOT RMOD VOC
-3.5683	ROOT RMOD X
-1.7201	ROOT SUB </s>
-1.6728	ROOT SUB DEP
-0.9213	ROOT SUB PRD
-0.1135	ROOT SUB VMOD
-0.3416	ROOT TMP </s>
-1.0503	ROOT TMP COORD
-1.0467	ROOT TMP DEP
-2.2107	ROOT TMP DOB
-1.9041	ROOT TMP EXT
-1.8086	ROOT TMP LOC
-2.1894	ROOT TMP PMOD
-1.7156	ROOT TMP PRD
-1.7008	ROOT TMP PRP
-1.4993	ROOT TMP RMOD
-1.0421	ROOT TMP SUB
-1.3038	ROOT TMP TMP
-1.0232	ROOT TMP VMOD
-0.2527	ROOT VMOD </s>
-3.4293	ROOT VMOD AMOD
-1.0492	ROOT VMOD COORD
-1.1119	ROOT VMOD DEP
-3.5490	ROOT VMOD DET
-3.4737	ROOT VMOD DIR
-1.2890	ROOT VMOD DOB
-3.0645	ROOT VMOD EXT
-1.9658	ROOT VMOD LOC
-2.6017	ROOT VMOD MNR
-2.2986	ROOT VMOD PMOD
-2.1883	ROOT VMOD PRD
-2.0150	ROOT VMOD PRP
-1.5209	ROOT VMOD RMOD
-1.6386	ROOT VMOD SUB
-2.1165	ROOT VMOD TMP
-0.9020	ROOT VMOD VMOD
-3.6110	ROOT VMOD VOC
-0.1550	ROOT VOC </s>
-0.3094	ROOT X VMOD
-0.4925	ROOT XPRD </s>
-0.4148	ROOT XPRD DEP
-0.2822	SUB AMOD </s>
-1.2281	SUB AMOD AMOD
-2.0991	SUB AMOD COORD
-2.7500	SUB AMOD DEP
-1.7880	SUB AMOD DET
-2.8755	SUB AMOD DIR
-1.2126	SUB AMOD DOB
-2.8880	SUB AMOD IOB
-1.5614	SUB AMOD LOC
-2.7529	SUB AMOD MNR
-1.1291	SUB AMOD NMOD
-1.2526	SUB AMOD PMOD
-2.1542	SUB AMOD PRP
-1.1494	SUB AMOD RMOD
-3.6150	SUB AMOD ROOT
-1.8352	SUB AMOD TMP
-1.1220	SUB AMOD VMOD
-0.6808	SUB CNC DOB
-0.6799	SUB CNC RMOD
-0.7164	SUB CNC VMOD
-0.7833	SUB CND </s>
-0.9887	SUB CND DEP
-1.1814	SUB CND DOB
-1.4680	SUB CND LOC
-1.4631	SUB CND PMOD
-0.5021	SUB CND RMOD
-0.8041	SUB CND VMOD
-1.0982	SUB CONJ </s>
-1.8510	SUB CONJ COORD
-2.7231	SUB CONJ DEP
-2.5350	SUB CONJ DIR
-0.5932	SUB CONJ DOB
-2.7713	SUB CONJ IOB
-1.5728	SUB CONJ LOC
-2.6741	SUB CONJ MNR
-1.7981	SUB CONJ PMOD
-2.7431	SUB CONJ PRD
-2.0190	SUB CONJ PRP
-0.6512	SUB CONJ RMOD
-1.8802	SUB CONJ TMP
-0.4618	SUB CONJ VMOD
-0.1082	SUB COORD </s>
-1.9741	SUB COORD AMOD
-1.7099	SUB COORD COORD
-1.8297	SUB COORD DEP
-1.9084	SUB COORD LOC
-1.8281	SUB COORD NMOD
-1.8083	SUB COORD PMOD
-2.0528	SUB COORD PRD
-1.5015	SUB COORD RMOD
-1.4374	SUB COORD ROOT
-1.7987	SUB COORD SUB
-0.8578	SUB DEP </s>
-2.6187	SUB DEP AMOD
-2.1216	SUB DEP CONJ
-1.7952	SUB DEP COORD
-1.7597	SUB DEP DEP
-3.1566	SUB DEP DET
-0.7165	SUB DEP DOB
-3.1665	SUB DEP EXT
-2.3929	SUB DEP IOB
-1.5656	SUB DEP LOC
-2.1671	SUB DEP MNR
-3.2769	SUB DEP NMOD
-1.7279	SUB DEP PMOD
-2.9837	SUB DEP POB
-2.3182	SUB DEP PRD
-1.9835	SUB DEP PRP
-0.5632	SUB DEP RMOD
-1.4286	SUB DEP ROOT
-2.4378	SUB DEP SUB
-1.8278	SUB DEP TMP
-0.6568	SUB DEP VMOD
-0.0461	SUB DET </s>
-1.7553	SUB DET AMOD
-2.4628	SUB DET DET
-1.3304	SUB DET NMOD
-2.1264	SUB DET PMOD
-2.3759	SUB DET RMOD
-2.4310	SUB DET ROOT
-2.5581	SUB DET TMP
-2.6057	SUB DET VMOD
-0.2534	SUB DIR </s>
-0.8081	SUB DOB </s>
-2.4028	SUB DOB AMOD
-1.6424	SUB DOB COORD
-0.5645	SUB DOB DOB
-1.3686	SUB DOB LOC
-1.9023	SUB DOB MNR
-1.5634	SUB DOB PMOD
-1.7497	SUB DOB PRP
-0.6320	SUB DOB RMOD
-1.9087	SUB DOB TMP
-0.7494	SUB DOB VMOD
-0.3540	SUB EXT ROOT
-0.2943	SUB IOB VMOD
-0.0941	SUB LOC </s>
-1.3671	SUB LOC AMOD
-1.7768	SUB LOC COORD
-2.0200	SUB LOC DEP
-2.0512	SUB LOC NMOD
-2.1068	SUB LOC PRP
-2.1350	SUB LOC RMOD
-1.3764	SUB LOC ROOT
-1.5107	SUB LOC VMOD
-0.5262	SUB MNR </s>
-0.8502	SUB MNR RMOD
-0.9252	SUB MNR ROOT
-1.0408	SUB MNR TMP
-0.2154	SUB NMOD </s>
-0.9083	SUB NMOD AMOD
-2.0745	SUB NMOD COORD
-1.6886	SUB NMOD DET
-3.2279	SUB NMOD DOB
-1.6092	SUB NMOD LOC
-3.2454	SUB NMOD MNR
-0.7483	SUB NMOD NMOD
-1.5631	SUB NMOD PMOD
-3.0099	SUB NMOD PRP
-3.0170	SUB NMOD RMOD
-2.3663	SUB NMOD TMP
-0.0451	SUB PMOD </s>
-1.8901	SUB PMOD AMOD
-2.3737	SUB PMOD DEP
-2.4884	SUB PMOD DET
-2.2771	SUB PMOD LOC
-2.1122	SUB PMOD NMOD
-1.6786	SUB PMOD PMOD
-2.3976	SUB PMOD PRP
-2.0338	SUB PMOD RMOD
-1.9663	SUB PMOD ROOT
-2.2319	SUB PMOD TMP
-0.0499	SUB POB </s>
-1.2538	SUB POB PMOD
-2.0347	SUB POB POB
-2.0704	SUB POB RMOD
-2.0318	SUB POB VMOD
-0.5270	SUB PRD </s>
-1.6079	SUB PRD AMOD
-2.0752	SUB PRD CONJ
-1.7520	SUB PRD COORD
-0.5661	SUB PRD DEP
-1.6564	SUB PRD DOB
-2.3126	SUB PRD NMOD
-2.2606	SUB PRD PMOD
-1.9080	SUB PRD PRD
-0.8518	SUB PRD RMOD
-0.9379	SUB PRD ROOT
-1.7499	SUB PRD SUB
-1.9440	SUB PRD TMP
-1.4132	SUB PRD VMOD
-2.5556	SUB PRD VOC
-0.5700	SUB PRP </s>
-1.6034	SUB PRP COORD
-1.2098	SUB PRP DEP
-0.9870	SUB PRP DOB
-0.4200	SUB PRP RMOD
-1.6591	SUB PRP TMP
-1.2417	SUB PRP VMOD
-2.0358	SUB RMOD </s>
-1.2920	SUB RMOD AMOD
-3.7383	SUB RMOD CNC
-2.6731	SUB RMOD CND
-1.1566	SUB RMOD CONJ
-2.9170	SUB RMOD COORD
-0.9032	SUB RMOD DEP
-3.5653	SUB RMOD DET
-1.8155	SUB RMOD DOB
-3.5979	SUB RMOD EXT
-3.4810	SUB RMOD IOB
-2.9263	SUB RMOD LOC
-3.1440	SUB RMOD MNR
-3.3261	SUB RMOD NMOD
-2.9354	SUB RMOD PMOD
-2.8953	SUB RMOD PRD
-2.7597	SUB RMOD PRP
-0.8286	SUB RMOD RMOD
-0.3273	SUB RMOD ROOT
-3.4661	SUB RMOD SUB
-2.9400	SUB RMOD TMP
-1.0093	SUB RMOD VMOD
-1.8674	SUB ROOT </s>
-3.1885	SUB ROOT AMOD
-1.8118	SUB ROOT COORD
-1.7641	SUB ROOT DEP
-3.1394	SUB ROOT DET
-2.1896	SUB ROOT DIR
-0.5694	SUB ROOT DOB
-3.6107	SUB ROOT EXT
-2.3661	SUB ROOT IOB
-1.3839	SUB ROOT LOC
-2.1248	SUB ROOT MNR
-1.5351	SUB ROOT PMOD
-2.9190	SUB ROOT PRD
-1.9356	SUB ROOT PRP
-0.6403	SUB ROOT RMOD
-1.7484	SUB ROOT TMP
-0.4766	SUB ROOT VMOD
-0.4695	SUB SUB RMOD
-0.3267	SUB SUB ROOT
-1.2998	SUB SUB VMOD
-1.1100	SUB TMP </s>
-1.8090	SUB TMP AMOD
-1.8780	SUB TMP CONJ
-1.1450	SUB TMP DEP
-2.3211	SUB TMP DOB
-2.2237	SUB TMP LOC
-2.3502	SUB TMP NMOD
-2.1658	SUB TMP PMOD
-1.7031	SUB TMP PRD
-0.3109	SUB TMP RMOD
-0.6581	SUB TMP ROOT
-2.1548	SUB TMP SUB
-2.5405	SUB TMP TPC
-1.3583	SUB TMP VMOD
-0.7077	SUB TPC RMOD
-0.7511	SUB TPC ROOT
-0.7451	SUB TPC VMOD
-0.4745	SUB VMOD </s>
-2.9859	SUB VMOD AMOD
-1.6983	SUB VMOD COORD
-1.5493	SUB VMOD DEP
-2.2405	SUB VMOD DIR
-0.8048	SUB VMOD DOB
-3.2502	SUB VMOD EXT
-2.2383	SUB VMOD IOB
-1.4655	SUB VMOD LOC
-2.0511	SUB VMOD MNR
-1.5994	SUB VMOD PMOD
-3.1866	SUB VMOD PRD
-1.8707	SUB VMOD PRP
-0.7394	SUB VMOD RMOD
-2.8892	SUB VMOD ROOT
-2.5466	SUB VMOD SUB
-1.8211	SUB VMOD TMP
-0.7902	SUB VMOD VMOD
-0.1550	SUB VOC </s>
-0.4237	SUB X </s>
-0.8179	SUB X TMP
-0.8179	SUB X VMOD
-0.3058	SUB XMDP RMOD
-0.4224	SUB XPRD </s>
-0.8392	SUB XPRD DEP
-0.8818	SUB XPRD PRD
-1.0334	SUB XPRD TMP
-1.0841	SUB XPRD VMOD
-0.2863	SUB XTMP </s>
-0.0373	TMP AMOD </s>
-1.3834	TMP AMOD AMOD
-2.2476	TMP AMOD DET
-2.6020	TMP AMOD DOB
-2.9548	TMP AMOD LOC
-1.7589	TMP AMOD NMOD
-2.2296	TMP AMOD PMOD
-3.0133	TMP AMOD PRD
-2.9508	TMP AMOD RMOD
-2.8550	TMP AMOD TMP
-2.8844	TMP AMOD VMOD
-0.2283	TMP CND DEP
-0.9968	TMP CONJ DIR
-0.4920	TMP CONJ DOB
-1.0943	TMP CONJ RMOD
-0.6624	TMP CONJ VMOD
-0.1981	TMP COORD </s>
-1.5564	TMP COORD COORD
-1.2205	TMP COORD DEP
-2.1364	TMP COORD MNR
-2.2007	TMP COORD POB
-1.8815	TMP COORD RMOD
-1.9581	TMP COORD ROOT
-0.8321	TMP COORD SUB
-1.5970	TMP COORD TMP
-1.5712	TMP COORD VMOD
-0.6440	TMP DEP </s>
-2.2637	TMP DEP COORD
-1.3971	TMP DEP DEP
-1.5125	TMP DEP DOB
-1.9595	TMP DEP LOC
-2.6411	TMP DEP MNR
-1.7384	TMP DEP PMOD
-1.1374	TMP DEP POB
-2.2168	TMP DEP PRD
-1.2919	TMP DEP RMOD
-1.6201	TMP DEP ROOT
-0.3464	TMP DEP SUB
-1.9043	TMP DEP TMP
-2.3883	TMP DEP TPC
-1.5038	TMP DEP VMOD
-2.7578	TMP DEP XPRD
-0.1361	TMP DET </s>
-1.8726	TMP DET AMOD
-2.7123	TMP DET COORD
-0.7153	TMP DET DET
-2.8296	TMP DET LOC
-1.3397	TMP DET NMOD
-2.7588	TMP DET PMOD
-2.8837	TMP DET POB
-2.8623	TMP DET ROOT
-2.8018	TMP DET TMP
-2.8508	TMP DET VMOD
-0.2534	TMP DIR </s>
-0.0973	TMP DOB </s>
-1.5887	TMP DOB DEP
-1.3612	TMP DOB DOB
-1.5527	TMP DOB VMOD
-0.1698	TMP EXT </s>
-1.5153	TMP EXT LOC
-0.9436	TMP EXT SUB
-1.2626	TMP EXT TMP
-0.3795	TMP LOC </s>
-1.9813	TMP LOC AMOD
-1.8812	TMP LOC COORD
-1.7790	TMP LOC DEP
-2.0510	TMP LOC DOB
-1.8147	TMP LOC MNR
-1.8455	TMP LOC PRP
-1.0254	TMP LOC RMOD
-1.2464	TMP LOC ROOT
-0.5883	TMP LOC SUB
-1.7665	TMP LOC TMP
-1.3991	TMP LOC VMOD
-0.7627	TMP MNR </s>
-1.4942	TMP MNR DEP
-1.5235	TMP MNR NMOD
-0.2506	TMP MNR SUB
-1.4179	TMP MNR TMP
-1.5561	TMP MNR TPC
-0.1053	TMP NMOD </s>
-1.2736	TMP NMOD AMOD
-2.2025	TMP NMOD COORD
-1.2598	TMP NMOD DET
-1.1325	TMP NMOD NMOD
-1.9341	TMP NMOD PMOD
-2.6172	TMP NMOD PRP
-2.6349	TMP NMOD RMOD
-2.4332	TMP NMOD TMP
-0.0810	TMP PMOD </s>
-1.7181	TMP PMOD AMOD
-1.8770	TMP PMOD DEP
-1.9672	TMP PMOD DET
-1.9125	TMP PMOD LOC
-1.8215	TMP PMOD PMOD
-1.4969	TMP PMOD SUB
-1.7062	TMP PMOD TMP
-0.0258	TMP POB </s>
-3.0114	TMP POB COORD
-2.4786	TMP POB DEP
-1.3834	TMP POB PMOD
-2.0664	TMP POB POB
-3.1009	TMP POB RMOD
-0.2379	TMP PRD </s>
-1.4589	TMP PRD AMOD
-0.8118	TMP PRD DEP
-1.2588	TMP PRD RMOD
-1.2448	TMP PRD VMOD
-0.1904	TMP PRP </s>
-1.7848	TMP PRP AMOD
-1.1007	TMP PRP DEP
-1.7331	TMP PRP LOC
-0.7577	TMP PRP SUB
-0.4337	TMP RMOD </s>
-1.7397	TMP RMOD AMOD
