[n]
3

[smoother]
kylm.model.ngram.smoother.MKNSmoother

[closed]
true

[max_length]
116

[vocab_cutoff]
0

[start_symbol]
<s>

[terminal_symbol]
</s>

[unknown_symbol]
<unk>

\data\
ngram 1=1073
ngram 2=3809
ngram 3=4519
\1-grams: 
-99.0000	<s>	-0.2073
-1.4018	</s>
-3.2798	*	-0.1925
-2.6777	-	-0.0825
-3.5808	000	-0.0825
-3.5808	1	-0.0825
-2.8818	10	-0.1469
-3.1037	100	-0.0825
-3.2798	105	-0.1925
-3.5808	11	-0.0825
-3.5808	12	-0.0825
-3.5808	13/10	-0.0825
-3.5808	14	-0.0825
-3.5808	15	-0.0825
-3.1037	15/10	-0.1340
-3.5808	15/4/2014	-0.0825
-3.5808	15/8	-0.0825
-3.5808	15/9	-0.0825
-3.5808	16	-0.0825
-3.2798	16/10	-0.1527
-3.5808	17	-0.0825
-2.9788	18	-0.3475
-2.8027	2	-0.1162
-3.5808	2/2014	-0.0825
-3.5808	2/9…	-0.0825
-3.5808	20/8	-0.0825
-3.5808	2008	-0.0825
-3.5808	2010-2013	-0.0825
-3.5808	2012	-0.0825
-3.5808	2013	-0.0825
-3.5808	2015	-0.0825
-2.9788	21	-0.1831
-3.5808	22/8	-0.0825
-3.2798	26	-0.0825
-3.5808	28	-0.0825
-2.8027	3	-0.0825
-3.5808	30	-0.0825
-3.5808	32	-0.0825
-3.5808	37	-0.0825
-2.8027	4	-0.0825
-3.5808	4/10	-0.0825
-3.5808	4/11/2013	-0.0825
-3.5808	4/2014	-0.0825
-3.5808	40	-0.0825
-3.1037	5	-0.0825
-3.5808	500	-0.0825
-3.5808	53	-0.0825
-3.1037	550	-0.2225
-3.5808	56	-0.0825
-3.5808	59	-0.0825
-3.1037	6	-0.1527
-3.5808	63	-0.0825
-3.5808	65	-0.0825
-3.5808	69	-0.0825
-3.5808	6s	-0.0825
-3.2798	7	-0.0825
-3.1037	7,2	-0.2225
-3.5808	7,5	-0.0825
-3.5808	7/2013	-0.0825
-3.5808	700	-0.0825
-3.1037	8	-0.0825
-3.5808	8/2003	-0.0825
-3.2798	800	-0.0825
-3.5808	9	-0.0825
-3.5808	9,3	-0.0825
-3.5808	a	-0.0825
-3.2798	ai	-0.0825
-2.8818	alfred	-0.4444
-3.1037	an	-0.1075
-2.8027	anh	-0.1112
-3.5808	atm	-0.0825
-2.6266	axit	-0.0929
-3.5808	bailey	-0.0825
-3.2798	ban	-0.0825
-3.5808	bao	-0.0825
-3.5808	bay	-0.0825
-3.5808	bi	-0.0825
-3.5808	binh	-0.0825
-3.1037	biên	-0.1681
-2.9788	biết	-0.1194
-3.5808	biệt	-0.0825
-3.5808	buồn	-0.0825
-3.5808	buồng	-0.0825
-3.5808	buộc	-0.0825
-2.8818	bà	-0.1579
-3.2798	bài	-0.0825
-3.5808	bàng…	-0.0825
-3.5808	bày	-0.0825
-2.9788	bác	-0.1831
-3.2798	bám	-0.1925
-2.9788	bán	-0.1340
-2.8818	báo	-0.0825
-3.5808	bè	-0.0825
-2.8818	bên	-0.1232
-2.6266	bình	-0.1232
-3.2798	bước	-0.0825
-3.1037	bạc	-0.0825
-2.3504	bạn	-0.1165
-3.5808	bản	-0.0825
-3.5808	bảng	-0.0825
-2.8818	bảo	-0.1162
-3.1037	bất	-0.2225
-3.5808	bẫy	-0.0825
-3.1037	bắc	-0.1527
-3.5808	bắn	-0.0825
-2.8027	bắt	-0.0825
-3.1037	bằng	-0.1340
-3.5808	bẵng	-0.0825
-3.5808	bẽ	-0.0825
-2.2586	bệnh	-0.6022
-2.0367	bị	-0.1688
-3.5808	bọn	-0.0825
-2.8818	bỏ	-0.1681
-3.5808	bỏng	-0.0825
-3.5808	bốc	-0.0825
-3.2798	bốn	-0.1527
-2.4669	bồi	-0.8593
-2.4347	bộ	-0.1613
-3.5808	bởi	-0.0825
-3.1037	ca	-0.0825
-3.2798	camera	-0.0825
-3.2798	campuchia	-0.0825
-2.9788	can	-0.1047
-2.8027	cao	-0.1024
-3.1037	cha	-0.0825
-3.5808	chai	-0.0825
-3.5808	che	-0.0825
-2.9788	chi	-0.3475
-2.8818	chia	-0.4444
-3.5808	chiêm	-0.0825
-2.8027	chiếc	-0.1162
-3.1037	chiếm	-0.2225
-3.2798	chiến	-0.0825
-3.5808	chiếu	-0.0825
-3.1037	chiều	-0.0825
-2.0757	cho	-0.2497
-3.5808	choạng	-0.0825
-2.5394	chung	-0.1162
-3.5808	chuyên	-0.0825
-2.7357	chuyển	-0.0825
-2.9788	chuyện	-0.0825
-3.2798	chuẩn	-0.0825
-3.5808	chuộc	-0.0825
-3.5808	chánh	-0.0825
-3.2798	cháy	-0.0825
-3.2798	chân	-0.0825
-2.8818	chính	-0.0825
-3.5808	chóng	-0.0825
-2.7357	chúng	-0.1371
-3.1037	chăm	-0.2225
-2.7357	chưa	-0.1112
-3.5808	chạy	-0.0825
-3.2798	chấn	-0.1006
-3.5808	chấp	-0.0825
-3.5808	chất	-0.0825
-3.5808	chặn	-0.0825
-3.2798	chế	-0.0825
-2.8027	chỉ	-0.1162
-2.6266	chị	-0.1232
-3.2798	chịu	-0.0825
-2.9788	chồng	-0.0825
-2.8818	chờ	-0.0825
-2.8027	chở	-0.1162
-3.1037	chợ	-0.1527
-3.5808	chục	-0.0825
-2.6777	chủ	-0.1340
-3.5808	chứ	-0.0825
-3.1037	chức	-0.0825
-3.1037	chứng	-0.0825
-3.5808	clip	-0.0825
-3.5808	co	-0.0825
-2.7357	con	-0.0825
-3.5808	csđt	-0.0825
-3.1037	cung	-0.1527
-2.9788	cuối	-0.1340
-3.5808	cuống	-0.0825
-2.8818	cuộc	-0.0825
-2.3255	các	-0.1428
-3.2798	cách	-0.0825
-3.2798	cái	-0.0825
-2.8818	cán	-0.4444
-2.8818	cáo	-0.0825
-3.5808	câu	-0.0825
-2.7357	còn	-0.0825
-2.2191	có	-0.1123
-2.4347	cô	-0.2282
-2.3504	công	-0.3074
-3.5808	cô…	-0.0825
-2.5808	cùng	-0.0825
-3.2798	căn	-0.0825
-2.9788	cũ	-0.1232
-2.5808	cũng	-0.1417
-2.6777	cơ	-0.3651
-3.1037	cư	-0.0825
-3.5808	cưới	-0.0825
-3.5808	cướp	-0.0825
-3.5808	cười	-0.0825
-3.5808	cường	-0.0825
-2.6266	cả	-0.1811
-3.1037	cảm	-0.0825
-3.5808	cảng	-0.0825
-2.4347	cảnh	-0.3055
-2.4669	cấp	-0.1933
-3.5808	cất	-0.0825
-2.8818	cầm	-0.1162
-3.5808	cần	-0.0825
-3.1037	cầu	-0.0825
-3.5808	cầuai	-0.0825
-3.5808	cập	-0.0825
-2.7357	cậu	-0.1995
-3.5808	cắp	-0.0825
-3.5808	cắt	-0.0825
-3.5808	cặp	-0.0825
-3.5808	cố	-0.0825
-3.5808	cối	-0.0825
-3.5808	cốt	-0.0825
-3.2798	cổ	-0.0825
-3.2798	cổng	-0.1925
-3.5808	cổ…	-0.0825
-3.5808	cộng	-0.0825
-3.5808	cụ	-0.0825
-2.7357	cục	-0.2278
-2.0245	của	-0.1523
-3.2798	cứu	-0.0825
-3.5808	cứu là bùi	-0.0825
-3.5808	cử	-0.0825
-3.1037	cửa	-0.0825
-3.2798	cựu	-0.0825
-3.2798	danh	-0.0825
-3.2798	dao	-0.0825
-3.1037	di	-0.0825
-3.1037	diện	-0.0825
-2.7357	do	-0.0825
-2.7357	donald	-0.2139
-3.1037	doạ	-0.0825
-3.2798	dung	-0.0825
-3.5808	duy	-0.0825
-2.9788	duyên	-0.0825
-3.5808	dài	-0.0825
-3.5808	dán	-0.0825
-3.1037	dân	-0.1527
-3.5808	dây	-0.0825
-3.5808	dép	-0.0825
-3.5808	dò	-0.0825
-3.5808	dù	-0.0825
-3.1037	dùng	-0.0825
-3.1037	dũng	-0.0825
-3.5808	dư	-0.0825
-3.5808	dương	-0.0825
-3.5808	dưới	-0.0825
-3.5808	dường	-0.0825
-3.5808	dưỡng	-0.0825
-3.5808	dạ	-0.0825
-3.5808	dạng	-0.0825
-3.2798	dẫn	-0.0825
-3.5808	dắt	-0.0825
-3.2798	dịch	-0.0825
-3.5808	dịp	-0.0825
-3.5808	dọa	-0.0825
-3.5808	dỗ	-0.0825
-3.5808	dụ	-0.0825
-3.5808	dụng	-0.0825
-3.2798	dự	-0.0825
-3.5808	dựng	-0.0825
-2.5394	em	-0.1194
-2.8818	facebook	-0.0825
-3.5808	facebook…	-0.0825
-3.5808	file	-0.0825
-3.5808	ghen	-0.0825
-2.8027	gia	-0.2719
-3.2798	giam	-0.0825
-3.5808	gian	-0.0825
-3.5808	giang	-0.0825
-2.9788	giao	-0.1340
-2.7357	giá	-0.1831
-3.2798	giác	-0.1925
-3.1037	giúp	-0.0825
-3.5808	giường	-0.0825
-3.1037	giả	-0.0825
-2.7357	giải	-0.3071
-3.2798	giấu	-0.0825
-2.9788	giết	-0.1340
-3.1037	giới	-0.0825
-3.2798	giờ	-0.0825
-2.9788	giữ	-0.1162
-3.2798	giữa	-0.0825
-3.1037	gái	-0.0825
-3.5808	gánh	-0.0825
-3.1037	gây	-0.0825
-3.2798	gã	-0.1925
-3.2798	gì	-0.0825
-3.5808	gòn	-0.0825
-3.5808	gõ	-0.0825
-3.5808	gạt	-0.0825
-3.5808	gấp…	-0.0825
-2.6266	gần	-0.1280
-3.5808	gầy	-0.0825
-2.7357	gặp	-0.1112
-2.9788	gọi	-0.0825
-3.2798	gồm	-0.0825
-3.5808	gộc	-0.0825
-3.5808	gỡ	-0.0825
-2.7357	gửi	-0.0825
-2.4669	hai	-0.1697
-3.5808	ham	-0.0825
-3.1037	hay	-0.0825
-3.5808	hcm	-0.0825
-3.5808	hiếp	-0.0825
-3.5808	hiếuôtô	-0.0825
-2.8818	hiện	-0.0825
-3.2798	hiệu	-0.0825
-3.5808	hoa	-0.0825
-3.2798	hoan	-0.0825
-3.5808	hoe	-0.0825
-3.2798	hoàn	-0.0825
-3.1037	hoàng	-0.0825
-3.5808	hoành	-0.0825
-3.5808	hoạch	-0.0825
-3.5808	hoạn	-0.0825
-3.2798	hoảng	-0.0825
-3.5808	hoặc	-0.0825
-3.1037	hung	-0.1527
-2.9788	huyện	-0.1340
-3.5808	huânkẻ	-0.0825
-3.5808	huỷ	-0.0825
-2.3255	hà	-0.1451
-2.7357	hài	-0.5905
-3.5808	hàm	-0.0825
-2.3767	hàng	-0.1035
-2.6777	hành	-0.3111
-3.5808	hào	-0.0825
-3.5808	hét	-0.0825
-2.8027	hình	-0.0825
-3.2798	hóa	-0.0825
-2.8818	hôm	-0.1681
-3.2798	hôn	-0.0825
-3.2798	hăm	-0.0825
-3.5808	hđxx	-0.0825
-2.5016	hơn	-0.1340
-3.5808	hư	-0.0825
-2.9788	hưng	-0.0825
-3.5808	hương	-0.0825
-3.5808	hướng	-0.0825
-3.2798	hại	-0.0825
-3.5808	hạn	-0.0825
-2.8027	hải	-0.3592
-3.5808	hầm	-0.0825
-3.2798	hầu	-0.0825
-3.2798	hận	-0.0825
-3.5808	hậu	-0.0825
-3.2798	hẹn	-0.0825
-3.1037	hết	-0.0825
-3.2798	hệ	-0.0825
-2.8818	họ	-0.0825
-3.2798	học	-0.0825
-3.5808	họp	-0.0825
-3.5808	hỏa	-0.0825
-3.2798	hỏi	-0.0825
-3.5808	hỏng	-0.0825
-3.5808	hốt	-0.0825
-3.5808	hồ	-0.0825
-3.5808	hồi	-0.0825
-3.5808	hồng	-0.0825
-3.5808	hổ	-0.0825
-3.1037	hỗn	-0.2225
-3.5808	hộ	-0.0825
-3.2798	hội	-0.0825
-3.5808	hộp	-0.0825
-3.5808	hờ	-0.0825
-3.5808	hợp	-0.0825
-3.5808	hủy	-0.0825
-2.8818	hứa	-0.1681
-3.1037	iphone	-0.1862
-3.5808	jack	-0.0825
-2.8027	khai	-0.0825
-3.5808	khanh”	-0.0825
-2.4347	khi	-0.1144
-3.5808	khiêm	-0.0825
-3.2798	khiến	-0.0825
-3.1037	khoa	-0.0825
-3.2798	khoe	-0.0825
-3.5808	khoá	-0.0825
-3.5808	khoác	-0.0825
-3.5808	khoản	-0.0825
-3.2798	khoảng	-0.0825
-3.5808	khu	-0.0825
-3.5808	khuyên	-0.0825
-3.5808	khuyến	-0.0825
-3.5808	khuẩn	-0.0825
-3.1037	khác	-0.0825
-3.5808	khâu	-0.0825
-3.5808	khí	-0.0825
-3.2798	khó	-0.1925
-2.2798	không	-0.1237
-3.5808	khăn	-0.0825
-3.2798	khả	-0.0825
-3.5808	khẩu	-0.0825
-3.5808	khẳng	-0.0825
-3.5808	khỏe	-0.0825
-3.5808	khỏi	-0.0825
-3.2798	khởi	-0.1925
-3.5808	kia	-0.0825
-3.5808	kim	-0.0825
-3.5808	kinh	-0.0825
-3.5808	kiêm	-0.0825
-3.1037	kiếm	-0.0825
-3.5808	kiến	-0.0825
-3.2798	kiểm	-0.1925
-3.2798	kiện	-0.0825
-3.5808	kon	-0.0825
-3.5808	kèm	-0.0825
-3.1037	kéo	-0.0825
-2.8818	kêu	-0.1610
-3.5808	ký	-0.0825
-3.2798	kẻ	-0.0825
-3.1037	kế	-0.1527
-2.8818	kết	-0.1232
-3.5808	kề	-0.0825
-3.2798	kể	-0.0825
-3.2798	kịp	-0.0825
-3.5808	kỹ	-0.0825
-2.9788	la	-0.0825
-3.5808	lai	-0.0825
-2.5394	lan	-0.1135
-3.2798	lao	-0.0825
-3.5808	laptop	-0.0825
-3.5808	lay	-0.0825
-3.5808	leo	-0.0825
-2.5394	liên	-0.1273
-2.8818	liệt	-0.4444
-3.5808	lo	-0.0825
-3.5808	loanh	-0.0825
-3.2798	long	-0.0825
-3.5808	loại	-0.0825
-3.2798	loạn	-0.0825
-3.2798	loạng	-0.1925
-3.5808	loạt	-0.0825
-3.5808	luôn	-0.0825
-3.1037	luật	-0.0825
-3.5808	luống	-0.0825
-2.4347	là	-0.0941
-2.3255	làm	-0.1775
-3.5808	lái	-0.0825
-3.5808	lâm	-0.0825
-3.5808	lân	-0.0825
-3.5808	lây	-0.0825
-3.5808	lã	-0.0825
-3.2798	lãnh	-0.0825
-2.8818	lê	-0.1610
-2.5394	lên	-0.1564
-3.5808	lòng	-0.0825
-3.5808	lôi	-0.0825
-2.8818	lúc	-0.0825
-2.7357	lý	-0.1280
-3.5808	lăk	-0.0825
-3.5808	lưng	-0.0825
-3.5808	lưu	-0.0825
-3.2798	lượng	-0.0825
-3.5808	lạc	-0.0825
-2.3255	lại	-0.1035
-3.5808	lảng	-0.0825
-2.9788	lấy	-0.0825
-2.6777	lần	-0.1162
-3.5808	lậu	-0.0825
-3.5808	lắng	-0.0825
-3.5808	lễ	-0.0825
-3.5808	lệch	-0.0825
-3.2798	lệnh	-0.1925
-3.5808	lịch	-0.0825
-3.5808	lọt	-0.0825
-3.1037	lớn	-0.1527
-2.8818	lời	-0.1112
-2.4047	lừa	-0.2721
-3.1037	lực	-0.1527
-3.5808	ma	-0.0825
-3.5808	mai	-0.0825
-3.2798	malaysia	-0.0825
-2.7357	mang	-0.1371
-3.5808	manh	-0.0825
-3.5808	me	-0.0825
-3.5808	mi	-0.0825
-3.5808	minh	-0.0825
-3.2798	mong	-0.0825
-2.9788	mua	-0.1340
-2.7357	muốn	-0.0825
-3.5808	mà	-0.0825
-3.5808	mái	-0.0825
-3.1037	máy	-0.0825
-3.2798	mâu	-0.1925
-3.5808	mình	-0.0825
-3.1037	món	-0.2225
-3.5808	môi	-0.0825
-3.5808	mũ	-0.0825
-3.5808	mơ	-0.0825
-3.1037	mưu	-0.0825
-3.1037	mượn	-0.0825
-3.5808	mạc	-0.0825
-3.1037	mạng	-0.1232
-3.5808	mả	-0.0825
-3.5808	mất	-0.0825
-3.5808	mấy	-0.0825
-3.2798	mẫn	-0.0825
-3.1037	mắc	-0.0825
-3.1037	mắt	-0.0825
-2.8818	mặc	-0.1232
-2.8027	mặt	-0.1417
-3.2798	mẹ	-0.0825
-3.5808	mệnh	-0.0825
-3.5808	mọi	-0.0825
-2.9788	mối	-0.1340
-3.5808	mồ	-0.0825
-3.5808	mỗi	-0.0825
-2.9788	mộ	-0.1340
-2.2006	một	-0.1711
-2.6266	mới	-0.0825
-3.1037	mở	-0.0825
-3.2798	mức	-0.0825
-3.5808	mực	-0.0825
-2.8818	mỹ	-0.1112
-3.5808	n	-0.0825
-2.6266	nam	-0.2124
-3.5808	name	-0.0825
-2.8027	nay	-0.0825
-3.5808	ngang	-0.0825
-3.2798	ngay	-0.0825
-3.2798	nghe	-0.0825
-2.7357	nghi	-0.3071
-3.5808	nghiêm	-0.0825
-3.1037	nghĩa	-0.1527
-3.2798	nghề	-0.0825
-3.5808	nghệ	-0.0825
-3.5808	nghị	-0.0825
-2.7357	ngoài	-0.0825
-3.5808	ngoái	-0.0825
-2.7357	ngoại	-0.0825
-2.9788	nguyên	-0.0825
-2.5016	nguyễn	-0.2437
-3.5808	ngành	-0.0825
-2.5808	ngày	-0.0957
-2.4669	ngân	-0.1539
-2.9788	ngã	-0.1831
-3.5808	ngãi	-0.0825
-3.5808	ngôi	-0.0825
-3.5808	ngăn	-0.0825
-3.5808	ngũ	-0.0825
-3.5808	ngơ	-0.0825
-2.0623	người	-0.1677
-2.8818	ngồi	-0.1232
-3.5808	ngộ	-0.0825
-3.5808	ngờ	-0.0825
-3.5808	ngụ	-0.0825
-3.1037	nhanh	-0.0825
-3.1037	nhau	-0.1527
-3.5808	nhiên	-0.0825
-2.3767	nhiều	-0.1042
-3.5808	nhiễm	-0.0825
-3.2798	nhiệm	-0.1340
-2.6777	nhà	-0.0990
-3.5808	nhát	-0.0825
-2.5394	nhân	-0.1121
-3.2798	nhìn	-0.0825
-2.9788	nhóm	-0.1232
-3.5808	nhơn	-0.0825
-2.9788	như	-0.0825
-2.5394	nhưng	-0.1006
-2.9788	nhất	-0.1340
-3.5808	nhẫn	-0.0825
-2.2798	nhận	-0.1543
-3.1037	nhập	-0.0825
-3.5808	nhật	-0.0825
-3.5808	nhậu	-0.0825
-3.1037	nhắn	-0.1527
-2.9788	nhẹ	-0.1925
-3.5808	nhếch	-0.0825
-3.5808	nhịp	-0.0825
-3.5808	nhỏ	-0.0825
-3.2798	nhờ	-0.0825
-3.5808	nhục	-0.0825
-3.2798	nhủ	-0.0825
-2.8818	những	-0.1232
-3.2798	nhựa	-0.0825
-3.5808	nick	-0.0825
-3.5808	ninh	-0.0825
-3.2798	niên	-0.0825
-3.5808	niềm	-0.0825
-3.5808	nuôi	-0.0825
-3.5808	nào	-0.0825
-2.3767	này	-0.1123
-3.5808	nã	-0.0825
-3.5808	ném	-0.0825
-2.8818	nên	-0.0825
-3.2798	níu	-0.1925
-3.5808	nó	-0.0825
-2.6266	nói	-0.1244
-2.5808	năm	-0.1092
-3.2798	năn	-0.1925
-3.5808	năng	-0.0825
-3.5808	năng, trong	-0.0825
-3.1037	nơi	-0.1340
-2.8027	nước	-0.1024
-2.4669	nạn	-0.8593
-3.5808	nảy	-0.0825
-3.5808	nắm	-0.0825
-3.5808	nằm	-0.0825
-3.5808	nẵng	-0.0825
-3.5808	nẵng…	-0.0825
-3.2798	nặng	-0.0825
-3.2798	nếu	-0.0825
-3.5808	nỉ	-0.0825
-3.5808	nối	-0.0825
-2.9788	nội	-0.0825
-3.5808	nộp	-0.0825
-3.5808	nở	-0.0825
-2.4347	nữ	-0.3304
-2.9788	nữa	-0.0825
-3.5808	oai	-0.0825
-3.1037	oan	-0.0825
-3.5808	online	-0.0825
-3.2798	pc46	-0.0825
-3.5808	phi	-0.0825
-2.8027	phiên	-0.1419
-3.5808	phán	-0.0825
-3.2798	pháp	-0.0825
-2.8818	phát	-0.2800
-3.5808	phê	-0.0825
-3.5808	phí	-0.0825
-3.2798	phía	-0.0825
-2.8027	phòng	-0.0825
-3.2798	phó	-0.0825
-3.5808	phóng	-0.0825
-3.5808	phú	-0.0825
-3.1037	phúc	-0.1527
-3.2798	phút	-0.1925
-3.2798	phương	-0.0825
-3.5808	phước	-0.0825
-3.2798	phường	-0.0825
-2.5394	phạm	-0.1060
-3.5808	phạt	-0.0825
-2.5808	phải	-0.0990
-3.5808	phẩm	-0.0825
-3.5808	phận	-0.0825
-3.2798	phỏng	-0.0825
-3.5808	phố	-0.0825
-3.5808	phối	-0.0825
-3.5808	phổ	-0.0825
-3.1037	phụ	-0.1527
-3.2798	phục	-0.0825
-3.2798	phủ	-0.0825
-3.5808	phức	-0.0825
-2.5808	qua	-0.1006
-2.7357	quan	-0.0919
-3.2798	quanh	-0.0825
-3.2798	quay	-0.0825
-2.8818	quen	-0.1610
-3.5808	qui	-0.0825
-3.5808	quy	-0.0825
-3.5808	quyên	-0.0825
-2.8027	quyết	-0.2115
-2.8818	quyền	-0.1232
-2.7357	quà	-0.1047
-3.2798	quá	-0.0825
-3.5808	quái	-0.0825
-3.5808	quê	-0.0825
-3.5808	quên	-0.0825
-3.5808	quý	-0.0825
-3.5808	quả	-0.0825
-3.1037	quản	-0.1527
-3.1037	quảng	-0.1527
-3.1037	quần	-0.1527
-2.8027	quận	-0.2139
-2.9788	quốc	-0.1232
-2.6266	quỳnh	-0.1162
-2.5394	ra	-0.0949
-3.2798	riêng	-0.0825
-3.5808	ruồng	-0.0825
-3.2798	ruột	-0.0825
-3.5808	rào	-0.0825
-3.5808	rã	-0.0825
-3.5808	ròng	-0.0825
-3.5808	rõ	-0.0825
-3.5808	rút	-0.0825
-3.5808	răm	-0.0825
-3.2798	rượu	-0.0825
-2.9788	rất	-0.0825
-3.2798	rẫy	-0.0825
-3.5808	rắp	-0.0825
-3.2798	rằng	-0.0825
-3.2798	rẻ	-0.0825
-3.5808	rể	-0.0825
-3.5808	rệt	-0.0825
-2.7357	rồi	-0.0825
-3.5808	rộng	-0.0825
-3.5808	rời	-0.0825
-2.9788	rủ	-0.0825
-3.2798	sai	-0.0825
-2.1037	sang	-0.1195
-3.1037	sao	-0.0825
-2.4047	sau	-0.1387
-3.5808	scan	-0.0825
-3.5808	scotland	-0.0825
-2.7357	sinh	-0.0911
-3.5808	siêu	-0.0825
-3.5808	so	-0.0825
-3.5808	su	-0.0825
-3.1037	suốt	-0.0825
-3.5808	sài	-0.0825
-3.5808	sách	-0.0825
-2.9788	sáng	-0.1340
-2.9788	sát	-0.0825
-3.2798	sân	-0.1925
-3.5808	sòng	-0.0825
-3.5808	sóc	-0.0825
-3.5808	sóng	-0.0825
-3.2798	sĩ	-0.0825
-3.2798	sơ	-0.0825
-3.2798	sơn	-0.0825
-3.2798	sư	-0.0825
-3.5808	sướng…	-0.0825
-3.5808	sản	-0.0825
-3.5808	sắp	-0.0825
-3.5808	sẵn	-0.0825
-2.6266	sẽ	-0.0825
-2.5808	số	-0.2619
-3.1037	sống	-0.0825
-3.5808	sớm	-0.0825
-3.2798	sở	-0.0825
-3.5808	sợ	-0.0825
-3.2798	sức	-0.0825
-3.2798	sử	-0.1925
-2.9788	sự	-0.0825
-2.9788	ta	-0.0825
-2.8818	tand	-0.1610
-2.8818	tay	-0.1417
-3.5808	ta đến	-0.0825
-3.5808	tha	-0.0825
-3.5808	thai	-0.0825
-2.8818	tham	-0.1610
-2.3021	thanh	-0.1015
-3.5808	thao	-0.0825
-3.2798	thay	-0.1527
-2.5394	theo	-0.1092
-3.5808	thiếu	-0.0825
-3.1037	thiệt	-0.2225
-3.5808	thiệu	-0.0825
-3.5808	thoát	-0.0825
-3.5808	thoại	-0.0825
-3.5808	thoả	-0.0825
-3.5808	thoải	-0.0825
-3.5808	thoảng	-0.0825
-3.2798	thu	-0.0825
-3.5808	thuê	-0.0825
-3.5808	thuẫn	-0.0825
-3.1037	thuận	-0.0825
-3.5808	thuế	-0.0825
-3.5808	thuốc	-0.0825
-3.1037	thành	-0.1527
-2.8027	tháng	-0.1165
-3.5808	tháp…	-0.0825
-2.6266	thân	-0.1340
-3.5808	thét	-0.0825
-2.8027	thêm	-0.0825
-2.6266	thì	-0.0825
-3.5808	thích	-0.0825
-3.5808	thôn	-0.0825
-2.6266	thông	-0.3087
-3.1037	thù	-0.0825
-3.2798	thùng	-0.0825
-3.2798	thú	-0.0825
-2.8818	thúy	-0.0825
-3.5808	thăm	-0.0825
-2.8027	thương	-0.1419
-3.1037	thường	-0.0825
-3.5808	thượng	-0.0825
-3.5808	thản	-0.0825
-3.5808	thấp	-0.0825
-2.8027	thấy	-0.1112
-2.9788	thẩm	-0.0825
-3.5808	thật	-0.0825
-3.5808	thắc	-0.0825
-3.5808	thắng	-0.0825
-3.5808	thẻ	-0.0825
-3.1037	thế	-0.0825
-2.9788	thể	-0.0825
-3.5808	thỉnh	-0.0825
-2.8027	thị	-0.0825
-3.5808	thỏa	-0.0825
-2.8027	thời	-0.1469
-3.2798	thụ	-0.1925
-2.7357	thủ	-0.1340
-3.5808	thủy	-0.0825
-3.2798	thức	-0.0825
-3.1037	thừa	-0.2225
-3.5808	thực	-0.0825
-2.9788	tin	-0.0825
-3.1037	tiến	-0.1527
-3.2798	tiếng	-0.0825
-2.6777	tiếp	-0.1340
-2.4669	tiền	-0.1097
-3.5808	tiểu	-0.0825
-3.5808	toà	-0.0825
-2.9788	toàn	-0.1340
-3.5808	toán	-0.0825
-2.8818	tp	-0.2800
-3.1037	tra	-0.0941
-2.8027	trai	-0.1371
-2.9788	trang	-0.0825
-3.2798	trao	-0.1925
-3.5808	triển	-0.0825
-2.6777	triệu	-0.4841
-2.3504	trong	-0.0998
-3.1037	trung	-0.0825
-2.6777	truy	-0.1244
-2.9788	trách	-0.1831
-3.2798	trái	-0.0825
-2.4347	trên	-0.2500
-3.5808	trình	-0.0825
-3.5808	trí	-0.0825
-3.2798	trích	-0.1925
-3.5808	trò	-0.0825
-3.5808	trú	-0.0825
-3.2798	trưa	-0.0825
-2.6266	trước	-0.1162
-2.6266	trường	-0.1232
-3.1037	trưởng	-0.1162
-3.2798	trạng	-0.0825
-2.5394	trả	-0.2331
-3.5808	trấn	-0.0825
-3.1037	trần	-0.0825
-3.5808	trặc	-0.0825
-2.8818	trị	-0.1417
-3.5808	trọng	-0.0825
-3.5808	trốn	-0.0825
-3.1037	trộm	-0.1527
-3.5808	trời	-0.0825
-3.5808	trục	-0.0825
-3.5808	trực	-0.0825
-3.5808	tum	-0.0825
-3.1037	tung	-0.0825
-3.5808	tuy	-0.0825
-3.1037	tuyên	-0.1527
-3.5808	tuấn	-0.0825
-3.5808	tuần	-0.0825
-2.4047	tuổi	-0.1212
-3.5808	ty	-0.0825
-2.5808	tài	-0.3117
-3.2798	tá	-0.0825
-3.5808	tác	-0.0825
-3.5808	tái	-0.0825
-3.2798	táo	-0.0825
-3.5808	táobịa	-0.0825
-3.5808	tâm	-0.0825
-3.5808	tân	-0.0825
-3.2798	tây	-0.0825
-2.6266	tên	-0.1194
-2.8027	tìm	-0.1112
-2.4669	tình	-0.1497
-3.5808	tình”	-0.0825
-3.2798	tích	-0.0825
-3.5808	tính	-0.0825
-2.8027	tòa	-0.1469
-3.5808	tô	-0.0825
-2.8818	tôi	-0.1162
-3.2798	tù	-0.0825
-3.5808	túi	-0.0825
-3.1037	tăng	-0.0825
-3.2798	tư	-0.0825
-3.5808	tương	-0.0825
-3.5808	tưởng	-0.0825
-2.3767	tại	-0.1144
-2.8027	tạm	-0.1527
-3.1037	tạo	-0.1831
-3.5808	tạp	-0.0825
-2.5016	tạt	-0.6082
-3.5808	tải	-0.0825
-3.5808	tấn	-0.0825
-3.2798	tất	-0.0825
-3.5808	tầng	-0.0825
-3.2798	tẩu	-0.1925
-3.5808	tận	-0.0825
-3.5808	tập	-0.0825
-3.5808	tặng	-0.0825
-3.2798	tế	-0.0825
-3.5808	tệ	-0.0825
-2.8818	tỉnh	-0.1232
-3.5808	tọa	-0.0825
-3.1037	tỏ	-0.1527
-2.8818	tố	-0.1419
-3.1037	tối	-0.1340
-3.5808	tối10/10	-0.0825
-3.1037	tốt	-0.1527
-3.1037	tổng	-0.0825
-2.6777	tội	-0.1280
-3.5808	tội”	-0.0825
-3.1037	tới	-0.0825
-3.1037	tục	-0.0825
-3.5808	tức	-0.0825
-2.3021	từ	-0.1144
-3.2798	từng	-0.0825
-2.9788	tự	-0.0825
-2.7357	tỷ	-0.4261
-3.2798	usd	-0.0825
-3.5808	uy	-0.0825
-3.5808	uất	-0.0825
-3.5808	v	-0.0825
-3.5808	vi	-0.0825
-3.5808	vinh	-0.0825
-3.2798	viên	-0.0825
-2.6777	việc	-0.1377
-3.2798	viện	-0.0825
-2.6266	việt	-0.3230
-3.5808	việtkiều	-0.0825
-2.9788	vksnd	-0.1831
-3.2798	vnexpress	-0.0825
-3.5808	vui	-0.0825
-1.9276	và	-0.1163
-3.2798	vài	-0.0825
-3.5808	vàng	-0.0825
-2.3021	vào	-0.1216
-2.7357	vì	-0.0825
-3.2798	vô	-0.0825
-3.1037	võ	-0.2225
-3.2798	vùng	-0.0825
-2.9788	văn	-0.0825
-3.5808	vũ	-0.0825
-3.2798	vướng	-0.0825
-2.8818	vượt	-0.2102
-3.5808	vạ	-0.0825
-3.5808	vảng	-0.0825
-3.5808	vẫn	-0.0825
-3.2798	vật	-0.0825
-3.2798	vắng	-0.0825
-2.2191	về	-0.1390
-3.5808	vệ	-0.0825
-3.5808	vị	-0.0825
-3.5808	vốn	-0.0825
-3.5808	vội	-0.0825
-2.1658	với	-0.1475
-3.1037	vợ	-0.0825
-2.4047	vụ	-0.2581
-2.8027	vừa	-0.1162
-3.5808	vực	-0.0825
-3.5808	xa	-0.0825
-2.6266	xe	-0.1701
-3.2798	xem	-0.0825
-3.5808	xong	-0.0825
-3.5808	xuyên	-0.0825
-3.2798	xuân	-0.0825
-2.8027	xuất	-0.2402
-2.9788	xuống	-0.0825
-2.4347	xác	-0.4578
-3.5808	xách	-0.0825
-3.5808	xâm	-0.0825
-3.1037	xã	-0.1527
-2.9788	xét	-0.1340
-3.2798	xóm	-0.0825
-3.5808	xúc	-0.0825
-3.5808	xưa	-0.0825
-2.9788	xưng	-0.1340
-3.5808	xạ	-0.0825
-2.8818	xảy	-0.4444
-3.5808	xấu	-0.0825
-3.5808	xệch	-0.0825
-3.5808	xộc	-0.0825
-3.2798	xử	-0.0825
-3.5808	y	-0.0825
-3.5808	yên	-0.0825
-2.6777	yêu	-0.1488
-3.5808	yếu	-0.0825
-3.5808	 	-0.0825
-3.5808	 cảnh	-0.0825
-3.5808	 nữ	-0.0825
-3.5808	 thấy	-0.0825
-3.5808	 trưa	-0.0825
-3.5808	  giúp	-0.0825
-3.5808	 đến	-0.0825
-3.5808	 ảnh	-0.0825
-3.5808	ách	-0.0825
-3.5808	ái	-0.0825
-2.8027	án	-0.1352
-2.8027	áo	-0.1371
-3.5808	ân	-0.0825
-3.5808	ép	-0.0825
-3.5808	ít	-0.0825
-3.2798	ôm	-0.1925
-2.2798	ông	-0.2227
-3.2798	ôtô	-0.0825
-3.2798	ý	-0.0825
-3.5808	đa	-0.0825
-2.4047	đang	-0.1324
-3.1037	đau	-0.2225
-3.5808	đen	-0.0825
-3.2798	đeo	-0.1925
-2.3767	đi	-0.1047
-2.4347	điều	-0.6205
-3.5808	điểm	-0.0825
-2.6266	điện	-0.6996
-3.5808	đoàn	-0.0825
-3.2798	đoạn	-0.0825
-3.5808	đoạt	-0.0825
-2.8818	đà	-0.3592
-3.2798	đàn	-0.1925
-3.1037	đánh	-0.0825
-2.9788	đâm	-0.1610
-3.5808	đâu	-0.0825
-2.7357	đây	-0.1075
-2.0245	đã	-0.1323
-3.5808	đêm	-0.0825
-3.5808	đình	-0.0825
-3.2798	đòi	-0.0825
-2.6777	đó	-0.0966
-3.1037	đóng	-0.1340
-3.1037	đôi	-0.0825
-3.5808	đông	-0.0825
-3.1037	đúng	-0.0825
-3.5808	đăk	-0.0825
-3.5808	đăng	-0.0825
-2.6777	đơn	-0.0825
-2.8818	đưa	-0.1162
-3.5808	đương	-0.0825
-2.8027	đường	-0.1006
-2.0757	được	-0.1098
-3.5808	được, sang	-0.0825
-3.5808	được chuyển	-0.0825
-3.2798	đại	-0.0825
-3.2798	đạo	-0.0825
-3.5808	đạt	-0.0825
-3.5808	đảo	-0.0825
-2.7357	đầu	-0.0825
-3.5808	đập	-0.0825
-3.5808	đắk	-0.0825
-3.5808	đẳng	-0.0825
-2.9788	đặc	-0.1831
-3.5808	đặng	-0.0825
-2.3255	đến	-0.0919
-3.5808	đề	-0.0825
-3.5808	đều	-0.0825
-2.2006	để	-0.1273
-3.1037	địa	-0.1527
-2.6266	định	-0.0825
-3.5808	đỏ	-0.0825
-3.1037	đối	-0.0825
-2.4669	đồng	-0.1223
-3.1037	đổ	-0.0825
-3.2798	đổi	-0.0825
-3.5808	đổibộ	-0.0825
-3.1037	độ	-0.0825
-3.1037	độc	-0.2225
-3.1037	đội	-0.0825
-2.9788	động	-0.0825
-3.5808	đớn	-0.0825
-3.5808	đỡ	-0.0825
-3.5808	đợi	-0.0825
-3.5808	đợt	-0.0825
-3.1037	đức	-0.0825
-3.2798	đứng	-0.0825
-3.2798	đứt	-0.1925
-3.5808	đựng	-0.0825
-3.5808	ưa	-0.0825
-3.5808	ưu	-0.0825
-3.5808	ương	-0.0825
-3.5808	ước	-0.0825
-2.9788	ảnh	-0.0825
-3.5808	ảo	-0.0825
-3.5808	ập	-0.0825
-3.5808	ắc	-0.0825
-3.5808	ỏi	-0.0825
-3.5808	ổn	-0.0825
-2.3504	ở	-0.1047
-3.5808	ở phòng	-0.0825
-3.2798	ức	-0.0825
-3.5808	ứng	-0.0825
-3.5808	“sạch	-0.0825
-3.5808	“trả	-0.0825

\2-grams: 
-2.9775	<s> *	-0.0656
-1.8658	<s> 000	-0.2772
-3.0505	<s> 15	-0.0656
-3.0505	<s> 500	-0.0656
-2.9775	<s> 800	-0.0656
-2.9775	<s> ai	-0.0656
-2.8120	<s> alfred	-0.0656
-2.2196	<s> anh	-0.1257
-2.8605	<s> biết	-0.0656
-1.9970	<s> bà	-0.1099
-2.8605	<s> bác	-0.0656
-2.9775	<s> bước	-0.0656
-2.4564	<s> bạn	-0.0656
-2.8120	<s> bảo	-0.0656
-2.9151	<s> bất	-0.0656
-1.9684	<s> bị	-0.0656
-3.0505	<s> chánh	-0.0656
-2.7287	<s> chúng	-0.0656
-2.7684	<s> chỉ	-0.0656
-2.6589	<s> chị	-0.0656
-2.8120	<s> chờ	-0.0656
-2.8605	<s> cuối	-0.0656
-2.2262	<s> các	-0.0656
-2.8120	<s> cáo	-0.0656
-2.7287	<s> còn	-0.0656
-2.0555	<s> có	-0.2265
-2.1347	<s> cô	-0.2265
-1.9199	<s> công	-0.3514
-2.1751	<s> cùng	-0.1257
-2.2766	<s> cảnh	-0.0656
-2.8120	<s> cầm	-0.0656
-2.3821	<s> cục	-0.0656
-2.2080	<s> do	-0.0656
-2.5988	<s> em	-0.0656
-2.8120	<s> facebook	-0.0656
-2.7684	<s> gia	-0.0656
-2.2902	<s> hai	-0.0656
-2.4563	<s> hoàng	-0.0656
-2.2262	<s> hà	-0.0656
-2.4771	<s> hàng	-0.0656
-2.8120	<s> hôm	-0.0656
-2.5716	<s> hơn	-0.0656
-3.0505	<s> hồng	-0.0656
-1.9380	<s> khi	-0.1099
-2.9775	<s> khoảng	-0.0656
-2.3996	<s> không	-0.0656
-2.9775	<s> kiểm	-0.0656
-2.5988	<s> liên	-0.0656
-3.0505	<s> luống	-0.0656
-3.0505	<s> lân	-0.0656
-2.8120	<s> lê	-0.0656
-2.2315	<s> lúc	-0.0656
-2.6924	<s> lần	-0.0656
-2.9775	<s> lệnh	-0.0656
-2.9151	<s> lực	-0.0656
-2.7287	<s> mang	-0.0656
-2.9775	<s> mong	-0.0656
-3.0505	<s> mỗi	-0.0656
-1.8806	<s> một	-0.0656
-2.3493	<s> mới	-0.1592
-2.1858	<s> nam	-0.1257
-2.4770	<s> ngay	-0.0656
-2.3821	<s> ngoài	-0.0656
-2.4365	<s> nguyên	-0.1592
-2.3043	<s> nguyễn	-0.1592
-1.6291	<s> ngày	-0.1445
-1.9818	<s> người	-0.0656
-2.9151	<s> nhanh	-0.0656
-2.4771	<s> nhiều	-0.0656
-2.4365	<s> nhóm	-0.1592
-2.4770	<s> níu	-0.1592
-3.0505	<s> nó	-0.0656
-2.1751	<s> năm	-0.0656
-2.5459	<s> nạn	-0.0656
-2.9775	<s> nếu	-0.0656
-2.1347	<s> nữ	-0.2265
-2.9775	<s> phía	-0.0656
-2.7684	<s> phòng	-0.0656
-2.3337	<s> qua	-0.1592
-2.9775	<s> quá	-0.0656
-2.0041	<s> quốc	-0.3514
-2.3493	<s> quỳnh	-0.1592
-2.4770	<s> riêng	-0.0656
-1.8495	<s> sang	-0.0656
-1.7986	<s> sau	-0.1006
-3.0505	<s> siêu	-0.0656
-2.9151	<s> suốt	-0.0656
-2.8605	<s> sáng	-0.0656
-3.0505	<s> sợ	-0.0656
-2.9775	<s> sức	-0.0656
-2.4177	<s> thanh	-0.0656
-1.8168	<s> theo	-0.0656
-1.9900	<s> tháng	-0.0656
-3.0505	<s> thắc	-0.0656
-2.9151	<s> thế	-0.0656
-1.6898	<s> trong	-0.0946
-2.5218	<s> trên	-0.0656
-2.4770	<s> trưa	-0.0656
-2.3493	<s> trước	-0.0656
-2.5988	<s> trả	-0.0656
-2.0260	<s> tuy	-0.3514
-2.8120	<s> tôi	-0.0656
-2.2507	<s> tại	-0.0656
-2.4563	<s> tối	-0.0656
-2.9151	<s> tổng	-0.0656
-2.4177	<s> từ	-0.0656
-3.0505	<s> v	-0.0656
-2.0938	<s> và	-0.0656
-2.9775	<s> vài	-0.0656
-2.3821	<s> vì	-0.0656
-2.3043	<s> với	-0.0656
-2.1251	<s> vụ	-0.1257
-2.7684	<s> vừa	-0.0656
-2.9775	<s> xem	-0.0656
-2.8605	<s> xưng	-0.0656
-2.2826	<s>  	-0.0656
-3.0505	<s>  cảnh	-0.0656
-3.0505	<s>  nữ	-0.0656
-3.0505	<s>  thấy	-0.0656
-3.0505	<s>  trưa	-0.0656
-3.0505	<s>   giúp	-0.0656
-3.0505	<s>  đến	-0.0656
-3.0505	<s>  ảnh	-0.0656
-2.2030	<s> ông	-0.0656
-2.4989	<s> đang	-0.0656
-3.0505	<s> điểm	-0.0656
-2.9151	<s> đúng	-0.0656
-2.2262	<s> được	-0.0656
-2.4365	<s> đặc	-0.1592
-1.7855	<s> đến	-0.1006
-2.5459	<s> đồng	-0.0656
-2.9151	<s> đội	-0.0656
-1.7373	<s> ảnh	-0.1732
-0.4443	* tên	-0.1803
-1.5964	- bạn	-0.0656
-1.6394	- hải	-0.0656
-1.6353	- nghi	-0.0656
-1.5406	- người	-0.0656
-1.6272	- việt	-0.0656
-1.6001	- đi	-0.0656
-1.5309	- đã	-0.0656
-1.6115	- đồng	-0.0656
-1.0606	000 usd	-0.0656
-1.0488	000 đồng	-0.3514
-0.6864	1 </s>	0.0000
-0.6939	10 năm	-0.0656
-1.5233	10 tháng	-0.0656
-1.4995	10 tuổi	-0.0656
-1.5287	10 vksnd	-0.0656
-1.1189	100 </s>	0.0000
-1.3551	100 mộ	-0.0656
-1.3467	100 triệu	-0.0656
-1.3323	100 vụ	-0.0656
-0.4453	105 mộ	-0.1592
-0.7441	11 người	-0.0656
-0.7536	12 tuổi	-0.0656
-1.0530	13/10 nam	-0.0656
-1.0312	13/10 sang	-0.0656
-0.7536	14 vụ	-0.0656
-0.7606	15 phút	-0.0656
-0.7393	15/10 công	-0.2265
-1.3430	15/10 ra	-0.0656
-1.3357	15/10 sau	-0.0656
-0.7520	15/4/2014 hà	-0.0656
-0.7612	15/8 bao	-0.0656
-0.7547	15/9 hai	-0.0656
-0.7579	16 tỷ	-0.0656
-0.6165	16/10 công	-0.1592
-1.2319	16/10 tand	-0.0656
-0.7536	17 tuổi	-0.0656
-0.2577	18 tuổi	-0.0946
-1.5135	2 bình	-0.0656
-1.5221	2 chiếc	-0.0656
-0.9160	2 ngày	-0.0656
-1.4994	2 nữ	-0.1592
-1.5250	2 tỉnh	-0.0656
-0.7488	2/2014 một	-0.0656
-0.7612	2/9… bẵng	-0.0656
-0.7441	20/8 người	-0.0656
-0.7590	2008 thúy	-0.0656
-0.7590	2010-2013 họ	-0.0656
-1.0509	2012 lan	-0.0656
-1.0436	2012 đến	-0.0656
-0.7595	2013 nhóm	-0.0656
-0.7493	2015 có	-0.0656
-0.5182	21 tuổi	-0.0656
-1.3386	21 vụ	-0.0656
-0.7430	22/8 bị	-0.0656
-1.0467	26 tuổi	-0.0656
-1.0552	26 tỷ	-0.0656
-0.7536	28 tuổi	-0.0656
-1.2102	3 </s>	0.0000
-1.5114	3 bình	-0.0656
-1.5270	3 can	-0.0656
-1.4622	3 với	-0.1592
-1.5207	3 vừa	-0.0656
-1.5334	3 đại	-0.0656
-0.7574	30 triệu	-0.0656
-0.7536	32 tuổi	-0.0656
-0.7536	37 tuổi	-0.0656
-1.6313	4 -	-0.0656
-1.6477	4 cũ	-0.0656
-1.6353	4 giá	-0.0656
-1.5406	4 người	-0.0656
-1.6605	4 nhát	-0.0656
-1.6233	4 năm	-0.0656
-1.5309	4 đã	-0.0656
-1.6605	4 đợt	-0.0656
-0.7541	4/10 nữ	-0.0656
-0.7509	4/11/2013 ông	-0.0656
-0.7579	4/2014 donald	-0.0656
-0.7536	40 vụ	-0.0656
-1.0434	5 </s>	0.0000
-1.2323	5 mua	-0.0656
-1.2150	5 sau	-0.0656
-0.7612	500 bảng	-0.0656
-0.7536	53 tuổi	-0.0656
-0.3966	550 usd	-0.0656
-0.7536	56 tuổi	-0.0656
-0.6864	59 </s>	0.0000
-1.1952	6 người	-0.0656
-0.6179	6 nạn	-0.1592
-0.7536	63 tuổi	-0.0656
-0.7536	65 tuổi	-0.0656
-0.7536	69 tuổi	-0.0656
-0.7612	6s laptop	-0.0656
-1.0282	7 người	-0.0656
-1.0552	7 tỷ	-0.0656
-0.3958	7,2 tỷ	-0.3514
-0.7574	7,5 triệu	-0.0656
-0.7525	7/2013 trong	-0.0656
-0.7574	700 triệu	-0.0656
-1.2356	8 chân	-0.0656
-1.1880	8 người	-0.0656
-1.2259	8 triệu	-0.0656
-0.7541	8/2003 khi	-0.0656
-1.0616	800 chai	-0.0656
-1.0541	800 triệu	-0.0656
-1.1713	9 </s>	0.0000
-1.3858	9 sang	-0.0656
-1.4473	9 tp	-0.3514
-1.4241	9 xác	-0.0656
-1.4216	9 đang	-0.0656
-0.7579	9,3 tỷ	-0.0656
-1.0530	a cả	-0.0656
-1.0488	a hai	-0.1592
-1.0520	ai phải	-0.0656
-1.0606	ai đứng	-0.0656
-0.1934	alfred bailey	-0.0656
-1.6486	an huyện	-0.1592
-1.0472	an ninh	-0.0656
-1.6408	an quận	-0.3564
-1.6526	an thành	-0.1592
-1.6447	an tp	-0.0656
-1.6447	an tỉnh	-0.0656
-1.6447	an đà	-0.1257
-1.2564	anh </s>	0.0000
-1.5962	anh chiều	-0.0656
-1.5469	anh hà	-0.0656
-1.5531	anh này	-0.0656
-0.9867	anh ta	-0.1099
-1.6032	anh ta đến	-0.0656
-0.7425	atm của	-0.0656
-1.3859	axit </s>	0.0000
-1.9837	axit 2	-0.1592
-1.8957	axit bạn	-0.2265
-2.0305	axit bắn	-0.0656
-1.9749	axit chưa	-0.0656
-2.0111	axit dùng	-0.0656
-1.9257	axit hai	-0.1592
-1.9180	axit khi	-0.0656
-2.0207	axit khiến	-0.0656
-2.0207	axit kẻ	-0.0656
-2.0111	axit nhập	-0.0656
-1.8815	axit thanh	-0.0656
-1.9180	axit trên	-0.0656
-1.9257	axit tình	-0.0656
-1.8815	axit từ	-0.0656
-1.3797	axit vào	-0.3514
-1.8478	axit để	-0.0656
-2.0111	axit đổ	-0.0656
-1.4394	bailey chủ	-0.0656
-1.4343	bailey cũng	-0.0656
-1.4420	bailey gửi	-0.0656
-1.4142	bailey lại	-0.0656
-1.4368	bailey nói	-0.0656
-1.0520	ban ngày	-0.0656
-1.0552	ban đầu	-0.0656
-0.7606	bao gồm	-0.0656
-1.0573	bay họ	-0.0656
-1.0606	bay malaysia	-0.0656
-0.7612	bi đông	-0.0656
-0.7579	binh mang	-0.0656
-0.8424	biên giới	-0.0656
-1.4475	biên quận	-0.0656
-0.8281	biên sang	-0.0656
-1.3386	biết </s>	0.0000
-1.1422	biết bị	-0.0656
-1.7922	biết gì	-0.0656
-1.1682	biết nữ	-0.1592
-1.7513	biết qua	-0.0656
-1.7562	biết sẽ	-0.0656
-1.7562	biết trước	-0.0656
-1.6071	biết và	-0.0656
-1.7275	biết đang	-0.0656
-1.3594	biệt khó	-0.0656
-1.3446	biệt thông	-0.0656
-1.3343	biệt trên	-0.1592
-1.2917	biệt đã	-0.0656
-0.7425	buồn của	-0.0656
-0.7504	buồng bệnh	-0.0656
-0.7509	buộc ông	-0.0656
-1.5610	bà cho	-0.0656
-0.8171	bà liên	-0.1099
-1.6229	bà nguyễn	-0.0656
-1.6504	bà nội	-0.0656
-1.0446	bà ta	-0.0656
-0.9232	bài </s>	0.0000
-1.0436	bài hà	-0.0656
-0.7584	bàng… thêm	-0.0656
-0.7601	bày tỏ	-0.0656
-0.5214	bác sĩ	-0.1006
-1.3501	bác đơn	-0.0656
-0.4439	bám theo	-0.1592
-0.7324	bán cho	-0.0656
-1.3339	bán hàng	-0.0656
-1.3599	bán rẻ	-0.1592
-1.5238	báo cáo	-0.0656
-1.5302	báo món	-0.0656
-1.5334	báo quanh	-0.0656
-1.5270	báo sáng	-0.0656
-1.4705	báo về	-0.0656
-1.4847	báo đến	-0.0656
-0.7520	bè các	-0.0656
-1.1906	bên </s>	0.0000
-1.4460	bên gia	-0.0656
-1.4436	bên ngoài	-0.0656
-0.8429	bên trái	-0.0656
-1.1344	bình axit	-0.0656
-1.7568	bình dương	-0.0656
-1.7568	bình phước	-0.0656
-1.7103	bình ra	-0.0656
-1.1415	bình thuận	-0.0656
-1.7568	bình thản	-0.0656
-1.7192	bình xe	-0.0656
-1.7568	bình ắc	-0.0656
-1.0595	bước nhanh	-0.0656
-1.0552	bước đầu	-0.0656
-1.0434	bạc </s>	0.0000
-1.1894	bạc cho	-0.0656
-1.2307	bạc tôi	-0.0656
-2.0932	bạn bè	-0.0656
-1.8449	bạn cho	-0.0656
-1.9967	bạn chung	-0.0656
-2.0423	bạn chở	-0.0656
-2.0619	bạn giao	-0.0656
-1.2575	bạn gái	-0.1006
-2.0143	bạn gần	-0.0656
-1.2591	bạn học	-0.1099
-2.0520	bạn mặc	-0.0656
-2.0520	bạn ngồi	-0.2265
-2.0932	bạn rời	-0.0656
-2.0143	bạn thân	-0.0656
-2.0143	bạn thì	-0.0656
-2.0423	bạn trai	-0.0656
-1.9715	bạn trên	-0.0656
-1.9881	bạn tạt	-0.0656
-1.9324	bạn từ	-0.0656
-1.9797	bạn đồng	-0.0656
-0.7584	bản án	-0.0656
-0.7584	bảng anh	-0.0656
-1.4913	bảo bạn	-0.0656
-1.5221	bảo gia	-0.0656
-1.4886	bảo hà	-0.0656
-1.5338	bảo lãnh	-0.0656
-0.9225	bảo vệ	-0.0656
-0.3968	bất ngờ	-0.0656
-0.7579	bẫy quà	-0.0656
-1.0676	bắc </s>	0.0000
-0.6219	bắc giang	-0.0656
-0.7515	bắn vào	-0.0656
-1.2839	bắt </s>	0.0000
-1.6784	bắt cơ	-0.0656
-1.6968	bắt giữ	-0.1592
-1.7062	bắt kẻ	-0.0656
-1.6118	bắt một	-0.0656
-1.6739	bắt nam	-0.0656
-1.6651	bắt phạm	-0.0656
-1.6875	bắt tạm	-0.0656
-1.6829	bắt đầu	-0.0656
-1.3523	bằng chiếc	-0.0656
-0.7462	bằng cách	-0.1257
-1.3599	bằng nghề	-0.0656
-0.7531	bẵng đi	-0.0656
-0.7612	bẽ bàng…	-0.0656
-0.5286	bệnh nhân	-0.1683
-0.3582	bệnh viện	-0.2038
-2.0670	bệnh đưa	-0.0656
-2.0288	bệnh ở	-0.0656
-1.0949	bị bắt	-0.2775
-2.4629	bị bỏng	-0.1592
-1.8471	bị can	-0.0656
-2.4202	bị chiếm	-0.0656
-2.4410	bị cháy	-0.0656
-2.3456	bị chúng	-0.0656
-2.4003	bị chồng	-0.0656
-1.8417	bị cáo	-0.0656
-2.4410	bị giam	-0.0656
-2.2534	bị hai	-0.0656
-1.6373	bị hại	-0.0656
-2.3631	bị hải	-0.0656
-2.4629	bị khoá	-0.0656
-2.3813	bị kết	-0.1592
-1.3543	bị lừa	-0.1099
-2.1227	bị một	-0.0656
-2.0390	bị người	-0.0656
-1.8471	bị nhóm	-0.0656
-2.4003	bị nhẹ	-0.0656
-2.2534	bị nạn	-0.0656
-2.4410	bị nặng	-0.0656
-2.2397	bị nữ	-0.0656
-2.0652	bị sang	-0.0656
-2.4202	bị thiệt	-0.0656
-1.8363	bị thương	-0.1257
-2.3631	bị trai	-0.0656
-2.3288	bị triệu	-0.0656
-1.6177	bị truy	-0.2265
-1.8106	bị trả	-0.0656
-2.4629	bị trục	-0.0656
-2.3631	bị tạm	-0.0656
-2.2674	bị tạt	-0.1592
-2.4629	bị vạ	-0.1592
-2.4629	bị ách	-0.0656
-2.2397	bị điều	-0.0656
-2.4202	bị đôi	-0.0656
-0.6864	bọn </s>	0.0000
-1.4222	bỏ lại	-0.0656
-0.8435	bỏ trốn	-0.0656
-0.8355	bỏ đi	-0.0656
-0.7606	bỏng giác	-0.1592
-0.7579	bốc hài	-0.0656
-0.6116	bốn cho	-0.1592
-1.2198	bốn xác	-0.0656
-0.0646	bồi thường	-0.1385
-1.9586	bộ dạng	-0.0656
-1.9112	bộ hành	-0.0656
-1.9243	bộ hải	-0.2265
-1.9586	bộ phận	-0.0656
-1.9445	bộ quần	-0.0656
-1.9445	bộ thiệt	-0.0656
-1.1136	bộ tài	-0.2265
-0.8600	bộ tư	-0.3514
-1.8744	bộ điều	-0.2265
-1.9445	bộ đôi	-0.0656
-1.9445	bộ đội	-0.0656
-0.7568	bởi axit	-0.0656
-1.2244	ca axit	-0.0656
-1.2356	ca nhựa	-0.0656
-1.2372	ca đựng	-0.0656
-1.2339	camera an	-0.0656
-1.2058	camera bệnh	-0.0656
-1.2013	camera để	-0.0656
-0.9232	campuchia </s>	0.0000
-1.0595	campuchia đánh	-0.0656
-1.6933	can chính	-0.0656
-1.6511	can lừa	-0.0656
-1.7113	can ngăn	-0.1592
-1.7067	can nhựa	-0.0656
-1.0817	can này	-0.0656
-1.6889	can tạm	-0.0656
-1.6634	can tạt	-0.0656
-1.6977	can đâm	-0.0656
-1.7364	cao bà	-0.0656
-1.7220	cao chủ	-0.0656
-1.6988	cao cấp	-0.0656
-1.7172	cao mới	-0.0656
-1.7565	cao su	-0.0656
-1.6812	cao trong	-0.0656
-1.6060	cao đã	-0.0656
-1.7565	cao đạt	-0.0656
-1.1438	cao đẳng	-0.1099
-1.2307	cha bảo	-0.0656
-1.2212	cha lan	-0.0656
-1.2356	cha mẹ	-0.0656
-0.7606	chai rượu	-0.0656
-0.7606	che giấu	-0.0656
-0.2581	chi trả	-0.1099
-0.1931	chia tay	-0.1257
-0.7612	chiêm 65	-0.0656
-0.9210	chiếc iphone	-0.0656
-1.5368	chiếc nhẫn	-0.0656
-1.5135	chiếc xe	-0.0656
-1.5221	chiếc áo	-0.0656
-1.5135	chiếc điện	-0.0656
-0.3968	chiếm đoạt	-0.1099
-1.2323	chiến hưng	-0.0656
-1.2244	chiến trước	-0.1592
-1.2339	chiến vợ	-0.0656
-0.7478	chiếu với	-0.0656
-1.2275	chiều con	-0.0656
-1.2307	chiều hôm	-0.0656
-1.2291	chiều nay	-0.0656
-0.8501	cho biết	-0.0656
-2.2432	cho con	-0.0656
-1.6574	cho các	-0.0656
-2.2662	cho cán	-0.0656
-2.2432	cho cậu	-0.0656
-2.2432	cho donald	-0.0656
-2.2004	cho em	-0.0656
-0.8506	cho hay	-0.0656
-2.1344	cho hà	-0.0656
-2.2546	cho hải	-0.0656
-2.1709	cho là	-0.0656
-1.6722	cho ngân	-0.0656
-2.0198	cho người	-0.0656
-1.7067	cho rằng	-0.0656
-2.1258	cho thanh	-0.0656
-2.2546	cho thấy	-0.0656
-2.3033	cho trích	-0.0656
-2.2546	cho tòa	-0.0656
-1.4502	cho ông	-0.1257
-2.1805	cho đồng	-0.0656
-1.0436	choạng làm	-0.0656
-1.0584	choạng ngã	-0.2265
-1.0457	chung </s>	0.0000
-1.8349	chung 69	-0.0656
-1.2199	chung cư	-0.0656
-1.6644	chung của	-0.0656
-1.8116	chung hứa	-0.0656
-1.7342	chung không	-0.0656
-1.7790	chung ra	-0.0656
-1.7896	chung thân	-0.0656
-1.7896	chung trường	-0.0656
-1.8289	chung xóm	-0.0656
-0.7595	chuyên trách	-0.0656
-1.6519	chuyển 550	-0.0656
-1.6193	chuyển lên	-0.0656
-1.6519	chuyển món	-0.0656
-1.6313	chuyển tiếp	-0.1592
-1.5890	chuyển từ	-0.0656
-1.5890	chuyển vào	-0.0656
-1.5439	chuyển được	-0.0656
-1.5927	chuyển đến	-0.0656
-1.2403	chuyện </s>	0.0000
-1.5668	chuyện liên	-0.0656
-1.4963	chuyện người	-0.0656
-1.5881	chuyện quen	-0.0656
-1.5565	chuyện trên	-0.0656
-1.5599	chuyện tình	-0.0656
-1.4622	chuyện và	-0.0656
-1.0262	chuẩn bị	-0.0656
-1.0562	chuẩn quyết	-0.0656
-0.7568	chuộc điện	-0.0656
-0.7595	chánh văn	-0.0656
-0.9232	cháy </s>	0.0000
-1.0595	cháy lớn	-0.0656
-1.0606	chân dung	-0.0656
-1.0606	chân tẩu	-0.0656
-1.4993	chính cấp	-0.0656
-1.5238	chính lê	-0.0656
-1.5238	chính lời	-0.0656
-1.5366	chính sách	-0.1592
-1.5334	chính thức	-0.0656
-1.4357	chính đã	-0.1592
-0.7601	chóng tỏ	-0.0656
-1.6001	chúng bám	-0.0656
-1.5968	chúng cung	-0.0656
-1.5443	chúng nhận	-0.0656
-0.7625	chúng tôi	-0.1257
-1.5501	chúng đến	-0.0656
-0.3968	chăm sóc	-0.0656
-1.5407	chưa nhận	-0.0656
-1.5825	chưa quan	-0.0656
-1.5997	chưa sử	-0.0656
-0.9885	chưa từng	-0.0656
-1.5531	chưa đi	-0.0656
-1.5469	chưa đến	-0.0656
-0.7531	chạy đi	-0.0656
-1.0153	chấn </s>	0.0000
-1.7594	chấn -	-0.0656
-1.7293	chấn bộ	-0.0656
-1.7753	chấn chính	-0.0656
-1.7491	chấn cũng	-0.0656
-1.7807	chấn giết	-0.0656
-1.7753	chấn tố	-0.0656
-1.6002	chấn và	-0.0656
-1.7917	chấn vướng	-0.0656
-1.6497	chấn được	-0.0656
-0.7509	chấp nhận	-0.0656
-0.7488	chất một	-0.0656
-0.7574	chặn truy	-0.0656
-1.0312	chế sang	-0.0656
-1.0595	chế độ	-0.0656
-1.4753	chỉ có	-0.0656
-1.4727	chỉ một	-0.0656
-1.4967	chỉ sau	-0.0656
-0.9218	chỉ đạo	-0.0656
-1.4886	chỉ đến	-0.0656
-1.1427	chị hoan	-0.0656
-1.6805	chị hà	-0.0656
-1.6973	chị là	-0.0656
-1.7376	chị lê	-0.0656
-1.7016	chị ngân	-0.0656
-1.6724	chị nhận	-0.0656
-1.1344	chị quỳnh	-0.0656
-1.6121	chị đã	-0.0656
-1.0573	chịu bỏ	-0.0656
-1.0584	chịu trách	-0.0656
-1.3616	chồng hờ	-0.0656
-1.3573	chồng phụ	-0.0656
-1.3616	chồng sắp	-0.0656
-1.3594	chồng tây	-0.0656
-1.4368	chờ chị	-0.0656
-1.4191	chờ nhiều	-0.0656
-1.4420	chờ quà	-0.0656
-1.4142	chờ đến	-0.0656
-1.4580	chờ đợi	-0.0656
-0.9110	chở bạn	-0.0656
-1.5309	chở nhau	-0.0656
-1.5338	chở rượu	-0.0656
-1.4575	chở sang	-0.0656
-1.5250	chở vượt	-0.0656
-0.6219	chợ kim	-0.1592
-1.2360	chợ rẫy	-0.1099
-0.7574	chục triệu	-0.0656
-1.0454	chủ mưu	-0.0656
-1.6385	chủ quan	-0.0656
-1.6277	chủ tài	-0.0656
-1.6609	chủ tọa	-0.0656
-1.6609	chủ yếu	-0.0656
-1.0444	chủ động	-0.1257
-0.7509	chứ không	-0.0656
-1.3594	chức lãnh	-0.0656
-1.3616	chức năng, trong	-0.0656
-1.3530	chức tham	-0.0656
-1.3323	chức vụ	-0.0656
-1.1837	chứng của	-0.0656
-1.2088	chứng từ	-0.0656
-1.2356	chứng vắng	-0.0656
-0.7547	clip hai	-0.0656
-0.7531	co nhiều	-0.0656
-1.5955	con bạc	-0.0656
-1.5738	con chị	-0.0656
-1.5955	con gái	-0.0656
-1.6030	con rể	-0.0656
-1.5845	con trai	-0.0656
-1.5881	con vượt	-0.0656
-1.5238	con để	-0.0656
-0.7525	csđt ở	-0.0656
-0.6179	cung cấp	-0.0656
-1.2347	cung dùng	-0.0656
-1.3448	cuối cùng	-0.0656
-1.3448	cuối năm	-0.0656
-0.7443	cuối tháng	-0.0656
-0.7595	cuống xuống	-0.0656
-1.1713	cuộc </s>	0.0000
-1.4420	cuộc gặp	-0.0656
-1.4499	cuộc gọi	-0.0656
-1.4580	cuộc họp	-0.0656
-1.4368	cuộc nói	-0.0656
-2.0741	các buồng	-0.0656
-1.3903	các bị	-0.0656
-1.9630	các cô	-0.0656
-1.4371	các cấp	-0.0656
-2.0108	các lần	-0.0656
-2.0550	các nghĩa	-0.0656
-0.9692	các nạn	-0.3514
-1.9630	các nữ	-0.0656
-2.0741	các phi	-0.0656
-1.9863	các phạm	-0.0656
-2.0280	các quyết	-0.0656
-2.0741	các quý	-0.0656
-2.0741	các sòng	-0.0656
-2.0193	các thủ	-0.0656
-2.0108	các tội	-0.0656
-2.0645	các vật	-0.0656
-1.2323	cách bán	-0.1592
-1.2372	cách quyên	-0.0656
-1.2196	cách tạt	-0.0656
-1.0573	cái kết	-0.0656
-1.0530	cái điện	-0.0656
-0.1926	cán bộ	-0.2265
-1.5773	cáo chủ	-0.0656
-1.5918	cáo nhóm	-0.0656
-1.5738	cáo thì	-0.0656
-1.5845	cáo trai	-0.0656
-1.5992	cáo trạng	-0.0656
-1.5497	cáo tại	-0.0656
-1.5809	cáo đây	-0.0656
-0.7557	câu trả	-0.0656
-1.5845	còn 3	-0.0656
-1.6030	còn dư	-0.0656
-1.5238	còn một	-0.0656
-1.5398	còn thanh	-0.0656
-1.5599	còn tình	-0.0656
-1.5955	còn tỏ	-0.0656
-1.5992	còn vướng	-0.0656
-2.1038	có 3	-0.0656
-2.1510	có ai	-0.0656
-2.0225	có cảnh	-0.0656
-2.0928	có giá	-0.0656
-2.0715	có gần	-0.0656
-2.1510	có hiệu	-0.0656
-2.1510	có hóa	-0.0656
-2.1151	có lúc	-0.0656
-2.0820	có lần	-0.1257
-2.1636	có manh	-0.0656
-1.2761	có người	-0.0656
-2.1636	có nick	-0.0656
-2.1636	có niềm	-0.0656
-2.0928	có quan	-0.0656
-2.0612	có số	-0.0656
-2.1510	có sở	-0.0656
-2.1510	có thu	-0.0656
-2.0715	có thông	-0.0656
-1.5475	có thể	-0.0656
-2.0318	có tiền	-0.0656
-1.5475	có trách	-0.1592
-1.8812	có được	-0.0656
-1.2978	cô bạn	-0.1803
-0.5518	cô gái	-0.0903
-1.8531	cô hàng	-0.0656
-1.9150	cô nhẹ	-0.0656
-1.8882	cô nói	-0.0656
-1.8830	cô phải	-0.0656
-1.9263	cô ruột	-0.0656
-1.9150	cô ta	-0.0656
-1.8531	cô đi	-0.0656
-1.5353	công </s>	0.0000
-0.3974	công an	-0.2701
-1.9998	công bằng	-0.1257
-1.3961	công chức	-0.0656
-2.0112	công nghệ	-0.0656
-1.9887	công quyền	-0.0656
-2.0112	công ty	-0.0656
-2.0112	công tác	-0.0656
-2.0112	công đoàn	-0.0656
-0.7379	cô… và	-0.0656
-1.7798	cùng 18	-0.0656
-1.7971	cùng 59	-0.0656
-1.7631	cùng con	-0.0656
-1.7264	cùng cô	-0.0656
-1.7264	cùng cảnh	-0.0656
-1.7523	cùng nam	-0.0656
-1.7470	cùng ngày	-0.0656
-1.7214	cùng tuổi	-0.0656
-1.7020	cùng vào	-0.1592
-1.6700	cùng với	-0.0656
-1.7523	cùng xe	-0.0656
-1.0616	căn hộ	-0.0656
-1.0562	căn phòng	-0.0656
-0.7618	cũ </s>	0.0000
-1.4484	cũ hứa	-0.0656
-1.4204	cũ trong	-0.0656
-1.4389	cũ tên	-0.0656
-0.8965	cũng bị	-0.1006
-1.1227	cũng không	-0.0656
-1.7296	cũng muốn	-0.0656
-1.7570	cũng ròng	-0.0656
-1.7386	cũng tham	-0.0656
-1.6998	cũng xác	-0.0656
-1.6174	cũng đã	-0.0656
-1.6603	cơ hội	-0.0656
-0.2789	cơ quan	-0.1274
-1.6320	cơ vụ	-0.0656
-1.2935	cư bị	-0.0656
-1.3509	cư cao	-0.0656
-1.3616	cư trú	-0.0656
-1.3302	cư tại	-0.0656
-0.7563	cưới ngày	-0.0656
-0.7584	cướp 2	-0.0656
-0.6864	cười </s>	0.0000
-0.7525	cường công	-0.0656
-1.7044	cả ca	-0.0656
-1.6931	cả cao	-0.0656
-1.7121	cả chục	-0.0656
-0.6073	cả hai	-0.1006
-1.6679	cả nạn	-0.0656
-1.7006	cả tin	-0.0656
-1.5176	cảm cậu	-0.0656
-1.4790	cảm không	-0.1257
-1.5053	cảm lên	-0.0656
-1.5207	cảm thấy	-0.1592
-1.4132	cảm và	-0.0656
-1.5145	cảm yêu	-0.1592
-0.7531	cảng hàng	-0.0656
-1.9705	cảnh 21	-0.0656
-1.9653	cảnh báo	-0.0656
-1.9866	cảnh khu	-0.0656
-1.9866	cảnh ngộ	-0.0656
-0.3724	cảnh sát	-0.0847
-1.8979	cảnh vào	-0.0656
-1.9115	cảnh đi	-0.0656
-1.9705	cảnh đâm	-0.0656
-1.9812	cảnh đứt	-0.0656
-1.9511	cấp 3	-0.1592
-1.9711	cấp 7,2	-0.0656
-1.8078	cấp cho	-0.0656
-1.9382	cấp cơ	-0.0656
-0.6063	cấp cứu	-0.2208
-1.9850	cấp cứu là bùi	-0.0656
-1.9850	cấp dưỡng	-0.0656
-1.9196	cấp nhưng	-0.0656
-1.9077	cấp tiền	-0.0656
-1.9644	cấp xét	-0.0656
-1.7895	cấp đã	-0.0656
-1.8471	cấp để	-0.0656
-0.7612	cất bốc	-0.0656
-1.5368	cầm 7,5	-0.0656
-1.5309	cầm hung	-0.0656
-0.9225	cầm lái	-0.0656
-1.5368	cầm túi	-0.0656
-1.5192	cầm đầu	-0.0656
-0.7584	cần tìm	-0.0656
-1.1713	cầu </s>	0.0000
-1.4553	cầu cứu	-0.0656
-1.4343	cầu phải	-0.0656
-1.4526	cầu tăng	-0.2265
-1.3812	cầu được	-0.0656
-0.7547	cầuai bồi	-0.0656
-0.7515	cập từ	-0.0656
-0.7579	cậu bạn	-0.0656
-1.5625	cậu này	-0.0656
-0.7645	cậu thủy	-0.0656
-0.7563	cắp tài	-0.0656
-0.7515	cắt từ	-0.0656
-0.7478	cặp với	-0.0656
-0.7606	cố ý	-0.0656
-0.7584	cối áo	-0.0656
-1.2102	cốt </s>	0.0000
-1.5334	cốt gồm	-0.0656
-1.5238	cốt liệt	-0.1592
-1.5114	cốt thân	-0.0656
-1.4905	cốt tại	-0.0656
-1.4132	cốt và	-0.0656
-1.0584	cổ hưng	-0.0656
-1.0477	cổ nữ	-0.0656
-0.4443	cổng trường	-0.0656
-0.7584	cổ… khai	-0.0656
-0.7606	cộng 105	-0.0656
-0.7595	cụ thể	-0.0656
-1.0385	cục bồi	-0.1592
-1.6555	cục quản	-0.0656
-0.5594	cục trưởng	-0.0656
-1.6232	cục điều	-0.0656
-2.3016	của 6	-0.0656
-2.1202	của bạn	-0.0656
-1.6528	của bệnh	-0.1592
-1.9622	của bị	-0.0656
-2.2858	của chuyện	-0.0656
-2.2858	của chồng	-0.0656
-2.2278	của chủ	-0.0656
-2.2706	của cán	-0.0656
-1.4687	của công	-0.1257
-2.2278	của cơ	-0.0656
-2.2416	của cậu	-0.0656
-2.2416	của donald	-0.0656
-2.1889	của em	-0.0656
-2.1310	của hàng	-0.0656
-2.3350	của hương	-0.0656
-1.6905	của lan	-0.0656
-1.7318	của mình	-0.0656
-1.6421	của một	-0.0656
-1.6827	của ngân	-0.0656
-1.2035	của người	-0.1099
-2.2706	của những	-0.0656
-2.1648	của nạn	-0.0656
-1.6215	của sang	-0.1592
-2.2145	của trường	-0.0656
-2.3180	của tất	-0.0656
-2.1419	của vụ	-0.0656
-1.6565	của ông	-0.0656
-1.1713	cứu </s>	0.0000
-1.4069	cứu bệnh	-0.1592
-1.4167	cứu công	-0.0656
-1.4241	cứu cảnh	-0.0656
-1.4420	cứu rồi	-0.1592
-0.7595	cứu là bùi văn	-0.0656
-0.7574	cử hành	-0.0656
-1.2104	cửa các	-0.0656
-1.2134	cửa nhiều	-0.0656
-1.2150	cửa sau	-0.0656
-1.0616	cựu binh	-0.0656
-1.0584	cựu thẩm	-0.0656
-1.0434	danh </s>	0.0000
-1.2259	danh nhà	-0.0656
-1.2212	danh nhân	-0.0656
-1.0425	dao vào	-0.0656
-1.0584	dao đâm	-0.0656
-1.2356	di vật	-0.0656
-1.2323	di động	-0.0656
-1.2323	di ảnh	-0.0656
-1.1851	diện bị	-0.0656
-1.2165	diện khi	-0.0656
-1.2372	diện rõ	-0.0656
-1.6968	do mối	-0.0656
-1.6829	do nghi	-0.0656
-1.6608	do nguyễn	-0.0656
-1.5784	do người	-0.0656
-1.6275	do nhận	-0.0656
-1.5893	do sang	-0.0656
-1.6829	do sinh	-0.0656
-1.6784	do đó	-0.0656
-1.7111	do “trả	-0.0656
-0.5019	donald jack	-0.0656
-1.5875	donald muốn	-0.0656
-1.4955	donald và	-0.0656
-1.5439	donald để	-0.0656
-1.0434	doạ </s>	0.0000
-1.2244	doạ sẽ	-0.0656
-1.2212	doạ trả	-0.1592
-1.0509	dung lan	-0.0656
-1.0606	dung trao	-0.0656
-0.7595	duy nhất	-0.0656
-1.3616	duyên 32	-0.0656
-1.3616	duyên 37	-0.0656
-1.3509	duyên bắt	-0.0656
-1.3573	duyên vợ	-0.0656
-0.7601	dài suốt	-0.0656
-0.7601	dán đôi	-0.0656
-0.6209	dân sự	-0.0656
-1.2319	dân đưa	-0.0656
-0.7520	dây làm	-0.0656
-0.7584	dép cao	-0.0656
-0.7595	dò la	-0.0656
-0.7579	dù đầu	-0.0656
-1.2244	dùng axit	-0.0656
-1.2372	dùng nhục	-0.0656
-1.2013	dùng để	-0.0656
-1.2228	dũng cũng	-0.0656
-1.2275	dũng cậu	-0.0656
-1.2228	dũng năm	-0.0656
-0.7590	dư nên	-0.0656
-0.7590	dương phát	-0.0656
-0.7612	dưới tầng	-0.0656
-0.7595	dường như	-0.0656
-0.7446	dưỡng cho	-0.0656
-0.9232	dạ </s>	0.0000
-1.0530	dạ cả	-0.0656
-0.7612	dạng gầy	-0.0656
-1.0252	dẫn của	-0.0656
-1.0436	dẫn đến	-0.0656
-0.7595	dắt mối	-0.0656
-1.2275	dịch mang	-0.0656
-1.2150	dịch vụ	-0.0656
-1.2119	dịch ở	-0.0656
-0.7612	dịp 2/9…	-0.0656
-0.7563	dọa cũng	-0.0656
-0.7520	dỗ các	-0.0656
-0.7612	dụ dỗ	-0.0656
-1.0456	dụng này	-0.0656
-1.0562	dụng áo	-0.0656
-1.0616	dự kiến	-0.0656
-1.0562	dự phiên	-0.0656
-1.2356	dựng 105	-0.0656
-1.2323	dựng mộ	-0.0656
-1.2339	dựng tổng	-0.0656
-1.7922	em cái	-0.0656
-1.7050	em không	-0.0656
-1.7922	em nghe	-0.0656
-1.1734	em phải	-0.0656
-1.7922	em ruột	-0.0656
-1.7922	em rằng	-0.0656
-1.1786	em trai	-0.0656
-1.7229	em đi	-0.0656
-1.6399	em đã	-0.0656
-1.6435	facebook alfred	-0.0656
-1.5439	facebook cho	-0.0656
-1.5309	facebook của	-0.0656
-1.6562	facebook khoe	-0.0656
-1.6039	facebook lừa	-0.0656
-1.6477	facebook tự	-0.0656
-1.6519	facebook võ	-0.0656
-1.6394	facebook vừa	-0.0656
-0.7595	facebook… rất	-0.0656
-0.7584	file hình	-0.0656
-0.7379	ghen và	-0.1592
-1.3682	gia </s>	0.0000
-1.6168	gia các	-0.0656
-1.6564	gia hỗn	-0.0656
-0.3974	gia đình	-0.0656
-1.2212	giam phạm	-0.0656
-1.2073	giam ông	-0.0656
-1.2119	giam ở	-0.0656
-1.0434	gian </s>	0.0000
-1.2150	gian sau	-0.0656
-1.2291	gian vừa	-0.0656
-1.1894	giang cho	-0.0656
-1.1709	giang và	-0.0656
-1.2013	giang để	-0.0656
-0.7462	giao dịch	-0.0656
-1.3339	giao hàng	-0.0656
-1.3618	giao lưu	-0.0656
-0.8214	giá 100	-0.2265
-1.6579	giá 800	-0.0656
-1.6579	giá rẻ	-0.0656
-0.8204	giá trị	-0.0656
-0.4459	giác mạc	-0.1257
-1.2058	giúp bệnh	-0.0656
-1.2356	giúp sức	-0.0656
-1.2372	giúp đỡ	-0.0656
-0.7595	giường hưng	-0.0656
-1.2102	giả </s>	0.0000
-1.5302	giả di	-0.0656
-1.5238	giả hiện	-0.0656
-1.5176	giả hài	-0.0656
-1.5023	giả hơn	-0.0656
-1.4678	giả để	-0.0656
-0.3388	giải quyết	-0.0903
-1.6045	giải trí	-0.0656
-1.5395	giải được	-0.0656
-1.0541	giấu hành	-0.0656
-1.0584	giấu sự	-0.0656
-1.3467	giết chị	-0.0656
-1.3375	giết cô	-0.0656
-0.7320	giết người	-0.0656
-1.3594	giới campuchia	-0.0656
-1.3616	giới dắt	-0.0656
-1.3616	giới hạn	-0.0656
-1.3616	giới thiệu	-0.0656
-1.0562	giờ hải	-0.0656
-1.0312	giờ sang	-0.0656
-0.8249	giữ </s>	0.0000
-1.4886	giữ các	-0.0656
-1.5221	giữ hình	-0.0656
-1.5250	giữ lê	-0.0656
-1.4886	giữ lại	-0.0656
-1.0616	giữa 2013	-0.0656
-1.0562	giữa đường	-0.0656
-1.7971	gái 12	-0.0656
-1.7470	gái cùng	-0.0656
-1.7798	gái cũ	-0.0656
-1.7855	gái cảm	-0.1592
-1.6280	gái của	-0.0656
-1.7855	gái hết	-0.0656
-1.7741	gái hứa	-0.0656
-1.6973	gái không	-0.0656
-1.7798	gái ngã	-0.0656
-1.7855	gái đau	-0.0656
-1.7165	gái đi	-0.0656
-1.0606	gánh giữa	-0.0656
-1.0353	gánh với	-0.0656
-1.2372	gây hậu	-0.0656
-1.2291	gây thương	-0.0656
-1.2291	gây án	-0.0656
-0.4457	gã đàn	-0.1592
-1.0530	gì thì	-0.0656
-1.0384	gì về	-0.0656
-0.7430	gòn bị	-0.0656
-0.7601	gõ cửa	-0.0656
-0.7547	gạt tình	-0.0656
-0.7536	gấp… sau	-0.0656
-1.7029	gần 100	-0.0656
-1.0961	gần cầu	-0.2265
-1.6211	gần một	-0.0656
-1.6820	gần nhà	-0.0656
-1.6779	gần tên	-0.0656
-1.0919	gần đây	-0.0656
-1.6820	gần đó	-0.0656
-0.7612	gầy gộc	-0.0656
-1.5928	gặp bác	-0.0656
-1.6032	gặp gỡ	-0.0656
-0.9850	gặp mặt	-0.0656
-1.5026	gặp người	-0.0656
-1.5725	gặp phải	-0.0656
-1.5928	gặp rất	-0.0656
-1.2991	gọi cho	-0.0656
-1.2917	gọi của	-0.0656
-1.3404	gọi nhưng	-0.0656
-1.3573	gọi tới	-0.0656
-1.0562	gồm nước	-0.0656
-1.0573	gồm thúy	-0.0656
-0.6864	gộc </s>	0.0000
-0.7568	gỡ định	-0.0656
-1.4993	gửi cho	-0.0656
-1.6030	gửi dưới	-0.0656
-1.5497	gửi hàng	-0.0656
-1.6030	gửi kèm	-0.0656
-1.5809	gửi quà	-0.0656
-1.5398	gửi từ	-0.0656
-1.5918	gửi vksnd	-0.0656
-1.9786	hai bên	-0.0656
-1.3984	hai bản	-0.1592
-1.8004	hai bị	-0.0656
-1.9171	hai cô	-0.0656
-1.9434	hai cùng	-0.1592
-1.9786	hai hôm	-0.0656
-1.9571	hai lần	-0.0656
-1.9502	hai nam	-0.0656
-1.8103	hai người	-0.0656
-1.9235	hai nạn	-0.0656
-0.7437	hai nữ	-0.5944
-1.9108	hai đang	-0.0656
-2.0012	hai đeo	-0.0656
-1.0584	ham lấy	-0.0656
-1.0562	ham xuất	-0.0656
-1.3002	hay </s>	0.0000
-1.6516	hay có	-0.0656
-1.7563	hay ghen	-0.1592
-1.7302	hay gia	-0.0656
-1.7353	hay những	-0.0656
-1.7104	hay số	-0.0656
-1.7056	hay theo	-0.0656
-1.7153	hay thông	-0.0656
-1.6778	hay trong	-0.0656
-1.5999	hay đã	-0.0656
-1.1713	hcm </s>	0.0000
-1.4394	hcm tiếp	-0.0656
-1.4446	hcm tạm	-0.1592
-1.3723	hcm đã	-0.0656
-1.4266	hcm đồng	-0.0656
-0.7541	hiếp nữ	-0.1592
-0.7584	hiếuôtô chở	-0.0656
-1.6605	hiện 1	-0.0656
-1.5746	hiện có	-0.0656
-1.6519	hiện diện	-0.0656
-1.6477	hiện giao	-0.0656
-1.6562	hiện kịp	-0.0656
-1.6605	hiện loanh	-0.0656
-1.6353	hiện nghi	-0.0656
-1.6272	hiện trường	-0.0656
-1.1837	hiệu của	-0.0656
-1.2275	hiệu gửi	-0.0656
-1.2339	hiệu lực	-0.0656
-0.7568	hoa điện	-0.0656
-1.2134	hoan tại	-0.0656
-1.1894	hoan được	-0.0656
-1.2013	hoan để	-0.0656
-0.7493	hoe về	-0.0656
-1.0595	hoàn kiếm	-0.0656
-1.0606	hoàn tất	-0.0656
-1.3242	hoàng thanh	-0.0656
-1.3594	hoàng táo	-0.0656
-1.3616	hoàng táobịa	-0.0656
-1.3616	hoàng việtkiều	-0.0656
-0.7430	hoành bị	-0.0656
-1.2323	hoạch chi	-0.0656
-1.2212	hoạch trả	-0.0656
-1.2196	hoạch tạt	-0.1257
-0.7612	hoạn nhỏ	-0.0656
-1.0616	hoảng hốt	-0.0656
-1.0606	hoảng loạn	-0.0656
-0.7504	hoặc bệnh	-0.0656
-1.2374	hung khí	-0.0656
-0.6199	hung thủ	-0.0656
-1.3618	huyện hàm	-0.0656
-0.7430	huyện việt	-0.2265
-1.3618	huyện đắk	-0.0656
-0.7552	huânkẻ tạt	-0.0656
-0.6864	huỷ </s>	0.0000
-1.0377	hà </s>	0.0000
-1.9741	hà -	-0.0656
-1.8203	hà cho	-0.0656
-1.4048	hà chị	-0.0656
-2.0144	hà cung	-0.0656
-1.9590	hà cũng	-0.0656
-2.0060	hà gọi	-0.0656
-2.0229	hà kể	-0.0656
-2.0144	hà mượn	-0.0656
-1.9665	hà mới	-0.0656
-1.1934	hà nội	-0.0656
-1.4027	hà phải	-0.0656
-1.7552	hà và	-0.0656
-0.1288	hài cốt	-0.1099
-0.7601	hàm thuận	-0.0656
-1.7865	hàng bị	-0.0656
-1.9938	hàng chính	-0.1592
-1.9764	hàng chúng	-0.0656
-1.8580	hàng có	-0.0656
-1.3455	hàng của	-0.0656
-2.0212	hàng hiệu	-0.0656
-1.8916	hàng hà	-0.0656
-1.8778	hàng không	-0.0656
-1.4215	hàng loạt	-0.1592
-2.0307	hàng online	-0.0656
-1.9597	hàng sẽ	-0.0656
-2.0307	hàng sớm	-0.0656
-1.9436	hàng theo	-0.0656
-1.8847	hàng từ	-0.0656
-1.7347	hàng và	-0.0656
-2.0307	hàng xách	-0.0656
-2.0212	hàng xóm	-0.0656
-1.6597	hành hôn	-0.0656
-1.0469	hành nghề	-0.0656
-0.3974	hành vi	-0.0946
-0.7612	hào phóng	-0.0656
-0.7601	hét đau	-0.0656
-1.4435	hình người	-0.0656
-1.5270	hình sự	-0.0656
-1.5302	hình thành	-0.0656
-1.5145	hình tội	-0.0656
-1.5270	hình vksnd	-0.0656
-1.5366	hình ưa	-0.0656
-1.0467	hóa đang	-0.0656
-1.0541	hóa đơn	-0.0656
-1.4475	hôm nay	-0.0656
-0.8360	hôm sau	-0.0656
-0.8398	hôm đó	-0.0656
-1.0616	hôn lễ	-0.0656
-1.0606	hôn thú	-0.0656
-1.0595	hăm doạ	-0.0656
-1.0616	hăm dọa	-0.0656
-0.7568	hđxx sẽ	-0.0656
-1.0517	hơn </s>	0.0000
-1.2201	hơn 100	-0.0656
-1.8351	hơn 16	-0.0656
-1.8294	hơn 26	-0.0656
-1.8351	hơn 40	-0.0656
-1.8351	hơn dù	-0.0656
-1.7664	hơn khi	-0.0656
-1.1918	hơn một	-0.0656
-1.8074	hơn tháng	-0.0656
-0.7612	hư hỏng	-0.0656
-1.1189	hưng </s>	0.0000
-1.3551	hưng 21	-0.0656
-1.3488	hưng rồi	-0.0656
-1.2754	hưng và	-0.0656
-0.6864	hương </s>	0.0000
-1.0606	hướng dẫn	-0.0656
-1.0488	hướng nạn	-0.0656
-1.1713	hại </s>	0.0000
-1.4241	hại khi	-0.0656
-1.4094	hại không	-0.0656
-1.4191	hại nhiều	-0.0656
-1.4394	hại yêu	-0.0656
-0.7590	hạn nên	-0.0656
-1.5381	hải hiếuôtô	-0.0656
-0.2720	hải quan	-0.0656
-0.6864	hầm </s>	0.0000
-1.0584	hầu như	-0.0656
-1.0562	hầu tòa	-0.0656
-0.9232	hận </s>	0.0000
-1.0552	hận vì	-0.0656
-0.7612	hậu quả	-0.0656
-1.0520	hẹn ngày	-0.0656
-1.0488	hẹn ngân	-0.0656
-1.2372	hết mực	-0.0656
-1.2244	hết thì	-0.0656
-1.2356	hết đứng	-0.0656
-1.1189	hệ </s>	0.0000
-1.3488	hệ chưa	-0.0656
-1.3551	hệ mua	-0.0656
-1.3467	hệ yêu	-0.0656
-1.4420	họ chưa	-0.0656
-1.4473	họ kêu	-0.0656
-1.4499	họ la	-0.0656
-1.4216	họ lừa	-0.0656
-1.4473	họ phát	-0.0656
-1.3404	học chung	-0.0656
-1.3363	học cấp	-0.1592
-1.3509	học thời	-0.0656
-1.3163	học về	-0.2265
-0.7590	họp báo	-0.0656
-0.7612	hỏa hoạn	-0.0656
-1.0530	hỏi thì	-0.0656
-1.0616	hỏi thăm	-0.0656
-0.7601	hỏng hết	-0.0656
-0.7509	hốt nhận	-0.0656
-0.7606	hồ sơ	-0.0656
-0.7612	hồi hộp	-0.0656
-0.7595	hồng nguyên	-0.0656
-0.7557	hổ nhưng	-0.0656
-0.3966	hỗn chiến	-0.1257
-0.7606	hộ ôtô	-0.0656
-1.3530	hội facebook	-0.0656
-1.3530	hội nên	-0.0656
-1.3616	hội thỏa	-0.0656
-1.3446	hội việt	-0.1592
-0.7590	hộp chờ	-0.0656
-0.7612	hờ ruồng	-0.0656
-0.7425	hợp của	-0.0656
-0.7547	hủy hai	-0.0656
-1.4518	hứa bán	-0.0656
-0.8392	hứa sẽ	-0.0656
-0.8381	hứa trả	-0.1592
-0.6958	iphone 4	-0.0656
-1.5373	iphone 6s	-0.0656
-0.9189	iphone giá	-0.0656
-1.3812	jack cho	-0.0656
-1.4580	jack dường	-0.0656
-1.4526	jack giới	-0.0656
-1.3527	jack và	-0.0656
-1.3723	jack đã	-0.0656
-1.5881	khai báo	-0.0656
-1.4875	khai của	-0.0656
-1.5565	khai là	-0.0656
-1.5365	khai nhận	-0.0656
-1.5955	khai thường	-0.0656
-1.5175	khai với	-0.0656
-1.4993	khai được	-0.0656
-0.6864	khanh” </s>	0.0000
-1.9905	khi cha	-0.0656
-1.9268	khi chung	-0.0656
-1.9991	khi chuẩn	-0.0656
-1.8460	khi có	-0.0656
-1.8845	khi công	-0.0656
-1.9419	khi cả	-0.1592
-1.1712	khi gây	-0.2265
-1.9575	khi gửi	-0.0656
-1.3726	khi hai	-0.0656
-1.9268	khi liên	-0.0656
-1.7885	khi người	-0.0656
-1.9051	khi nữ	-0.0656
-1.9496	khi đó	-0.0656
-1.7939	khi được	-0.0656
-1.8779	khi đến	-0.0656
-0.7606	khiêm phó	-0.0656
-1.0477	khiến cô	-0.1592
-1.0573	khiến họ	-0.0656
-1.2244	khoa bình	-0.1592
-1.2181	khoa cấp	-0.0656
-1.2372	khoa nhiễm	-0.0656
-1.2307	khoe quen	-0.0656
-1.2244	khoe thân	-0.0656
-1.2323	khoe ảnh	-0.0656
-0.7601	khoá mạng	-0.0656
-1.0434	khoác </s>	0.0000
-1.2275	khoác ngoài	-0.0656
-1.2372	khoác đen	-0.0656
-1.2991	khoản cho	-0.0656
-1.2917	khoản của	-0.0656
-1.3488	khoản mang	-0.0656
-1.3363	khoản ngân	-0.1592
-1.0616	khoảng 9,3	-0.0656
-1.0373	khoảng một	-0.0656
-0.7612	khu vực	-0.0656
-0.7606	khuyên nhủ	-0.0656
-0.7590	khuyến cáo	-0.0656
-0.7425	khuẩn của	-0.0656
-1.1189	khác </s>	0.0000
-1.3573	khác nhau	-0.0656
-1.3530	khác phát	-0.0656
-1.2754	khác và	-0.0656
-0.7612	khâu nào	-0.0656
-0.7606	khí lao	-0.0656
-0.4459	khó khăn	-0.0656
-1.4314	không </s>	0.0000
-1.5139	không biết	-0.0656
-2.1302	không chấp	-0.0656
-1.2624	không có	-0.0656
-2.1188	không hôn	-0.0656
-2.1302	không lay	-0.0656
-2.0658	không muốn	-0.0656
-2.1188	không nghe	-0.0656
-1.9523	không nhận	-0.0656
-2.0968	không nội	-0.0656
-2.1302	không quên	-0.0656
-2.1302	không thoải	-0.1592
-1.5084	không thấy	-0.0656
-1.5139	không thể	-0.0656
-2.1302	không trực	-0.0656
-2.0010	không xác	-0.0656
-1.8686	không được	-0.0656
-2.1302	không được, sang	-0.0656
-2.0097	không đồng	-0.0656
-1.0499	khăn hơn	-0.0656
-1.0520	khăn phải	-0.0656
-1.0552	khả nghi	-0.0656
-1.0616	khả năng	-0.0656
-0.7595	khẩu trang	-0.0656
-0.7568	khẳng định	-0.0656
-0.7425	khỏe của	-0.0656
-0.7601	khỏi địa	-0.0656
-0.4451	khởi tố	-0.0656
-0.7601	kia đánh	-0.0656
-0.7601	kim biên	-0.0656
-0.7606	kinh tế	-0.0656
-0.7606	kiêm nhiệm	-0.0656
-1.1189	kiếm </s>	0.0000
-1.3262	kiếm hà	-0.0656
-1.3488	kiếm hài	-0.0656
-1.3573	kiếm sống	-0.0656
-0.7601	kiến chiều	-0.0656
-0.4455	kiểm tra	-0.0656
-1.0595	kiện dân	-0.0656
-1.0456	kiện hàng	-0.0656
-0.7612	kon tum	-0.0656
-0.7601	kèm 5	-0.0656
-1.3509	kéo 4	-0.0656
-1.3616	kéo dài	-0.0656
-1.3363	kéo tình	-0.2265
-1.2754	kéo và	-0.0656
-1.4517	kêu la	-0.0656
-0.6178	kêu oan	-0.0656
-1.4584	kêu thét	-0.0656
-0.7601	ký địa	-0.0656
-1.0595	kẻ thù	-0.0656
-1.0584	kẻ đâm	-0.0656
-1.2319	kế bên	-0.0656
-0.6219	kế hoạch	-0.1548
-1.4582	kết buồn	-0.0656
-0.8340	kết bạn	-0.0656
-1.4413	kết tội	-0.0656
-1.4460	kết án	-0.1592
-0.7606	kề dao	-0.0656
-0.9232	kể </s>	0.0000
-1.0530	kể chị	-0.0656
-0.9232	kịp </s>	0.0000
-1.0562	kịp thời	-0.0656
-0.7606	kỹ sư	-0.0656
-1.3488	la gặp	-0.0656
-1.3616	la hét	-0.0656
-1.3302	la tại	-0.0656
-1.3573	la đau	-0.0656
-0.7612	lai lịch	-0.0656
-1.3581	lan </s>	0.0000
-1.8439	lan bỏ	-0.0656
-1.2312	lan lại	-0.0656
-1.8500	lan lấy	-0.0656
-1.7865	lan lừa	-0.0656
-1.8200	lan mới	-0.0656
-1.8563	lan sống	-0.0656
-1.8259	lan tiếp	-0.0656
-1.1926	lan và	-0.0656
-1.7037	lan được	-0.0656
-1.7759	lan ở	-0.0656
-1.0552	lao lý	-0.0656
-1.0425	lao vào	-0.0656
-0.7379	laptop và	-0.0656
-0.7579	lay chuyển	-0.0656
-0.7612	leo rào	-0.0656
-1.8693	liên 63	-0.0656
-1.8448	liên bỏ	-0.0656
-1.8631	liên hệ	-0.0656
-1.8389	liên khai	-0.0656
-1.8631	liên khoe	-0.0656
-1.8693	liên lạc	-0.0656
-1.0274	liên quan	-0.0656
-1.8273	liên tiếp	-0.0656
-1.2544	liên tục	-0.0656
-1.6911	liên đã	-0.0656
-0.1933	liệt sĩ	-0.0847
-0.7612	lo lắng	-0.0656
-0.7606	loanh quanh	-0.0656
-1.0606	long phường	-0.2265
-1.0530	long trường	-0.1592
-0.7584	loại hình	-0.0656
-1.0573	loạn kêu	-0.0656
-1.0616	loạn xạ	-0.2265
-0.4459	loạng choạng	-0.1803
-0.7601	loạt phụ	-0.1592
-0.7525	luôn ở	-0.0656
-1.2165	luật là	-0.0656
-1.2323	luật nguyên	-0.0656
-1.2356	luật sư	-0.0656
-0.7612	luống cuống	-0.0656
-1.9178	là axit	-0.0656
-1.3400	là bạn	-0.1592
-1.8609	là công	-0.0656
-1.8955	là hơn	-0.0656
-1.9832	là leo	-0.0656
-1.9493	là liệt	-0.0656
-1.9832	là loại	-0.0656
-1.9332	là lý	-0.0656
-1.8166	là một	-0.0656
-1.9028	là nhân	-0.0656
-1.9832	là quy	-0.0656
-1.9332	là thủ	-0.0656
-1.9832	là tiểu	-0.0656
-1.9102	là tài	-0.0656
-1.9832	là tính	-0.0656
-1.9659	là độc	-0.0656
-1.2066	làm </s>	0.0000
-2.0456	làm dịch	-0.0656
-0.9560	làm giả	-0.0656
-2.0456	làm gì	-0.0656
-2.0541	làm kỹ	-0.0656
-2.0291	làm ngã	-0.0656
-2.0541	làm ngơ	-0.0656
-1.2146	làm quen	-0.2265
-2.0456	làm sai	-0.0656
-2.0054	làm thủ	-0.0656
-1.2109	làm việc	-0.1099
-1.9978	làm đơn	-0.0656
-0.9232	lái </s>	0.0000
-1.0262	lái bị	-0.0656
-0.7595	lâm huyện	-0.0656
-0.7595	lân la	-0.0656
-0.7584	lây thương	-0.1592
-0.7606	lã xuân	-0.0656
-1.0312	lãnh sang	-0.0656
-1.0606	lãnh đạo	-0.0656
-1.4584	lê huânkẻ	-0.0656
-0.6126	lê thanh	-0.2265
-1.4472	lê thị	-0.0656
-1.1615	lên bệnh	-0.2265
-0.9590	lên kế	-0.2265
-1.7205	lên lại	-0.0656
-1.1828	lên mạng	-0.0656
-1.7785	lên tp	-0.0656
-1.7463	lên tạt	-0.1803
-1.7205	lên đến	-0.0656
-0.7595	lòng tin	-0.0656
-0.7601	lôi kéo	-0.0656
-1.5809	lúc còn	-0.0656
-1.5738	lúc cả	-0.0656
-1.5992	lúc mâu	-0.0656
-1.6030	lúc mấy	-0.0656
-1.5497	lúc này	-0.0656
-1.5845	lúc tìm	-0.0656
-1.5565	lúc xác	-0.0656
-1.6986	lý 21	-0.0656
-1.6861	lý giải	-0.0656
-1.0867	lý nguyễn	-0.1592
-1.6986	lý sát	-0.1592
-1.0816	lý trong	-0.0656
-1.6393	lý từ	-0.0656
-1.6902	lý xuất	-0.0656
-0.7379	lăk và	-0.0656
-0.7606	lưng cổ	-0.0656
-0.7379	lưu và	-0.0656
-1.3530	lượng tand	-0.0656
-1.3467	lượng truy	-0.0656
-1.3343	lượng xác	-0.0656
-1.3343	lượng điều	-0.0656
-0.6864	lạc </s>	0.0000
-1.1616	lại </s>	0.0000
-1.7865	lại bị	-0.0656
-1.8033	lại cho	-0.0656
-1.9680	lại cơ	-0.0656
-2.0307	lại cặp	-0.0656
-1.9938	lại ngồi	-0.0656
-1.8778	lại nhận	-0.0656
-2.0118	lại nhắn	-0.0656
-2.0307	lại nhếch	-0.0656
-1.9597	lại sẽ	-0.0656
-1.9281	lại tình	-0.0656
-1.9597	lại việt	-0.0656
-1.7347	lại và	-0.0656
-1.4075	lại vì	-0.0656
-2.0118	lại vợ	-0.0656
-2.0307	lại đăng	-0.0656
-1.8033	lại được	-0.0656
-0.7612	lảng vảng	-0.0656
-1.3551	lấy chồng	-0.0656
-1.3573	lấy trộm	-0.0656
-1.3242	lấy từ	-0.0656
-1.3446	lấy xe	-0.0656
-1.8060	lần anh	-0.1592
-1.8231	lần nhắn	-0.1592
-1.2015	lần này	-0.0656
-1.8289	lần níu	-0.1592
-1.8173	lần nữa	-0.0656
-1.2228	lần trò	-0.1592
-1.8173	lần xuống	-0.0656
-1.8116	lần xảy	-0.0656
-1.8289	lần đứt	-0.0656
-1.8289	lần ức	-0.0656
-0.7547	lậu tiền	-0.0656
-0.7579	lắng vì	-0.0656
-0.7379	lễ và	-0.0656
-0.7612	lệch hồ	-0.0656
-0.4445	lệnh truy	-0.1592
-0.6864	lịch </s>	0.0000
-0.7563	lọt qua	-0.0656
-0.5742	lớn </s>	0.0000
-1.1804	lớn và	-0.0656
-1.5893	lời chia	-0.0656
-1.5893	lời hứa	-0.0656
-0.9850	lời khai	-0.1592
-1.5531	lời này	-0.0656
-1.5997	lời vnexpress	-0.0656
-1.5595	lời xác	-0.0656
-1.5186	lừa </s>	0.0000
-2.0208	lừa 8	-0.0656
-1.9188	lừa bệnh	-0.0656
-1.8489	lừa của	-0.0656
-1.9612	lừa ngân	-0.0656
-1.9448	lừa nhiều	-0.0656
-1.9960	lừa quà	-0.0656
-1.4033	lừa tiền	-0.0656
-1.4033	lừa tình	-0.0656
-0.4860	lừa đảo	-0.1099
-0.6215	lực lượng	-0.0656
-1.2360	lực pháp	-0.0656
-0.7612	ma lâm	-0.0656
-0.7606	mai phục	-0.0656
-1.0606	malaysia kiện	-0.0656
-1.0373	malaysia để	-0.0656
-1.6001	mang hận	-0.0656
-1.6034	mang thai	-0.0656
-1.5713	mang theo	-0.0656
-0.7606	mang tên	-0.1257
-1.5356	mang về	-0.0656
-0.7595	manh mối	-0.0656
-0.7601	me xã	-0.0656
-0.7601	mi mắt	-0.0656
-1.4580	minh mất	-0.0656
-1.4317	minh theo	-0.0656
-1.4368	minh thì	-0.0656
-1.4118	minh từ	-0.0656
-1.3812	minh được	-0.0656
-1.0552	mong muốn	-0.0656
-1.0292	mong được	-0.0656
-1.3523	mua 3	-0.0656
-0.7467	mua thuốc	-0.0656
-1.3285	mua từ	-0.0656
-1.5809	muốn gửi	-0.0656
-1.5497	muốn hàng	-0.0656
-1.5431	muốn làm	-0.0656
-1.5668	muốn nhân	-0.0656
-1.5365	muốn nhận	-0.0656
-1.5955	muốn tiến	-0.0656
-1.6030	muốn tặng	-0.0656
-0.7509	mà không	-0.0656
-0.7606	mái mâu	-0.1592
-1.5270	máy mua	-0.0656
-1.5053	máy nhưng	-0.0656
-1.4934	máy sau	-0.0656
-1.4964	máy trên	-0.0656
-1.4705	máy về	-0.0656
-1.4876	máy ở	-0.0656
-0.4459	mâu thuẫn	-0.1257
-0.9232	mình </s>	0.0000
-1.0584	mình cuối	-0.0656
-0.3958	món quà	-0.0656
-0.7612	môi cười	-0.0656
-0.7612	mũ cối	-0.0656
-0.7612	mơ ước	-0.0656
-1.3488	mưu giải	-0.0656
-1.3262	mưu làm	-0.0656
-1.3488	mưu sinh	-0.0656
-1.3530	mưu thúy	-0.0656
-1.2291	mượn chiếc	-0.0656
-1.1837	mượn của	-0.0656
-1.2307	mượn facebook	-0.0656
-1.0595	mạc mắt	-0.0656
-1.0163	mạc và	-0.1592
-1.1906	mạng </s>	0.0000
-0.8411	mạng facebook	-0.0656
-1.4006	mạng với	-0.0656
-1.4533	mạng xã	-0.1592
-0.7579	mả hài	-0.0656
-0.7531	mất nhiều	-0.0656
-0.7541	mấy cô	-0.0656
-1.0562	mẫn thị	-0.0656
-1.0595	mẫn đức	-0.0656
-1.2372	mắc bẫy	-0.0656
-1.2028	mắc về	-0.0656
-1.2119	mắc ở	-0.0656
-1.2307	mắt bên	-0.0656
-1.2356	mắt giác	-0.0656
-1.2372	mắt đỏ	-0.0656
-1.4484	mặc bên	-0.0656
-1.4273	mặc bộ	-0.0656
-0.8264	mặc sang	-0.0656
-1.4460	mặc thêm	-0.0656
-0.8272	mặt </s>	0.0000
-1.7386	mặt bên	-0.0656
-1.7039	mặt hai	-0.0656
-1.7523	mặt loạng	-0.2265
-1.7209	mặt quỳnh	-0.0656
-1.7296	mặt rồi	-0.0656
-1.1394	mặt tay	-0.1257
-1.0477	mẹ cô	-0.0656
-1.0312	mẹ sang	-0.0656
-0.7531	mệnh tại	-0.0656
-0.7441	mọi người	-0.1592
-1.3504	mối con	-0.0656
-1.3618	mối duy	-0.0656
-0.7439	mối quan	-0.1592
-0.7612	mồ mả	-0.0656
-0.7441	mỗi người	-0.0656
-1.3580	mộ giả	-0.0656
-0.7448	mộ liệt	-0.2265
-1.3599	mộ vô	-0.0656
-1.6201	một cán	-0.1592
-2.2264	một gã	-0.0656
-1.6106	một lần	-0.0656
-2.2136	một món	-0.0656
-2.1440	một nam	-0.0656
-2.1334	một ngày	-0.0656
-1.1141	một người	-0.1099
-2.1334	một năm	-0.0656
-1.6266	một nơi	-0.0656
-1.5952	một nạn	-0.1592
-1.4053	một phụ	-0.2265
-1.3918	một số	-0.1257
-2.1774	một tháng	-0.0656
-2.2264	một thùng	-0.0656
-2.1774	một thời	-0.0656
-2.0658	một trong	-0.0656
-2.1440	một trường	-0.0656
-1.6331	một tuần	-0.0656
-2.1660	một tỷ	-0.0656
-1.7404	mới biết	-0.0656
-1.7509	mới chịu	-0.0656
-1.6516	mới có	-0.0656
-1.7353	mới hiện	-0.0656
-1.7509	mới hoảng	-0.0656
-1.7302	mới hình	-0.0656
-1.7153	mới nói	-0.0656
-1.6689	mới từ	-0.0656
-1.7252	mới đây	-0.1592
-1.6778	mới ở	-0.0656
-1.2291	mở phiên	-0.0656
-1.2372	mở rộng	-0.0656
-1.2013	mở để	-0.0656
-0.9232	mức </s>	0.0000
-1.0595	mức độ	-0.0656
-0.7612	mực khuyên	-0.0656
-1.4942	mỹ của	-0.0656
-1.5692	mỹ lan	-0.0656
-1.5469	mỹ làm	-0.0656
-1.6032	mỹ phẩm	-0.0656
-1.4701	mỹ và	-0.0656
-0.9708	mỹ về	-0.1592
-0.6864	n </s>	0.0000
-1.4695	nam </s>	0.0000
-1.9888	nam giữ	-0.0656
-1.9689	nam gặp	-0.0656
-1.9255	nam là	-0.0656
-1.9436	nam nhưng	-0.0656
-1.9498	nam qua	-0.0656
-0.9083	nam sinh	-0.0656
-0.7423	nam thanh	-0.4483
-1.7731	nam và	-0.0656
-1.8601	nam với	-0.0656
-1.9957	nam đóng	-0.0656
-0.7568	name tên	-0.0656
-1.6394	nay anh	-0.0656
-1.5927	nay các	-0.0656
-1.6353	nay cục	-0.0656
-1.6605	nay hđxx	-0.0656
-1.6272	nay quỳnh	-0.0656
-1.6605	nay so	-0.0656
-1.6001	nay tại	-0.0656
-1.6039	nay đang	-0.0656
-0.7601	ngang nhau	-0.0656
-1.2339	ngay chiều	-0.0656
-1.2307	ngay hôm	-0.0656
-1.2150	ngay sau	-0.0656
-1.0573	nghe họ	-0.0656
-1.0595	nghe máy	-0.0656
-0.3391	nghi can	-0.0946
-1.5761	nghi cảnh	-0.0656
-1.5912	nghi mang	-0.0656
-0.7612	nghiêm trọng	-0.0656
-0.6209	nghĩa trang	-0.1592
-1.2347	nghĩa trung	-0.0656
-1.2372	nghề dụ	-0.0656
-1.2212	nghề lên	-0.0656
-1.2291	nghề tìm	-0.0656
-0.7584	nghệ cao	-0.0656
-0.7504	nghị bệnh	-0.0656
-1.2643	ngoài </s>	0.0000
-1.6394	ngoài chiếc	-0.0656
-1.6562	ngoài mẹ	-0.0656
-1.6272	ngoài nói	-0.0656
-1.6193	ngoài ra	-0.0656
-1.6313	ngoài truy	-0.0656
-1.6562	ngoài vùng	-0.0656
-1.6562	ngoài đeo	-0.0656
-0.7612	ngoái thấp	-0.0656
-1.6152	ngoại cho	-0.0656
-1.7457	ngoại cảm	-0.0656
-1.5999	ngoại của	-0.0656
-1.7302	ngoại hình	-0.0656
-1.6645	ngoại không	-0.0656
-1.7404	ngoại quốc	-0.0656
-1.7563	ngoại tệ	-0.0656
-1.7353	ngoại tỉnh	-0.0656
-1.5674	ngoại và	-0.0656
-1.5999	ngoại đã	-0.0656
-1.3573	nguyên luật	-0.0656
-1.3404	nguyên nhân	-0.0656
-1.3616	nguyên thượng	-0.0656
-1.3573	nguyên trưởng	-0.0656
-1.8146	nguyễn anh	-0.0656
-1.7939	nguyễn chung	-0.0656
-1.2040	nguyễn thanh	-0.2265
-1.2178	nguyễn thị	-0.0656
-1.8021	nguyễn trường	-0.0656
-0.5727	nguyễn văn	-0.1257
-0.7584	ngành tòa	-0.0656
-1.3631	ngày </s>	0.0000
-1.9299	ngày 13/10	-0.0656
-1.3155	ngày 15/10	-0.1257
-1.9299	ngày 15/4/2014	-0.0656
-1.9299	ngày 15/8	-0.0656
-1.9222	ngày 16/10	-0.0656
-1.9299	ngày 20/8	-0.0656
-1.9299	ngày 4/10	-0.0656
-1.9299	ngày 4/11/2013	-0.0656
-1.8999	ngày chờ	-0.0656
-1.8390	ngày cảnh	-0.0656
-1.9222	ngày hẹn	-0.0656
-1.8717	ngày trước	-0.0656
-1.8265	ngày đi	-0.0656
-1.4050	ngân </s>	0.0000
-1.9241	ngân 26	-0.0656
-1.8981	ngân chỉ	-0.0656
-1.8675	ngân em	-0.0656
-0.8245	ngân hàng	-0.1006
-1.8281	ngân lại	-0.0656
-1.7970	ngân một	-0.0656
-1.9309	ngân răm	-0.0656
-1.8795	ngân thông	-0.0656
-1.2647	ngân đã	-0.0656
-1.7586	ngân được	-0.0656
-1.3485	ngã xe	-0.0656
-0.5209	ngã xuống	-0.2772
-0.7446	ngãi cho	-0.0656
-0.7601	ngôi sao	-0.0656
-0.7606	ngăn kịp	-0.1592
-0.7525	ngũ công	-0.0656
-0.7488	ngơ để	-0.0656
-1.5149	người </s>	0.0000
-2.1335	người bệnh	-0.0656
-1.1369	người bị	-0.1006
-2.3645	người can	-0.1592
-2.4220	người chuyên	-0.0656
-2.3645	người chồng	-0.0656
-2.1129	người có	-0.0656
-1.7591	người cô	-0.0656
-2.4220	người cô…	-0.0656
-2.4220	người cần	-0.0656
-1.9987	người của	-0.0656
-2.3828	người dân	-0.0656
-2.3645	người giao	-0.0656
-2.3828	người khác	-0.0656
-1.5683	người liên	-0.2265
-2.3469	người lúc	-0.0656
-2.3138	người ngoại	-0.0656
-2.3469	người ngồi	-0.0656
-1.5770	người nhà	-0.1257
-2.1442	người nhận	-0.0656
-2.1897	người này	-0.0656
-2.3300	người nước	-0.0656
-2.0477	người sang	-0.0656
-2.4020	người sử	-0.0656
-2.3469	người tham	-0.0656
-1.7819	người thân	-0.0656
-2.3828	người tuyên	-0.0656
-1.7635	người tình	-0.0656
-2.3645	người xưng	-0.0656
-1.7866	người yêu	-0.0656
-1.7503	người đi	-0.1592
-1.3349	người đàn	-0.5275
-1.4582	ngồi nhậu	-0.0656
-0.8352	ngồi sau	-0.1803
-1.4557	ngồi tù	-0.0656
-1.4509	ngồi xuống	-0.0656
-0.7478	ngộ với	-0.0656
-1.1851	ngờ bị	-0.0656
-1.2165	ngờ khi	-0.0656
-1.2372	ngờ rút	-0.0656
-1.0562	ngụ quận	-0.0656
-1.0562	ngụ thị	-0.0656
-1.2356	nhanh chân	-0.0656
-1.2372	nhanh chóng	-0.0656
-1.2088	nhanh vào	-0.0656
-0.5742	nhau </s>	0.0000
-1.2080	nhau về	-0.0656
-1.3488	nhiên do	-0.0656
-1.3343	nhiên khi	-0.0656
-1.3242	nhiên thanh	-0.0656
-1.3594	nhiên trao	-0.0656
-1.9268	nhiều cơ	-0.0656
-1.9749	nhiều cựu	-0.0656
-1.9749	nhiều giờ	-0.0656
-1.9749	nhiều khó	-0.0656
-1.9749	nhiều khả	-0.0656
-1.9502	nhiều lúc	-0.0656
-1.1402	nhiều lần	-0.1388
-1.7696	nhiều người	-0.0656
-1.9423	nhiều thời	-0.0656
-1.9749	nhiều tiếng	-0.0656
-1.8905	nhiều tiền	-0.0656
-1.9119	nhiều tài	-0.0656
-1.9749	nhiều tư	-0.0656
-1.9749	nhiều vùng	-0.1592
-1.9268	nhiều đơn	-0.0656
-0.7612	nhiễm khuẩn	-0.0656
-0.6817	nhiệm </s>	0.0000
-1.3393	nhiệm bồi	-0.0656
-1.3580	nhiệm gây	-0.0656
-1.3374	nhà </s>	0.0000
-1.7255	nhà bệnh	-0.1592
-1.7607	nhà bộ	-0.0656
-1.7989	nhà còn	-0.0656
-1.7989	nhà ngoại	-0.0656
-1.2152	nhà nước	-0.0656
-1.7659	nhà nạn	-0.0656
-1.7876	nhà quỳnh	-0.0656
-1.7555	nhà sau	-0.0656
-1.7713	nhà tạt	-0.0656
-1.7453	nhà ở	-0.1592
-0.7515	nhát vào	-0.0656
-1.2866	nhân </s>	0.0000
-2.2143	nhân bà	-0.0656
-1.9140	nhân bị	-0.0656
-2.2143	nhân chờ	-0.0656
-2.1730	nhân chủ	-0.0656
-2.2442	nhân chứng	-0.0656
-2.2762	nhân hoặc	-0.0656
-2.0584	nhân hà	-0.0656
-2.2442	nhân khác	-0.0656
-2.0387	nhân không	-0.0656
-2.2143	nhân liệt	-0.0656
-1.6216	nhân là	-0.0656
-2.1354	nhân lên	-0.0656
-2.2290	nhân nữa	-0.0656
-2.2143	nhân phát	-0.0656
-2.1476	nhân qua	-0.0656
-2.1601	nhân thân	-0.0656
-2.0686	nhân trong	-0.3514
-2.1601	nhân tên	-0.0656
-2.2143	nhân tố	-0.0656
-1.6683	nhân viên	-0.0656
-1.8472	nhân và	-0.0656
-1.9845	nhân với	-0.0656
-2.2001	nhân vừa	-0.0656
-1.6180	nhân đang	-0.0656
-2.2762	nhân đâu	-0.0656
-2.1864	nhân đây	-0.0656
-1.9068	nhân đã	-0.1592
-1.5599	nhân được	-0.1257
-1.0384	nhìn có	-0.0656
-1.0562	nhìn thấy	-0.0656
-1.4484	nhóm cán	-0.0656
-1.4582	nhóm kia	-0.0656
-1.4319	nhóm nguyễn	-0.0656
-0.8346	nhóm này	-0.0656
-0.7612	nhơn phú	-0.2265
-1.3509	như 2	-0.0656
-1.3616	như bi	-0.0656
-1.2917	như đã	-0.0656
-1.3616	như ảo	-0.0656
-1.7646	nhưng còn	-0.0656
-1.7293	nhưng cô	-0.0656
-1.7862	nhưng cư	-0.0656
-1.7862	nhưng hung	-0.0656
-1.7011	nhưng không	-0.0656
-1.7594	nhưng lần	-0.0656
-1.7646	nhưng quà	-0.0656
-1.7974	nhưng thật	-0.0656
-1.6339	nhưng đã	-0.0656
-1.1441	nhưng được	-0.1257
-0.7406	nhất là	-0.0656
-1.3196	nhất một	-0.0656
-1.3467	nhất định	-0.0656
-0.7563	nhẫn cùng	-0.0656
-1.9778	nhận các	-0.0656
-2.1099	nhận diện	-0.0656
-2.1099	nhận giúp	-0.0656
-1.9932	nhận hàng	-0.0656
-2.0612	nhận hành	-0.0656
-2.1310	nhận nuôi	-0.0656
-2.1310	nhận nối	-0.0656
-2.0345	nhận ra	-0.0656
-2.0800	nhận thêm	-0.0656
-2.0521	nhận thông	-0.0656
-2.1203	nhận thùng	-0.0656
-2.1203	nhận thức	-0.0656
-2.0997	nhận toàn	-0.0656
-2.0521	nhận điện	-0.0656
-1.2461	nhận đã	-0.0656
-2.0612	nhận đơn	-0.0656
-0.8559	nhận được	-0.0656
-2.0521	nhận định	-0.0656
-1.2165	nhập cảnh	-0.0656
-1.2356	nhập viện	-0.0656
-1.2372	nhập ổn	-0.0656
-0.7601	nhật luật	-0.0656
-0.7478	nhậu với	-0.0656
-1.2360	nhắn nhủ	-0.0656
-0.6209	nhắn tin	-0.1257
-0.7467	nhẹ dạ	-0.0656
-0.7423	nhẹ hơn	-0.2265
-0.7612	nhếch môi	-0.0656
-0.7612	nhịp đập	-0.0656
-0.6864	nhỏ </s>	0.0000
-1.0499	nhờ tạt	-0.0656
-1.0436	nhờ đến	-0.0656
-0.7584	nhục hình	-0.0656
-1.0312	nhủ sang	-0.0656
-1.0353	nhủ với	-0.0656
-0.8247	những người	-0.0656
-1.4389	những thông	-0.0656
-1.4582	những tưởng	-0.0656
-1.4557	những vô	-0.0656
-0.9232	nhựa </s>	0.0000
-1.0530	nhựa axit	-0.0656
-0.7612	nick name	-0.0656
-1.0404	ninh bệnh	-0.0656
-1.0163	ninh và	-0.0656
-1.5334	niên bước	-0.0656
-1.4462	niên cho	-0.0656
-1.5366	niên quê	-0.0656
-1.5238	niên vượt	-0.1592
-1.4905	niên đi	-0.0656
-1.4993	niên đồng	-0.0656
-0.7612	niềm vui	-0.0656
-0.6864	nuôi </s>	0.0000
-0.6864	nào </s>	0.0000
-1.2355	này </s>	0.0000
-2.1387	này 6	-0.0656
-2.1510	này ban	-0.0656
-2.1387	này bất	-0.0656
-1.8616	này bị	-0.0656
-2.1038	này chiếc	-0.0656
-1.4682	này cho	-0.0656
-2.0928	này còn	-0.0656
-2.0225	này cô	-0.0656
-2.0928	này cục	-0.0656
-2.0512	này em	-0.0656
-2.1268	này gọi	-0.0656
-1.9869	này hà	-0.0656
-2.0414	này hơn	-0.0656
-1.9869	này làm	-0.0656
-1.9869	này lại	-0.0656
-2.0133	này lừa	-0.0656
-2.1636	này ngành	-0.0656
-2.0043	này nhiều	-0.0656
-2.0512	này nhưng	-0.1592
-2.1636	này ném	-0.0656
-1.2712	này đã	-0.0656
-0.7595	nã đặc	-0.1592
-0.7601	ném ca	-0.0656
-1.4553	nên hầu	-0.0656
-1.4446	nên quyết	-0.0656
-1.4368	nên quỳnh	-0.0656
-1.4368	nên sẽ	-0.0656
-1.3998	nên để	-0.0656
-0.4455	níu kéo	-0.1803
-0.7568	nó nói	-0.0656
-0.8715	nói chuyện	-0.0656
-1.6900	nói chỉ	-0.0656
-1.6942	nói lời	-0.0656
-1.6462	nói trong	-0.0656
-1.6133	nói với	-0.0656
-1.6538	nói đang	-0.0656
-1.6817	nói đó	-0.0656
-1.8803	năm -	-0.0656
-1.9010	năm 10	-0.0656
-1.9302	năm 17	-0.0656
-1.9302	năm 2008	-0.0656
-1.9302	năm 2010-2013	-0.0656
-1.3193	năm 2012	-0.0656
-1.9302	năm 2015	-0.0656
-1.7285	năm bị	-0.0656
-1.3102	năm nay	-0.0656
-1.9302	năm ngoái	-0.0656
-1.9010	năm ngồi	-0.0656
-1.9081	năm nhất	-0.0656
-1.9302	năm trời	-0.0656
-0.4459	năn nỉ	-0.0656
-0.7579	năng còn	-0.0656
-0.7584	năng, trong thời	-0.0656
-0.7457	nơi khác	-0.0656
-1.3430	nơi nhưng	-0.0656
-1.3467	nơi tên	-0.0656
-1.6812	nước bạn	-0.0656
-1.6944	nước bộ	-0.0656
-1.7414	nước chi	-0.0656
-1.7267	nước do	-0.0656
-1.7565	nước hoa	-0.0656
-1.7565	nước khẳng	-0.0656
-1.1364	nước ngoài	-0.1592
-1.7172	nước nói	-0.0656
-1.7514	nước năn	-0.0656
-0.0644	nạn nhân	-0.1006
-0.7579	nảy sinh	-0.1592
-0.7584	nắm bắt	-0.0656
-0.7601	nằm kế	-0.0656
-1.5738	nẵng gần	-0.0656
-1.6030	nẵng khuyến	-0.0656
-1.5992	nẵng pc46	-0.0656
-1.5703	nẵng phải	-0.0656
-1.5398	nẵng vào	-0.0656
-1.4875	nẵng đã	-0.0656
-1.5955	nẵng đối	-0.0656
-0.7606	nẵng… đại	-0.0656
-1.0434	nặng </s>	0.0000
-1.1837	nặng đã	-0.0656
-1.2372	nặng được chuyển	-0.0656
-1.0415	nếu không	-0.0656
-1.0573	nếu xảy	-0.0656
-0.9232	nỉ </s>	0.0000
-1.0562	nỉ vừa	-0.0656
-0.7520	nối lại	-0.0656
-1.2102	nội </s>	0.0000
-1.5334	nội bài	-0.0656
-1.5334	nội dung	-0.0656
-1.5238	nội tp	-0.0656
-1.4132	nội và	-0.0656
-1.4357	nội đã	-0.0656
-0.7612	nộp phạt	-0.0656
-0.6864	nở </s>	0.0000
-1.8566	nữ bị	-0.0656
-1.9901	nữ cán	-0.0656
-1.9954	nữ gọi	-0.0656
-1.9954	nữ nữa	-0.0656
-2.0115	nữ quái	-0.0656
-0.3405	nữ sinh	-0.2032
-1.9901	nữ tố	-0.0656
-1.9954	nữ xưng	-0.0656
-2.0007	nữ độc	-0.0656
-1.3425	nữa cũng	-0.0656
-1.3343	nữa là	-0.0656
-1.3425	nữa số	-0.0656
-1.3530	nữa tôi	-0.0656
-0.7584	oai quận	-0.0656
-1.4462	oan cho	-0.0656
-1.4357	oan của	-0.0656
-1.5023	oan nguyễn	-0.0656
-1.5334	oan sai	-0.0656
-1.5302	oan suốt	-0.0656
-1.4132	oan và	-0.0656
-0.6864	online </s>	0.0000
-1.0292	pc46 cho	-0.0656
-1.0573	pc46 đà	-0.0656
-0.7536	phi vụ	-0.0656
-1.5969	phiên phúc	-0.0656
-1.6002	phiên sơ	-0.0656
-1.6035	phiên tái	-0.0656
-0.9854	phiên tòa	-0.1592
-0.9886	phiên xử	-0.0656
-0.7612	phán toà	-0.0656
-1.1713	pháp </s>	0.0000
-1.4526	pháp luật	-0.0656
-1.4292	pháp nguyễn	-0.0656
-1.4368	pháp sẽ	-0.0656
-1.4526	pháp trần	-0.0656
-0.3553	phát hiện	-0.0656
-1.4572	phát lệnh	-0.0656
-0.7606	phê chuẩn	-0.0656
-1.0595	phí 550	-0.0656
-1.0436	phí hà	-0.0656
-1.0530	phía nam	-0.0656
-1.0552	phía ngoài	-0.0656
-1.5881	phòng 10	-0.0656
-1.5565	phòng bộ	-0.0656
-1.5809	phòng con	-0.0656
-1.5565	phòng cảnh	-0.0656
-1.5599	phòng cấp	-0.1803
-1.5431	phòng làm	-0.0656
-1.5992	phòng pc46	-0.0656
-1.0446	phó công	-0.0656
-1.0595	phó khoa	-0.0656
-0.7579	phóng muốn	-0.0656
-0.7612	phú a	-0.1257
-0.6209	phúc thẩm	-0.0656
-1.2374	phúc tân	-0.0656
-0.4431	phút sau	-0.0656
-1.0434	phương </s>	0.0000
-1.2212	phương em	-0.0656
-1.2244	phương mới	-0.0656
-0.7612	phước đăk	-0.0656
-1.2356	phường long	-0.1592
-1.2339	phường phúc	-0.0656
-1.2339	phường tăng	-0.2265
-1.3847	phạm </s>	0.0000
-1.8640	phạm công	-0.0656
-1.9584	phạm giết	-0.0656
-1.3692	phạm hoàng	-0.1592
-1.9347	phạm hài	-0.0656
-1.8840	phạm là	-0.0656
-1.9835	phạm mồ	-0.0656
-1.9050	phạm nhân	-0.0656
-1.9425	phạm thị	-0.0656
-1.9835	phạm tuấn	-0.0656
-1.8979	phạm tạt	-0.0656
-1.9271	phạm tội	-0.0656
-1.3671	phạm văn	-0.0656
-1.8264	phạm về	-0.0656
-1.8705	phạm đi	-0.0656
-0.7584	phạt thêm	-0.0656
-1.7989	phải chuyển	-0.0656
-1.8285	phải chịu	-0.0656
-1.7160	phải có	-0.0656
-1.8224	phải kéo	-0.0656
-1.7402	phải làm	-0.0656
-1.8285	phải nhờ	-0.0656
-1.7767	phải ra	-0.0656
-1.8285	phải sở	-0.0656
-1.7353	phải thanh	-0.0656
-1.2197	phải đóng	-0.0656
-1.7113	phải để	-0.0656
-0.7584	phẩm áo	-0.0656
-0.7525	phận công	-0.0656
-1.0616	phỏng mi	-0.0656
-1.0562	phỏng mặt	-0.0656
-1.0595	phố quảng	-0.0656
-1.0573	phố đà	-0.1592
-0.7612	phối hợp	-0.0656
-0.7568	phổ thông	-0.0656
-1.2347	phụ bạc	-0.0656
-0.6175	phụ nữ	-0.0656
-1.0252	phục của	-0.0656
-1.0477	phục trên	-0.0656
-1.0415	phủ nhận	-0.0656
-1.0616	phủ sóng	-0.0656
-0.7612	phức tạp	-0.0656
-1.7699	qua 4	-0.0656
-1.7862	qua biên	-0.0656
-1.7646	qua chúng	-0.0656
-1.7103	qua các	-0.0656
-1.1837	qua kiểm	-0.1592
-1.7753	qua kết	-0.0656
-1.7917	qua trích	-0.0656
-1.7197	qua tại	-0.0656
-1.7542	qua việt	-0.0656
-1.7011	qua ông	-0.0656
-2.0516	quan chức	-0.0656
-2.0729	quan csđt	-0.0656
-1.8817	quan có	-0.0656
-1.9261	quan công	-0.0656
-2.0119	quan do	-0.0656
-1.4619	quan hệ	-0.0656
-2.0621	quan malaysia	-0.0656
-2.0119	quan mang	-0.0656
-2.0729	quan mà	-0.0656
-1.9340	quan nhiều	-0.0656
-2.0729	quan tâm	-0.0656
-2.0516	quan tới	-0.0656
-1.9933	quan việt	-0.0656
-1.9420	quan vụ	-0.0656
-1.9501	quan điều	-0.2265
-1.7988	quan đã	-0.0656
-2.0621	quan đòi	-0.0656
-2.0215	quan đường	-0.0656
-1.9184	quan đến	-0.0656
-2.0729	quan đều	-0.0656
-1.0616	quanh co	-0.0656
-1.0446	quanh trong	-0.0656
-1.0436	quay lại	-0.0656
-1.0384	quay về	-0.0656
-0.6175	quen bác	-0.2265
-1.4300	quen trên	-0.0656
-1.4053	quen với	-0.0656
-0.7568	qui xe	-0.0656
-0.7568	quy định	-0.0656
-0.7579	quyên sinh	-0.0656
-1.3969	quyết </s>	0.0000
-1.7488	quyết bồi	-0.1592
-1.6667	quyết của	-0.0656
-1.7772	quyết thương	-0.0656
-1.7987	quyết xong	-0.0656
-1.6799	quyết được	-0.0656
-0.5337	quyết định	-0.1006
-1.4509	quyền 21	-0.0656
-0.8236	quyền bị	-0.1592
-1.4484	quyền kêu	-0.0656
-1.4250	quyền đang	-0.0656
-1.5741	quà của	-0.0656
-1.6845	quà giá	-0.0656
-1.0817	quà hàng	-0.1592
-1.6593	quà ngân	-0.0656
-1.6759	quà thì	-0.0656
-1.6933	quà trị	-0.0656
-1.6354	quà từ	-0.0656
-1.6977	quà đặc	-0.0656
-1.0595	quá giới	-0.0656
-1.0616	quá trình	-0.0656
-0.7531	quái này	-0.0656
-0.7515	quê thanh	-0.0656
-0.7601	quên nhắn	-0.0656
-0.7541	quý cô	-0.0656
-0.7612	quả nghiêm	-0.0656
-0.6199	quản lý	-0.1257
-1.2333	quản trang	-0.0656
-1.2374	quảng ngãi	-0.0656
-0.6205	quảng trị	-0.0656
-1.1804	quần và	-0.0656
-0.6202	quần áo	-0.0656
-1.5902	quận 4	-0.0656
-1.5984	quận 5	-0.0656
-0.5019	quận 9	-0.2531
-1.6012	quận hoàn	-0.0656
-1.3795	quốc của	-0.0656
-1.4436	quốc rồi	-0.0656
-0.8435	quốc thắng	-0.1386
-1.4413	quốc truy	-0.0656
-1.0457	quỳnh </s>	0.0000
-1.8173	quỳnh 18	-0.1592
-1.7486	quỳnh bạn	-0.0656
-1.7950	quỳnh chủ	-0.1592
-1.7843	quỳnh cùng	-0.0656
-1.8349	quỳnh kề	-0.0656
-1.7437	quỳnh làm	-0.0656
-1.7585	quỳnh sau	-0.0656
-1.8289	quỳnh ôm	-0.1592
-1.2029	quỳnh đang	-0.0656
-1.3697	ra </s>	0.0000
-1.8956	ra bình	-0.0656
-1.9411	ra ca	-0.0656
-1.9492	ra cháy	-0.0656
-1.9574	ra file	-0.0656
-1.9574	ra hào	-0.0656
-1.9574	ra hỏa	-0.0656
-1.7991	ra một	-0.0656
-1.9102	ra ngoài	-0.0656
-1.9254	ra tand	-0.0656
-1.3391	ra tay	-0.0656
-1.9178	ra tòa	-0.0656
-1.8544	ra vụ	-0.0656
-1.7348	ra đã	-0.0656
-1.9102	ra đầu	-0.0656
-1.2307	riêng quyền	-0.0656
-1.1924	riêng sang	-0.0656
-1.2372	riêng vũ	-0.0656
-0.7606	ruồng rẫy	-0.0656
-1.0584	ruột duyên	-0.0656
-1.0415	ruột nhận	-0.0656
-0.7515	rào vào	-0.0656
-0.7612	rã gõ	-0.0656
-0.7612	ròng rã	-0.0656
-0.7612	rõ rệt	-0.0656
-0.7606	rút dao	-0.0656
-0.7612	răm rắp	-0.0656
-1.0616	rượu lậu	-0.0656
-1.0552	rượu ngoại	-0.0656
-1.4580	rất lo	-0.0656
-1.4526	rất lớn	-0.0656
-1.4191	rất nhiều	-0.0656
-1.4580	rất phức	-0.0656
-1.4580	rất xấu	-0.0656
-1.1189	rẫy </s>	0.0000
-1.2991	rẫy cho	-0.0656
-1.3488	rẫy do	-0.0656
-1.2972	rẫy người	-0.0656
-0.7612	rắp vội	-0.0656
-1.1851	rằng bị	-0.0656
-1.2073	rằng không	-0.0656
-1.2073	rằng ông	-0.0656
-0.9232	rẻ </s>	0.0000
-1.0530	rẻ điện	-0.1592
-0.7595	rể duyên	-0.0656
-0.6864	rệt </s>	0.0000
-1.5809	rồi chuyển	-0.1592
-1.5992	rồi giờ	-0.0656
-1.5809	rồi mang	-0.0656
-1.5053	rồi sang	-0.0656
-1.5955	rồi tạo	-0.0656
-1.5992	rồi tẩu	-0.0656
-1.5955	rồi tổng	-0.0656
-0.7574	rộng việc	-0.0656
-0.7606	rời cổng	-0.0656
-1.3488	rủ cậu	-0.0656
-1.3404	rủ em	-0.0656
-1.3242	rủ thanh	-0.0656
-1.3509	rủ thêm	-0.0656
-1.0292	sai cho	-0.0656
-1.0616	sai lệch	-0.0656
-1.4669	sang </s>	0.0000
-2.3167	sang 18	-0.1592
-2.3542	sang bám	-0.0656
-2.2991	sang bảo	-0.0656
-1.9585	sang bị	-0.0656
-2.2659	sang chuyển	-0.0656
-2.3742	sang chuộc	-0.0656
-2.2991	sang cầm	-0.0656
-2.3350	sang doạ	-0.0656
-1.7632	sang hay	-0.1592
-2.3542	sang hận	-0.0656
-2.3542	sang hỏi	-0.0656
-2.2822	sang khai	-0.0656
-2.1664	sang là	-0.0656
-2.2063	sang lên	-0.0656
-2.2659	sang muốn	-0.0656
-2.3350	sang mượn	-0.0656
-2.2991	sang mặc	-0.0656
-1.7341	sang mới	-0.0656
-1.7533	sang mỹ	-0.0656
-1.5064	sang nhiều	-0.2265
-2.3542	sang nhờ	-0.0656
-2.2822	sang quyết	-0.0656
-2.3167	sang rủ	-0.0656
-2.3742	sang thuê	-0.0656
-2.3742	sang thỉnh	-0.0656
-2.3350	sang thừa	-0.0656
-2.3542	sang trái	-0.0656
-2.1926	sang tạt	-0.0656
-1.5914	sang và	-0.0656
-1.7734	sang vẫn	-0.0656
-1.7024	sang đi	-0.0656
-1.9827	sang được	-0.0656
-2.1184	sang đến	-0.0656
-2.3350	sang đổ	-0.0656
-1.2356	sao khiến	-0.1592
-1.2181	sao tiền	-0.0656
-1.2372	sao vàng	-0.0656
-1.4553	sau 10	-0.0656
-2.0275	sau 2	-0.0656
-1.4553	sau bà	-0.0656
-1.8262	sau bị	-0.0656
-2.0364	sau cuộc	-0.0656
-1.9935	sau cũng	-0.2265
-1.8207	sau của	-0.0656
-2.0548	sau hỗn	-0.0656
-1.2222	sau khi	-0.0656
-1.8921	sau một	-0.0656
-1.8549	sau sang	-0.0656
-2.0364	sau tand	-0.0656
-2.0275	sau thấy	-0.0656
-2.0643	sau vài	-0.0656
-1.2306	sau đó	-0.0656
-0.7601	scan máy	-0.0656
-0.7536	scotland lừa	-0.0656
-2.0881	sinh bất	-0.0656
-1.8246	sinh bị	-0.1445
-2.0660	sinh chia	-0.0656
-2.0450	sinh con	-0.0656
-2.0660	sinh cầm	-0.0656
-2.0249	sinh gần	-0.0656
-2.0995	sinh hoảng	-0.0656
-1.9287	sinh không	-0.0656
-2.0058	sinh lan	-0.0656
-2.0058	sinh lên	-0.0656
-2.0058	sinh nhưng	-0.0656
-1.4617	sinh này	-0.1257
-2.0153	sinh năm	-0.0656
-2.1113	sinh nở	-0.0656
-2.0769	sinh rủ	-0.0656
-1.8566	sinh sang	-0.0656
-2.0249	sinh sẽ	-0.0656
-1.9785	sinh trên	-0.1592
-1.9874	sinh tình	-0.1592
-2.0450	sinh vì	-0.0656
-2.0348	sinh yêu	-0.0656
-1.8185	sinh đã	-0.0656
-0.7536	siêu lừa	-0.0656
-0.7478	so với	-0.0656
-0.7612	su ngôi	-0.0656
-1.2307	suốt 10	-0.0656
-1.2196	suốt hơn	-0.0656
-1.2134	suốt nhiều	-0.0656
-0.7612	sài gòn	-0.0656
-0.7601	sách xã	-0.1592
-1.3599	sáng 16/10	-0.0656
-1.3448	sáng cùng	-0.0656
-0.7443	sáng nay	-0.0656
-1.7068	sát các	-0.0656
-1.7686	sát nước	-0.0656
-1.7855	sát sao	-0.1592
-1.7798	sát toàn	-0.0656
-1.7741	sát tỉnh	-0.1592
-1.7214	sát đang	-0.0656
-1.7264	sát điều	-0.0656
-1.6280	sát đã	-0.0656
-1.7741	sát đưa	-0.0656
-1.7971	sát đề	-0.0656
-1.7855	sát đối	-0.0656
-0.4459	sân bay	-0.0656
-0.7606	sòng bài	-0.0656
-1.2058	sóc bệnh	-0.0656
-1.2212	sóc em	-0.0656
-1.2339	sóc tốt	-0.0656
-0.6864	sóng </s>	0.0000
-1.3260	sĩ </s>	0.0000
-1.8217	sĩ chiếm	-0.0656
-1.7974	sĩ chúng	-0.0656
-1.7118	sĩ có	-0.0656
-1.7974	sĩ do	-0.0656
-1.8217	sĩ giả	-0.0656
-1.8155	sĩ huyện	-0.0656
-1.8344	sĩ lôi	-0.0656
-1.8094	sĩ nên	-0.0656
-1.7744	sĩ phạm	-0.0656
-1.8344	sĩ đêm	-0.0656
-1.7070	sĩ để	-0.0656
-1.0584	sơ thẩm	-0.0656
-1.0467	sơ vụ	-0.0656
-1.0616	sơn 28	-0.0656
-1.0595	sơn trưởng	-0.0656
-1.0509	sư trả	-0.0656
-1.0446	sư ở	-0.0656
-0.7612	sướng… sẵn	-0.0656
-1.1189	sản </s>	0.0000
-1.3488	sản giá	-0.0656
-1.3616	sản hư	-0.0656
-1.2754	sản và	-0.0656
-0.7612	sắp cưới	-0.0656
-0.7612	sẵn vốn	-0.0656
-1.7404	sẽ bán	-0.0656
-1.7302	sẽ chở	-0.0656
-1.7252	sẽ gặp	-0.0656
-1.7056	sẽ liên	-0.0656
-1.7104	sẽ qua	-0.0656
-1.7056	sẽ trả	-0.0656
-1.7457	sẽ tung	-0.0656
-1.7457	sẽ tuyên	-0.0656
-1.7509	sẽ xem	-0.0656
-1.6152	sẽ được	-0.0656
-1.7509	số bộ	-0.0656
-1.7439	số này	-0.0656
-0.5331	số tiền	-0.0656
-1.1770	số tài	-0.1592
-1.1723	số vụ	-0.1257
-1.3573	sống bằng	-0.0656
-1.3404	sống chung	-0.0656
-1.2754	sống và	-0.0656
-1.3282	sống ở	-0.0656
-0.7547	sớm ngân	-0.0656
-1.0616	sở khanh”	-0.0656
-1.0616	sở thích	-0.0656
-0.7493	sợ có	-0.0656
-0.9232	sức </s>	0.0000
-1.0616	sức khỏe	-0.0656
-0.4459	sử dụng	-0.0656
-1.4473	sự lê	-0.0656
-1.4580	sự phối	-0.0656
-1.4526	sự tuyên	-0.0656
-1.4580	sự uất	-0.0656
-1.4022	sự về	-0.0656
-1.6435	ta bỏ	-0.0656
-1.6233	ta cũng	-0.0656
-1.6394	ta khai	-0.0656
-1.6519	ta kiếm	-0.0656
-1.6562	ta quay	-0.0656
-1.6477	ta rủ	-0.0656
-1.6605	ta uy	-0.1592
-1.6477	ta động	-0.0656
-1.4216	tand các	-0.0656
-1.4539	tand quảng	-0.0656
-0.6178	tand tối	-0.2265
-0.8272	tay </s>	0.0000
-1.7570	tay cổ…	-0.0656
-1.7386	tay mặc	-0.0656
-1.6384	tay sang	-0.0656
-1.6916	tay tại	-0.0656
-1.1162	tay với	-0.0656
-1.6757	tay ông	-0.0656
-0.7612	ta đến giường	-0.0656
-0.7493	tha về	-0.0656
-0.7379	thai và	-0.0656
-1.4561	tham dự	-0.0656
-0.6168	tham gia	-0.0656
-1.4539	tham mưu	-0.0656
-2.0041	thanh -	-0.0656
-2.0422	thanh 18	-0.0656
-1.8092	thanh bị	-0.0656
-2.0626	thanh chấn	-0.1257
-2.0227	thanh chở	-0.0656
-1.9863	thanh cùng	-0.0656
-1.9863	thanh cũng	-0.0656
-2.0523	thanh giúp	-0.0656
-2.0626	thanh hóa	-0.0656
-1.4517	thanh khai	-0.0656
-2.0626	thanh kể	-0.0656
-1.9214	thanh lại	-0.0656
-1.4620	thanh niên	-0.0946
-1.8393	thanh sang	-0.1257
-2.0626	thanh sơn	-0.0656
-2.0731	thanh toán	-0.0656
-1.9367	thanh tại	-0.0656
-1.7546	thanh và	-0.0656
-1.8034	thanh đã	-0.0656
-0.7547	thao đồng	-0.0656
-0.6215	thay đổi	-0.1257
-1.2374	thay đổibộ	-0.0656
-1.3730	theo </s>	0.0000
-1.9010	theo báo	-0.0656
-1.8236	theo bạn	-0.0656
-1.8803	theo cơ	-0.0656
-1.8417	theo cảnh	-0.0656
-1.9153	theo di	-0.0656
-1.3193	theo hướng	-0.0656
-1.8479	theo ngân	-0.0656
-1.9081	theo nội	-0.0656
-1.8736	theo thông	-0.0656
-1.8062	theo ông	-0.0656
-1.2959	theo điều	-0.1592
-1.8940	theo đường	-0.0656
-0.7595	thiếu trách	-0.0656
-0.3966	thiệt hại	-0.1257
-0.7520	thiệu làm	-0.0656
-0.6864	thoát </s>	0.0000
-1.2403	thoại </s>	0.0000
-1.4875	thoại của	-0.0656
-1.5955	thoại di	-0.0656
-1.5497	thoại hàng	-0.0656
-1.5955	thoại iphone	-0.0656
-1.6030	thoại luôn	-0.0656
-1.5269	thoại về	-0.0656
-0.7601	thoả thuận	-0.0656
-0.7612	thoải mái	-0.1592
-0.7520	thoảng lại	-0.0656
-1.0584	thu giữ	-0.0656
-1.0595	thu nhập	-0.0656
-0.7552	thuê tạt	-0.0656
-0.9232	thuẫn </s>	0.0000
-1.0595	thuẫn thường	-0.1592
-1.5302	thuận bắc	-0.0656
-1.4993	thuận bồi	-0.0656
-1.4462	thuận cho	-0.0656
-1.4964	thuận cảnh	-0.0656
-1.4132	thuận và	-0.0656
-1.4357	thuận đã	-0.0656
-0.7612	thuế 30	-0.0656
-0.9232	thuốc </s>	0.0000
-1.0584	thuốc đặc	-0.0656
-1.0676	thành </s>	0.0000
-0.6219	thành phố	-0.1257
-1.7976	tháng 2/2014	-0.0656
-1.7711	tháng 3	-0.0656
-1.7976	tháng 4/2014	-0.0656
-1.7868	tháng 5	-0.0656
-1.7976	tháng 7/2013	-0.0656
-1.7868	tháng 8	-0.0656
-1.7976	tháng 8/2003	-0.0656
-1.7711	tháng thương	-0.0656
-0.9541	tháng trước	-0.0656
-0.7425	tháp… đã	-0.0656
-1.0517	thân </s>	0.0000
-1.6862	thân cho	-0.0656
-1.2229	thân ham	-0.0656
-1.8351	thân lai	-0.0656
-1.2091	thân nhân	-0.0656
-1.8128	thân quen	-0.0656
-1.8128	thân tham	-0.0656
-1.7426	thân từ	-0.0656
-1.7968	thân đơn	-0.0656
-0.7606	thét loạng	-0.0656
-1.5207	thêm 3	-0.0656
-1.5302	thêm 6	-0.0656
-1.4678	thêm một	-0.0656
-1.4818	thêm thanh	-0.0656
-1.5145	thêm tội	-0.0656
-1.5207	thêm áo	-0.0656
-1.5714	thì bị	-0.0656
-1.6522	thì bộ	-0.0656
-1.6829	thì chúng	-0.0656
-1.6275	thì không	-0.0656
-1.6356	thì làm	-0.0656
-1.7111	thì nảy	-0.1592
-1.5893	thì sang	-0.0656
-1.6921	thì xảy	-0.0656
-1.5820	thì được	-0.0656
-0.7579	thích giải	-0.0656
-0.7612	thôn me	-0.0656
-0.8720	thông báo	-0.1257
-0.4481	thông tin	-0.0656
-1.6014	thông và	-0.0656
-1.2102	thù </s>	0.0000
-1.4462	thù cho	-0.0656
-1.5238	thù hứa	-0.0656
-1.4993	thù tình	-0.0656
-1.5366	thù tình”	-0.0656
-1.5176	thù vì	-0.0656
-1.0456	thùng hàng	-0.0656
-1.0573	thùng mỹ	-0.0656
-1.0415	thú nhận	-0.0656
-1.0353	thú với	-0.0656
-1.5366	thúy 53	-0.0656
-1.5334	thúy mẫn	-0.0656
-1.5053	thúy ra	-0.0656
-1.5302	thúy thừa	-0.0656
-1.5366	thúy tức	-0.0656
-1.4132	thúy và	-0.0656
-0.7590	thăm quyền	-0.0656
-1.6035	thương bởi	-0.0656
-0.9886	thương lượng	-0.0656
-1.5841	thương ngoại	-0.0656
-1.6002	thương nặng	-0.0656
-0.9886	thương tích	-0.1257
-1.3605	thường </s>	0.0000
-1.9404	thường 7,2	-0.1592
-1.7504	thường cho	-0.0656
-1.8010	thường có	-0.0656
-1.8652	thường cấp	-0.0656
-1.8721	thường hơn	-0.0656
-1.8193	thường không	-0.0656
-1.9012	thường nhà	-0.3514
-1.9404	thường oan	-0.0656
-1.9323	thường rất	-0.0656
-1.9404	thường thiệt	-0.0656
-1.8652	thường tiền	-0.0656
-1.9323	thường toàn	-0.0656
-1.9572	thường xuyên	-0.0656
-1.9243	thường xảy	-0.1592
-1.7504	thường được	-0.0656
-0.7606	thượng tá	-0.0656
-0.7457	thản sang	-0.0656
-0.7552	thấp hơn	-0.0656
-1.2564	thấy </s>	0.0000
-1.5500	thấy bạn	-0.0656
-0.9733	thấy không	-0.1257
-1.5026	thấy người	-0.0656
-1.6032	thấy nhịp	-0.0656
-1.5962	thấy tung	-0.0656
-1.4499	thẩm bác	-0.0656
-1.4580	thẩm phán	-0.0656
-1.4473	thẩm tand	-0.0656
-1.4499	thẩm xét	-0.0656
-1.3723	thẩm đã	-0.0656
-0.7612	thật bẽ	-0.0656
-0.7601	thắc mắc	-0.0656
-1.1189	thắng </s>	0.0000
-1.3594	thắng *	-0.2265
-1.3467	thắng -	-0.0656
-1.3551	thắng sáng	-0.0656
-0.7612	thẻ atm	-0.0656
-1.2212	thế nhưng	-0.0656
-1.2372	thế vinh	-0.0656
-1.2259	thế việc	-0.0656
-1.2102	thể </s>	0.0000
-1.5176	thể do	-0.0656
-1.5302	thể giúp	-0.0656
-1.5334	thể giấu	-0.0656
-1.5176	thể lý	-0.0656
-1.5366	thể thao	-0.0656
-0.7612	thỉnh thoảng	-0.0656
-1.5992	thị chiến	-0.0656
-1.5918	thị duyên	-0.0656
-1.5992	thị hoan	-0.0656
-1.5668	thị liên	-0.0656
-1.5599	thị ngân	-0.0656
-1.6030	thị trấn	-0.0656
-1.5992	thị xuân	-0.3514
-0.7612	thỏa mơ	-0.0656
-1.2432	thời </s>	0.0000
-1.5206	thời donald	-0.0656
-0.6976	thời gian	-0.0656
-1.5370	thời phổ	-0.0656
-0.4447	thụ lý	-0.0656
-1.2945	thủ </s>	0.0000
-1.6533	thủ nhanh	-0.0656
-1.0380	thủ phạm	-0.0656
-1.0454	thủ tục	-0.0656
-1.6571	thủ đoạn	-0.0656
-1.5806	thủ để	-0.0656
-1.2372	thủy 56	-0.0656
-1.2356	thủy hầu	-0.0656
-1.1837	thủy đã	-0.0656
-1.0252	thức của	-0.0656
-1.0616	thức “sạch	-0.0656
-0.3935	thừa nhận	-0.0656
-0.7590	thực hiện	-0.0656
-1.2839	tin </s>	0.0000
-1.6522	tin bộ	-0.0656
-1.7111	tin cụ	-0.0656
-1.7015	tin doạ	-0.1592
-1.6565	tin nạn	-0.0656
-1.6522	tin trên	-0.0656
-1.6042	tin với	-0.0656
-1.6522	tin xác	-0.0656
-1.7111	tin ít	-0.0656
-1.2347	tiến dũng	-0.0656
-0.6219	tiến triển	-0.0656
-1.0562	tiếng anh	-0.0656
-1.0415	tiếng không	-0.0656
-1.6422	tiếp 4	-0.0656
-1.6002	tiếp làm	-0.0656
-1.6242	tiếp lên	-0.1592
-1.0299	tiếp nhận	-0.0656
-1.0454	tiếp tục	-0.0656
-1.6609	tiếp xúc	-0.0656
-1.1878	tiền </s>	0.0000
-1.8130	tiền bị	-0.0656
-1.2224	tiền bồi	-0.2265
-2.0146	tiền chưa	-0.0656
-1.9240	tiền các	-0.0656
-2.0528	tiền hay	-0.0656
-1.9240	tiền hà	-0.0656
-1.9794	tiền lan	-0.0656
-2.0055	tiền nhà	-0.0656
-2.0429	tiền nhất	-0.0656
-2.0333	tiền những	-0.0656
-1.9391	tiền này	-0.0656
-1.9879	tiền qua	-0.0656
-1.9315	tiền trong	-0.0656
-2.0528	tiền tới	-0.0656
-2.0146	tiền tỷ	-0.0656
-2.0629	tiền đòi	-0.0656
-2.0528	tiền đóng	-0.0656
-0.7584	tiểu thương	-0.0656
-0.7601	toà phúc	-0.0656
-0.7406	toàn bộ	-0.0656
-1.3618	toàn cầuai	-0.0656
-1.3561	toàn quốc	-0.0656
-0.7612	toán gấp…	-0.0656
-0.3559	tp hcm	-0.1166
-1.4521	tp đà	-0.0656
-1.3757	tra </s>	0.0000
-1.9745	tra ban	-0.0656
-1.7709	tra cho	-0.0656
-1.9412	tra chỉ	-0.0656
-1.9332	tra gặp	-0.0656
-1.9254	tra hành	-0.0656
-1.8543	tra lại	-0.0656
-1.9745	tra nếu	-0.0656
-1.3146	tra sang	-0.0656
-1.9832	tra scan	-0.0656
-1.9832	tra tối10/10	-0.0656
-1.9254	tra tội	-0.0656
-1.9575	tra vksnd	-0.0656
-1.8226	tra về	-0.1257
-1.9832	tra ép	-0.0656
-1.9745	tra ôtô	-0.0656
-1.5000	trai của	-0.0656
-1.5080	trai người	-0.0656
-0.7640	trai tây	-0.0656
-1.5591	trai đang	-0.0656
-1.5621	trai điều	-0.0656
-1.4473	trang liệt	-0.1592
-1.4420	trang ngoại	-0.0656
-1.4191	trang tại	-0.0656
-1.3527	trang và	-0.0656
-1.4580	trang y	-0.0656
-0.4457	trao đổi	-0.0656
-1.0584	triển mối	-0.0656
-1.0595	triển tốt	-0.0656
-1.6631	triệu tập	-0.0656
-0.1861	triệu đồng	-0.0656
-2.0671	trong 10	-0.0656
-2.0566	trong 2	-0.0656
-1.9242	trong bệnh	-0.0656
-1.9810	trong bộ	-0.0656
-2.0671	trong chính	-0.0656
-2.0671	trong cuộc	-0.0656
-1.9476	trong các	-0.0656
-2.1000	trong căn	-0.0656
-1.9898	trong hai	-0.0656
-1.9810	trong khi	-0.0656
-2.1000	trong khoảng	-0.0656
-2.0671	trong lúc	-0.0656
-1.4841	trong nhà	-0.0656
-2.0566	trong phiên	-0.0656
-2.0566	trong phòng	-0.3514
-2.0778	trong sáng	-0.0656
-1.4786	trong số	-0.2265
-1.9898	trong tình	-0.0656
-1.9810	trong điều	-0.0656
-2.0364	trong đó	-0.0656
-2.0364	trong đơn	-0.0656
-1.2323	trung huyện	-0.0656
-1.2356	trung niên	-0.0656
-1.2372	trung ương	-0.0656
-0.8702	truy bắt	-0.0656
-1.7115	truy cập	-0.0656
-1.7115	truy nã	-0.1592
-1.6985	truy sát	-0.0656
-1.6900	truy tìm	-0.0656
-1.6942	truy tố	-0.1257
-1.6985	truy xét	-0.0656
-1.3501	trách chủ	-0.0656
-0.5214	trách nhiệm	-0.1099
-1.2356	trái phỏng	-0.0656
-1.1709	trái và	-0.0656
-1.2339	trái độ	-0.0656
-1.0622	trên facebook	-0.0656
-1.9027	trên facebook…	-0.0656
-1.0637	trên mạng	-0.1257
-1.8876	trên toàn	-0.1592
-1.8635	trên xe	-0.0656
-0.6389	trên đường	-0.1386
-0.7541	trình điều	-0.0656
-0.7541	trí trên	-0.0656
-0.4449	trích xuất	-0.1592
-0.7595	trò chuyện	-0.0656
-0.7531	trú tại	-0.0656
-1.2339	trưa 15/10	-0.0656
-1.2372	trưa 15/9	-0.0656
-1.2291	trưa nay	-0.0656
-1.8116	trước cuộc	-0.0656
-1.7635	trước cô	-0.0656
-1.8289	trước cổng	-0.0656
-1.8231	trước cửa	-0.0656
-1.7635	trước khi	-0.0656
-1.1825	trước sang	-0.0656
-1.7950	trước việc	-0.0656
-1.8005	trước đây	-0.0656
-1.2127	trước đó	-0.0656
-1.7486	trước ở	-0.0656
-0.9938	trường </s>	0.0000
-1.1380	trường cao	-0.2265
-1.7376	trường chờ	-0.0656
-1.7568	trường chứ	-0.0656
-1.7329	trường quận	-0.1592
-1.7519	trường sơn	-0.0656
-1.6764	trường thanh	-0.0656
-1.6604	trường về	-0.0656
-1.5338	trưởng bốn	-0.0656
-1.5022	trưởng bồi	-0.0656
-1.5192	trưởng cục	-0.0656
-1.5050	trưởng nguyễn	-0.0656
-0.9189	trưởng phòng	-0.0656
-1.0606	trạng phỏng	-0.0656
-1.0477	trạng xác	-0.0656
-1.8428	trả bồi	-0.1592
-1.2696	trả công	-0.2265
-1.8202	trả lại	-0.0656
-1.0621	trả lời	-0.0656
-0.6397	trả thù	-0.1561
-1.8428	trả tiền	-0.0656
-1.8247	trả trong	-0.0656
-0.7612	trấn ma	-0.0656
-1.2372	trần nhật	-0.0656
-1.2088	trần thanh	-0.0656
-1.2339	trần tiến	-0.0656
-0.7584	trặc hải	-0.0656
-0.8272	trị </s>	0.0000
-1.7296	trị giá	-0.0656
-1.7477	trị lớn	-0.0656
-1.7477	trị mở	-0.0656
-1.7209	trị trước	-0.0656
-1.6916	trị tại	-0.0656
-1.1183	trị để	-0.0656
-0.6864	trọng </s>	0.0000
-1.0616	trốn khỏi	-0.0656
-1.0509	trốn theo	-0.0656
-1.2374	trộm cắp	-0.0656
-0.6199	trộm hài	-0.1592
-0.7568	trời mới	-0.0656
-0.7612	trục trặc	-0.0656
-0.7574	trực tiếp	-0.0656
-0.7430	tum bị	-0.0656
-1.2372	tung clip	-0.0656
-1.2339	tung lực	-0.0656
-1.2356	tung tích	-0.0656
-0.7612	tuy nhiên	-0.0656
-1.2374	tuyên buộc	-0.0656
-0.6202	tuyên án	-0.0656
-0.7612	tuấn chiêm	-0.0656
-1.0573	tuần alfred	-0.0656
-1.0530	tuần trước	-0.0656
-1.1933	tuổi </s>	0.0000
-2.0074	tuổi -	-0.0656
-2.0536	tuổi cha	-0.0656
-1.4548	tuổi cầm	-0.0656
-2.0635	tuổi cựu	-0.0656
-1.9818	tuổi lan	-0.0656
-2.0635	tuổi mẫn	-0.0656
-1.9736	tuổi nguyễn	-0.0656
-2.0345	tuổi ngồi	-0.0656
-1.4648	tuổi ngụ	-0.0656
-2.0536	tuổi quản	-0.0656
-2.0536	tuổi thành	-0.0656
-1.9577	tuổi trên	-0.0656
-1.7650	tuổi và	-0.0656
-1.8127	tuổi đã	-0.0656
-1.8857	tuổi để	-0.0656
-1.4263	tuổi ở	-0.1257
-1.0584	ty giao	-0.0656
-1.0436	ty làm	-0.0656
-1.1412	tài chính	-0.1592
-0.6568	tài khoản	-0.1257
-0.6568	tài sản	-0.1006
-1.0606	tá phó	-0.0656
-1.0595	tá trần	-0.0656
-0.7590	tác bảo	-0.0656
-0.7595	tái thẩm	-0.0656
-1.3594	táo dự	-0.0656
-1.3530	táo tham	-0.0656
-1.3467	táo tiếp	-0.0656
-1.3242	táo từ	-0.0656
-0.7595	táobịa chuyện	-0.0656
-0.7601	tâm đúng	-0.0656
-0.7488	tân để	-0.0656
-1.3488	tây donald	-0.0656
-1.3323	tây lừa	-0.0656
-1.3144	tây một	-0.0656
-1.3144	tây để	-0.0656
-1.7764	tên alfred	-0.0656
-1.7138	tên các	-0.0656
-1.1773	tên donald	-0.1592
